tree
version=v4
num_class=1
num_tree_per_iteration=1
label_index=0
max_feature_idx=55
objective=regression_l1
feature_names=AB AF AH AM AR AX AY AZ BC BD_ BN BP BQ BR BZ CB CC CD_ CF CH CL CR CS CU CW_ DA DE DF DH DI DL DN DU DV DY EB EE EG EH EJ EL EP EU FC FD_ FE FI FL FR FS GB GE GF GH GI GL
feature_infos=[0.081186999999999995:6.1616660000000003] [192.59327999999999:28688.18766] [85.200147000000001:1910.123198] [3.1775220000000002:630.51823000000002] [8.1386880000000001:178.943634] [0.69986099999999996:17.98377] [0.025578:10.315851] [3.3967779999999999:38.971567999999998] [1.2299:643.55395999999996] [1693.6243199999999:43882.2785] [9.8867999999999991:29.307300000000001] [72.948950999999994:1858.5386820000001] [1.3311550000000001:344.64410500000002] [51.216883000000003:57279.39647] [257.43237699999997:5917.1086379999997] [12.49976:2271.4361669999998] [0.17687412:1.58157324] [23.387599999999999:633.53440799999998] [0.51088800000000001:200.96752599999999] [0.0031840000000000002:0.224074] [1.050225:31.688152500000001] [0.069224999999999995:3.0396749999999999] [13.784110999999999:267.94282349999997] [0.13792499999999999:4.9515075] [7.03064:64.521624000000003] [6.9063999999999997:210.33091999999999] [38.189785000000001:2103.4051899999999] [0.23868:37.895012999999999] [0.040994999999999997:1.0604039999999999] [60.232469999999999:1049.1680779999999] [10.345599999999999:326.2362] [6.3394959999999996:62.808095999999999] [0.0055176000000000001:161.35531499999999] [1.7430699999999999:25.19293] [0.804068:103.55407599999999] [4.9263960000000004:94.958579999999998] [0.28620099999999998:18.324926000000001] [185.5941:30243.75878] [0.003042:42.569747999999997] -1:1:0 [5.3946750000000003:109.125159] [78.526967999999997:1063.594578] [3.8283839999999998:6501.2644799999998] [7.5341279999999999:3030.6558239999999] [0.29685:1578.654237] [1563.136688:143224.68229999999] [3.58345:35.851039] [0.17322899999999999:137.93273880000001] [0.49706:1244.22702] [0.067729999999999999:2.6143779999999999] [4.102182:62.667574000000002] [72.611063000000001:1497.351958] [13.038894000000001:143790.07120000001] [9.4327349999999992:81.210825] [0.89762799999999998:191.19476399999999] [0.0011292780000000001:21.978000000000002]
tree_sizes=567 606 622 627 531 580 591 622 708 771 616 816 759 616 1149 819 892 740 734 821 811 1146 657 804 646 812 1138 1231 729 893 731 902 736 983 988 821 891 820 907 893 994 1060 890 745 817 1063 822 738 732 821 814 901 659 659 656 986 824 735 1057 660 655 1131 990 899 899 568 1154 1232 576 662 908 980 995 898 1071 1078 904 991 988 818 903 1157 987 822 656 738 905 1142 653 810 994 1074 898 1077 991 740 749 909 981 821 655 666 1158 1081 897 1232 994 822 1073 826 902 1056 983 990 975 819 566 733 987 1055 1051 877 1078 657 829 903 823 1000 906 739 656 826 746 1237 813 1297 810 1160 572 1142 655 1071 896 659 817 1062 1159 1072 996 1157 1066 821 659 993 744 734 906 1233 1147 743 986 827 989 825 644 745 1056 741 733 654 813 971 661 995 907 902 816 810 1075 984 824 821 914 661 904 1069 899 977 825 823 1150 824 1071 653 899 652 740 908 906 1154 1063 1074 818 892 821 730 828 981 738 573 737 824 983 981 1063 739 822 736 823 907 905 1155 907 657 904 741 1066 989 743 975 818 660 655 832 667 1075 909 661 1074 1163 906 892 659 1154 999 905 729 738 739 1226 821 830 742 655 737 657 824 736 1068 657 573 651 902 739 734 742 1151 997 576 984

Tree=0
num_leaves=6
num_cat=0
split_feature=32 21 40 29 28
split_gain=14.4287 7.75843 3.05785 2.38947 0.811321
threshold=2.1656580000000001 0.47064375000000008 61.910062500000002 211.28803500000004 0.24733650000000004
decision_type=10 2 10 2 2
left_child=1 -1 -2 4 -3
right_child=2 3 -4 -5 -6
leaf_value=0.10000000000000001 0 0 0.10000000000000001 0 0
leaf_weight=34 36 34 21 21 252
leaf_count=34 36 34 21 21 252
internal_value=0 0.0105572 0.0649123 0.00553746 0.00314685
internal_weight=0 341 57 307 286
internal_count=398 341 57 307 286
is_linear=0
shrinkage=0.1


Tree=1
num_leaves=6
num_cat=0
split_feature=32 25 21 40 8
split_gain=18.5268 7.10261 5.40977 3.06087 1.60673
threshold=2.7174180000000003 27.719690000000003 0.45401250000000004 61.910062500000002 8.5284780000000016
decision_type=10 2 2 8 2
left_child=1 -1 -3 -2 -4
right_child=3 2 4 -5 -6
leaf_value=0.090000000000000011 0.050000000000000003 -0.010000000000000002 0 0.090000000000000011 0
leaf_weight=36 23 20 268 22 25
leaf_count=36 23 20 268 22 25
internal_value=0 0.00515759 0.000319489 0.0733333 0.00375427
internal_weight=0 349 313 45 293
internal_count=394 349 313 45 293
is_linear=0
shrinkage=0.1


Tree=2
num_leaves=7
num_cat=0
split_feature=47 28 49 21 45 36
split_gain=9.6153 8.33853 6.10909 5.625 3.26698 3.19202
threshold=10.433052360000003 0.24118725000000002 0.52490750000000019 0.59175000000000011 3945.6048470000005 1.4692995000000002
decision_type=10 2 10 2 2 2
left_child=1 3 -2 -1 -3 -6
right_child=2 4 -4 -5 5 -7
leaf_value=0.091000000000000011 0.081000000000000016 0 0 0 0 0
leaf_weight=20 22 29 20 20 48 244
leaf_count=20 22 29 20 20 48 244
internal_value=0 -0.000554017 0.05 0.0425 -0.005919 -0.00273973
internal_weight=0 361 42 40 321 292
internal_count=403 361 42 40 321 292
is_linear=0
shrinkage=0.1


Tree=3
num_leaves=7
num_cat=0
split_feature=32 0 26 12 0 35
split_gain=11.1707 6.3301 6.48293 3.30295 3.03301 1.41026
threshold=3.5691975000000005 0.68474825000000006 274.19941875000001 7.2562275000000005 0.45507450000000005 6.2004030000000006
decision_type=10 2 2 10 2 2
left_child=1 3 -3 5 -5 -1
right_child=-2 2 -4 4 -6 -7
leaf_value=0 0.081000000000000016 0.081450000000000009 0 0 0 0
leaf_weight=22 39 23 25 194 62 30
leaf_count=22 39 23 25 194 62 30
internal_value=0 -0.00252809 0.03125 -0.00779221 -0.003125 -0.0307692
internal_weight=0 356 48 308 256 52
internal_count=395 356 48 308 256 52
is_linear=0
shrinkage=0.1


Tree=4
num_leaves=5
num_cat=0
split_feature=32 19 29 48
split_gain=7.96696 5.12487 5.95202 3.73309
threshold=5.2417200000000008 0.047561000000000006 227.93686500000004 1.6095000000000002
decision_type=10 2 2 2
left_child=1 2 3 -1
right_child=-2 -3 -4 -5
leaf_value=0 0.072900000000000006 -0.0081450000000000012 0.072855000000000003 0
leaf_weight=274 28 24 24 57
leaf_count=274 28 24 24 57
internal_value=0 -0.00527704 -0.00225352 -0.00574018
internal_weight=0 379 355 331
internal_count=407 379 355 331
is_linear=0
shrinkage=0.1


Tree=5
num_leaves=6
num_cat=0
split_feature=32 40 48 42 28
split_gain=15.3701 6.4 5.39859 4.62042 3.10838
threshold=3.5691975000000005 54.702648000000003 2.1112000000000006 89.620140000000006 0.24118725000000002
decision_type=10 8 2 2 2
left_child=2 -2 3 4 -1
right_child=1 -3 -4 -5 -6
leaf_value=0 0.071510000000000004 0.065609999999999988 0.072900000000000006 0 0
leaf_weight=32 20 20 20 35 262
leaf_count=32 20 20 20 35 262
internal_value=0 0.06 -0.00544413 -0.00851064 -0.00442177
internal_weight=0 40 349 329 294
internal_count=389 40 349 329 294
is_linear=0
shrinkage=0.1


Tree=6
num_leaves=6
num_cat=0
split_feature=32 8 12 5 38
split_gain=9.15925 10.141 4.51567 5.66517 2.29206
threshold=5.2417200000000008 11.613770000000001 5.5382300000000013 6.9410265000000004 0.063882000000000008
decision_type=10 2 10 2 2
left_child=1 2 4 -4 -1
right_child=-2 -3 3 -5 -6
leaf_value=-0.0072877500000000017 0.059048999999999997 0.071900000000000006 0 0 0
leaf_weight=21 30 20 248 45 24
leaf_count=21 30 20 248 45 24
internal_value=0 -0.00418994 -0.00828402 -0.00375427 -0.0377778
internal_weight=0 358 338 293 45
internal_count=388 358 338 293 45
is_linear=0
shrinkage=0.1


Tree=7
num_leaves=7
num_cat=0
split_feature=55 16 1 40 42 42
split_gain=10.7366 7.21609 11.924 5.29439 4.15345 4.50957
threshold=0.045810071500000007 0.54971064000000014 2826.7644900000005 61.910062500000002 82.312788000000012 17.198610000000006
decision_type=10 10 2 8 2 2
left_child=-1 2 -2 -4 5 -3
right_child=1 4 3 -5 -6 -7
leaf_value=0.0531441 0 0 0 0.065569499999999989 0 0
leaf_weight=22 39 121 23 28 38 134
leaf_count=22 39 121 23 28 38 134
internal_value=0 -0.00365535 0.0211111 0.0529412 -0.0112628 -0.00666667
internal_weight=0 383 90 51 293 255
internal_count=405 383 90 51 293 255
is_linear=0
shrinkage=0.1


Tree=8
num_leaves=8
num_cat=0
split_feature=32 30 1 17 51 5 44
split_gain=14.621 9.72289 13.4178 4.25877 5.08879 5.06836 2.78966
threshold=5.2417200000000008 73.981640000000013 3352.3661050000005 67.380072000000013 92.360574250000013 4.1681595000000007 1.9592100000000003
decision_type=10 2 2 2 2 2 2
left_child=1 2 6 5 -5 -3 -1
right_child=-2 3 -4 4 -6 -7 -8
leaf_value=0 0.047829689999999994 0 0.066411274999999992 0 0 -0.004792817500000001 0
leaf_weight=31 30 24 29 107 107 55 20
leaf_count=31 30 24 29 107 107 55 20
internal_value=0 -0.00589812 0.025 -0.0143345 -0.00700935 -0.0341772 -0.00588235
internal_weight=0 373 80 293 214 79 51
internal_count=403 373 80 293 214 79 51
is_linear=0
shrinkage=0.1


Tree=9
num_leaves=9
num_cat=0
split_feature=26 21 31 32 35 37 11 0
split_gain=7.89141 13.0133 6.03494 8.9592 4.98463 4.36764 3.71858 3.51387
threshold=149.70453375000002 0.54641250000000008 26.342346000000003 0.93454350000000008 8.1935790000000015 980.60339375000012 301.08981150000005 0.44225550000000008
decision_type=2 2 2 10 2 2 2 2
left_child=1 -1 3 5 -5 -2 7 -4
right_child=2 -3 6 4 -6 -7 -8 -9
leaf_value=0.059770147500000009 0 0 0 0 0.053388360500000002 0 0 -0.0057424499999999996
leaf_weight=27 28 39 80 20 23 99 22 58
leaf_count=27 28 39 80 20 23 99 22 58
internal_value=0 0.0318182 -0.00606061 0.00705882 0.0465116 -0.00629921 -0.02 -0.026087
internal_weight=0 66 330 170 43 127 160 138
internal_count=396 66 330 170 43 127 160 138
is_linear=0
shrinkage=0.1


Tree=10
num_leaves=6
num_cat=0
split_feature=53 32 51 52 27
split_gain=10.0832 10.4047 9.33188 9.03139 6.16695
threshold=44.41199550000001 5.2417200000000008 101.87147950000001 1498.6504980000002 0.40558050000000007
decision_type=2 10 2 2 2
left_child=1 2 3 -1 -4
right_child=-2 -3 4 -5 -6
leaf_value=0.00057424500000000003 0.00057424500000000003 0.039436943624999998 0 0 -0.0070458591250000015
leaf_weight=29 38 27 93 189 23
leaf_count=29 38 27 93 189 23
internal_value=0 -0.00415512 -0.00898204 0.00321101 -0.0318966
internal_weight=0 361 334 218 116
internal_count=399 361 334 218 116
is_linear=0
shrinkage=0.1


Tree=11
num_leaves=9
num_cat=0
split_feature=32 46 0 36 42 21 5 28
split_gain=14.2458 8.83826 8.13244 11.3359 7.82099 6.34956 4.59736 4.16511
threshold=2.7174180000000003 9.5126815000000011 0.45507450000000005 1.5166637500000002 48.480204000000008 0.72851250000000012 4.5756735000000015 0.45777750000000006
decision_type=10 2 2 2 2 2 2 2
left_child=2 -2 5 -4 -5 6 -1 -7
right_child=1 -3 3 4 -6 7 -8 -9
leaf_value=-0.0051279074250000006 0.054037338043749994 0.031003026637499986 0.057202509456249995 0 -0.0065329245000000013 0 0 0
leaf_weight=39 21 25 33 69 30 96 60 35
leaf_count=39 21 25 33 69 30 96 60 35
internal_value=0 0.0521739 -0.00690608 0.0128788 -0.0040404 -0.0182609 -0.0373737 -0.00381679
internal_weight=0 46 362 132 99 230 99 131
internal_count=408 46 362 132 99 230 99 131
is_linear=0
shrinkage=0.1


Tree=12
num_leaves=8
num_cat=0
split_feature=32 12 15 48 0 25 27
split_gain=11.0492 7.75809 15.3496 8.73392 7.47073 6.52358 4.95555
threshold=3.9657750000000003 33.816807500000003 46.398465750000007 0.89175000000000015 0.45507450000000005 32.310700000000004 0.43839900000000004
decision_type=10 10 2 2 2 2 2
left_child=1 5 4 -4 -3 -1 -7
right_child=-2 2 3 -5 -6 6 -8
leaf_value=-0.0071526935250000008 0.035978297923749993 0 0.00045536624250000008 0 0.04307777258625 0 -0.0047588599725000005
leaf_weight=27 37 61 26 97 44 93 25
leaf_count=27 37 61 26 97 44 93 25
internal_value=0 -0.000536193 0.0109649 -0.0130081 0.0390476 -0.0186207 -0.00847458
internal_weight=0 373 228 123 105 145 118
internal_count=410 373 228 123 105 145 118
is_linear=0
shrinkage=0.1


Tree=13
num_leaves=6
num_cat=0
split_feature=45 32 16 26 26
split_gain=13.3864 9.22946 8.51946 12.4807 10.4231
threshold=18324.217700000005 3.9657750000000003 0.67888548000000004 432.54111500000005 390.48622750000004
decision_type=2 10 10 2 2
left_child=1 2 3 -1 -4
right_child=-2 -3 4 -5 -6
leaf_value=0 0.023822267640750006 0.030101463040749989 -0.0037227207836250001 -5.7424500000000006e-05 0
leaf_weight=125 37 30 93 55 55
leaf_count=125 37 30 93 55 55
internal_value=0 -0.00642458 -0.0112805 0.00333333 -0.0290541
internal_weight=0 358 328 180 148
internal_count=395 358 328 180 148
is_linear=0
shrinkage=0.1


Tree=14
num_leaves=13
num_cat=0
split_feature=22 3 46 26 12 53 51 36 55 45 0 16
split_gain=20.0358 11.0032 9.23265 11.415 11.291 7.69199 7.40078 4.6816 4.6355 4.45455 4.225 2.68605
threshold=38.533965250000008 20.732866500000004 10.703489500000002 442.35798750000009 64.041320000000013 28.234948000000006 139.43916875000005 2.3399955000000001 0.19343319200000003 7601.198311000001 0.35252250000000002 0.65945601000000009
decision_type=2 2 2 2 10 2 2 2 10 2 2 10
left_child=2 8 3 6 9 -5 -1 -3 -2 -4 -6 -9
right_child=1 7 4 5 10 -7 -8 11 -10 -11 -12 -13
leaf_value=0.00047928175000000011 0.029370321827299997 -0.0028322197471687505 0 5.7424500000000012e-06 0.00042185725000000012 -4.5536624250000012e-05 0 -0.0053388360500000002 0 -0.0037860920618874999 0 -0.0063909645466375016
leaf_weight=91 20 25 22 23 20 36 28 22 27 22 20 21
leaf_count=91 20 25 22 23 20 36 28 22 27 22 20 21
internal_value=0 -0.0286957 0.021374 0.0342697 -0.00595238 -0.00169492 0.0521008 -0.0544118 0.00851064 -0.0409091 0.0325 -0.0744186
internal_weight=0 115 262 178 84 59 119 68 47 44 40 43
internal_count=377 115 262 178 84 59 119 68 47 44 40 43
is_linear=0
shrinkage=0.1


Tree=15
num_leaves=8
num_cat=0
split_feature=22 12 47 34 31 50 34
split_gain=14.9363 14.0882 12.4769 12.1807 11.0914 10.768 4.8383
threshold=39.337718750000001 7.5102150000000014 8.9230936235000016 14.916809000000002 21.536544000000003 15.185515000000001 25.889642000000002
decision_type=2 10 10 2 2 2 2
left_child=1 -1 3 -3 -2 -6 -7
right_child=4 2 -4 -5 5 6 -8
leaf_value=-0.0038698643608187501 0.00050658267750000011 -4.3259793037500008e-05 0.036339840388549996 0.00032434390336249998 0.00071082167471687519 -0.0036544848086249998 -0.0050621561977499986
leaf_weight=39 27 63 30 146 20 34 30
leaf_count=39 27 63 30 146 20 34 30
internal_value=0 0.0172662 0.0263598 0.0177033 -0.0261261 -0.0440476 -0.0640625
internal_weight=0 278 239 209 111 84 64
internal_count=389 278 239 209 111 84 64
is_linear=0
shrinkage=0.1


Tree=16
num_leaves=9
num_cat=0
split_feature=26 46 53 22 50 13 52 3
split_gain=13.6664 9.60882 9.45 8.31507 10.8176 8.79472 6.71245 5.80501
threshold=159.24089250000003 10.742080500000002 25.114889500000004 39.390895500000006 12.501888000000003 801.79041325000014 15142.529935 17.581669000000002
decision_type=2 2 2 2 2 2 2 2
left_child=1 2 -1 4 -2 -6 7 -5
right_child=3 -3 -4 6 5 -7 -8 -9
leaf_value=0.00029190951302624998 -0.0010398270719593752 -0.00050750878734249951 0.040779995588920183 -7.1082167471687527e-05 -2.7266185336249998e-05 0.00037500367716375004 -0.00010808276775000001 -0.0051234722815706258
leaf_weight=20 39 20 28 24 113 70 38 27
leaf_count=20 39 20 28 24 113 70 38 27
internal_value=0 0.0382353 0.0625 -0.011254 -0.000900901 0.00928962 -0.0370787 -0.0607843
internal_weight=0 68 48 311 222 183 89 51
internal_count=379 68 48 311 222 183 89 51
is_linear=0
shrinkage=0.1


Tree=17
num_leaves=7
num_cat=0
split_feature=32 22 40 48 41 5
split_gain=14.2204 14.3269 10.7442 9.15124 8.48051 7.70667
threshold=2.7174180000000003 45.439968750000013 61.910062500000002 0.86072000000000004 103.98891100000002 3.7650750000000008
decision_type=10 2 8 2 2 2
left_child=1 3 -2 5 -5 -1
right_child=2 -3 -4 4 -6 -7
leaf_value=-7.7635946802625015e-05 0.028947081097528162 -0.0038238858195224247 0.027413918526071803 -2.4539566802624997e-05 -0.0026167213120548748 0.00032736709269737518
leaf_weight=20 22 39 21 130 57 100
leaf_count=20 22 39 21 130 57 100
internal_value=0 -0.0121387 0.0488372 -0.00488599 -0.0187166 0.0166667
internal_weight=0 346 43 307 187 120
internal_count=389 346 43 307 187 120
is_linear=0
shrinkage=0.1


Tree=18
num_leaves=7
num_cat=0
split_feature=32 54 22 29 40 18
split_gain=12.8503 9.5799 9.67046 12.3165 9.22004 6.04926
threshold=2.1656580000000001 98.23754000000001 44.106191250000002 196.42193250000003 45.403644000000007 10.086997000000002
decision_type=10 2 2 2 10 2
left_child=1 2 3 -1 -2 -4
right_child=4 -3 5 -5 -6 -7
leaf_value=-1.6957702697362497e-05 0.0003753576736276376 -0.0048000227789885309 -0.0048049739884715101 0.04793805394817699 0.021714427252115823 -9.0108991496109375e-06
leaf_weight=242 24 37 26 20 27 21
leaf_count=242 24 37 26 20 27 21
internal_value=0 -0.00867052 -0.00291262 0.00458015 0.045098 -0.0446809
internal_weight=0 346 309 262 51 47
internal_count=397 346 309 262 51 47
is_linear=0
shrinkage=0.1


Tree=19
num_leaves=8
num_cat=0
split_feature=16 7 11 22 17 2 42
split_gain=14.0252 8.34575 10.9714 10.4061 8.29657 6.97111 6.91144
threshold=0.48597696000000007 7.0582400000000005 241.92608850000002 38.741441750000007 83.073548000000002 100.03592850000003 8.9455560000000016
decision_type=10 2 2 2 2 2 2
left_child=6 2 -2 5 -5 -3 -1
right_child=1 3 -4 4 -6 -7 -8
leaf_value=5.1182343011030006e-05 -0.0037799596916957695 0.00029512806871049869 0.00033153431239478872 -0.0032667587347926159 0.0003320087143145621 -2.0606245852626247e-05 0.027744688628109544
leaf_weight=23 35 130 21 55 48 57 33
leaf_count=23 35 130 21 55 48 57 33
internal_value=0 -0.00751445 -0.0428571 -0.000689655 -0.0262136 0.013369 0.0464286
internal_weight=0 346 56 290 103 187 56
internal_count=402 346 56 290 103 187 56
is_linear=0
shrinkage=0.1


Tree=20
num_leaves=8
num_cat=0
split_feature=32 36 22 29 8 34 22
split_gain=11.3115 9.47124 14.9814 9.4686 8.94078 7.066 5.54837
threshold=2.9243280000000005 1.4410825000000003 35.20649550000001 111.34893375000001 5.0056930000000017 30.608488000000005 40.156292000000008
decision_type=10 2 2 2 2 2 2
left_child=1 2 -1 5 -5 -3 -2
right_child=6 3 -4 4 -6 -7 -8
leaf_value=0.0010383510872136552 0.022748270770760515 0.00023735693900683478 -0.0022716170797483556 -0.00013433909829867614 -0.0038037519370368203 -0.00014313235524867615 0.017358596368677748
leaf_weight=39 21 65 31 143 46 32 22
leaf_count=39 21 65 31 143 46 32 22
internal_value=0 -0.0101124 0.0228571 -0.0181818 -0.0312169 0.00721649 0.044186
internal_weight=0 356 70 286 189 97 43
internal_count=399 356 70 286 189 97 43
is_linear=0
shrinkage=0.1


Tree=21
num_leaves=12
num_cat=0
split_feature=22 34 27 18 12 21 37 31 25 20 40
split_gain=10.5711 12.6909 13.0757 9.45546 9.19523 8.3375 8.94277 6.18443 5.77361 4.11225 2.61905
threshold=38.899228500000007 16.220612000000003 0.29273400000000005 7.7925625000000007 105.25632750000001 0.92283750000000009 1773.8353125000001 31.059436000000002 55.274480000000004 1.1870725000000004 90.89308800000002
decision_type=2 2 2 2 8 2 2 2 2 2 10
left_child=1 5 4 9 -3 6 -1 8 -5 -2 -4
right_child=3 2 10 7 -6 -7 -8 -9 -10 -11 -12
leaf_value=-4.6346896986960084e-05 -0.0022624960545388289 -3.62039537738085e-05 0.0010317037132256291 -0.00066696025505227007 0.00032174300922369167 0.00032220216942613849 -0.0034237187892068757 -0.003864140982186166 0.0011891866545549908 -0.0071415277685009469 0.033246945746914412
leaf_weight=57 23 90 20 24 52 20 20 22 25 22 22
leaf_count=57 23 90 20 24 52 20 20 22 25 22 22
internal_value=0 0.0117438 0.0271739 -0.0241379 0.0126761 -0.0175258 -0.0324675 -0.00140845 0.0183673 -0.06 0.0761905
internal_weight=0 281 184 116 142 97 77 71 49 45 42
internal_count=397 281 184 116 142 97 77 71 49 45 42
is_linear=0
shrinkage=0.1


Tree=22
num_leaves=6
num_cat=0
split_feature=32 17 42 22 13
split_gain=13.9224 12.6581 13.5729 9.38002 5.76006
threshold=3.5691975000000005 51.214880000000001 52.536468000000006 44.106191250000002 599.12774175000015
decision_type=10 2 2 2 2
left_child=1 -1 3 -3 -4
right_child=-2 2 4 -5 -6
leaf_value=-0.0035365640565639431 0.018903375765814565 0.00020939192257723988 -0.0036819362991913629 -0.0016749020701424867 -0.00060202909233365853
leaf_weight=29 39 215 38 34 34
leaf_count=29 39 215 38 34 34
internal_value=0 -0.00914286 -0.00342679 0.00763052 -0.0416667
internal_weight=0 350 321 249 72
internal_count=389 350 321 249 72
is_linear=0
shrinkage=0.1


Tree=23
num_leaves=8
num_cat=0
split_feature=32 40 44 28 28 24 0
split_gain=11.9656 10.1739 9.82222 8.14269 9.72206 7.19224 5.56593
threshold=2.7174180000000003 61.910062500000002 4.5032145000000012 0.44684550000000006 0.22000650000000002 37.081244000000005 0.39525250000000006
decision_type=10 8 2 2 2 2 2
left_child=2 -2 3 4 -1 -5 -4
right_child=1 -3 6 5 -6 -7 -8
leaf_value=0.021359443634892717 0.019409212453930458 0.018722502607970537 -8.1830352451135694e-05 7.8111806580426931e-05 -0.00074161677694692678 0.00048544570227528495 -0.0042765572828374386
leaf_weight=26 26 23 27 37 202 23 25
leaf_count=26 26 23 27 37 202 23 25
internal_value=0 0.0428571 -0.01 -0.00277778 -0.0114035 0.03 -0.05
internal_weight=0 49 340 288 228 60 52
internal_count=389 49 340 288 228 60 52
is_linear=0
shrinkage=0.1


Tree=24
num_leaves=6
num_cat=0
split_feature=32 1 37 12 17
split_gain=12.6722 9.41521 7.80735 12.7574 9.04532
threshold=5.2417200000000008 1461.1506250000002 1467.6809625000003 3.6912850000000006 130.61578200000005
decision_type=10 2 2 10 2
left_child=1 -1 3 -3 -4
right_child=-2 2 4 -5 -6
leaf_value=-0.0026767317457569357 0.012086398499885354 -0.0033818833951362783 -0.0018040680707796465 0.00026398959160019939 0.02417447767763975
leaf_weight=38 28 24 151 125 22
leaf_count=38 28 24 151 125 22
internal_value=0 -0.00555556 0 0.0167785 -0.0144509
internal_weight=0 360 322 149 173
internal_count=388 360 322 149 173
is_linear=0
shrinkage=0.1


Tree=25
num_leaves=8
num_cat=0
split_feature=32 18 7 22 54 47 18
split_gain=11.1993 11.8267 9.5619 15.3537 11.7026 7.97802 3.96323
threshold=2.7174180000000003 3.8369817500000005 10.095804000000003 38.533965250000008 66.13512200000001 10.433052360000003 2.0633185000000007
decision_type=10 2 2 2 2 10 2
left_child=1 6 4 -4 -3 -2 -1
right_child=5 2 3 -5 -6 -7 -8
leaf_value=-0.0012603697688682621 0.010877758649896818 -2.4050737419030114e-05 0.00029827692184716071 -0.0013448710691590969 -0.0034577448178579324 0.021181765301155543 -0.0019917795243737549
leaf_weight=26 24 93 114 53 37 28 27
leaf_count=26 24 93 114 53 37 28 27
internal_value=0 -0.00742857 0.0003367 0.0161677 -0.02 0.0423077 -0.0509434
internal_weight=0 350 297 167 130 52 53
internal_count=402 350 297 167 130 52 53
is_linear=0
shrinkage=0.1


Tree=26
num_leaves=12
num_cat=0
split_feature=36 2 54 18 42 17 5 5 5 20 5
split_gain=7.80722 11.3679 10.3922 9.92614 9.08054 8.27069 7.17441 6.45537 6.29109 6.09524 2.5
threshold=2.6665065000000001 102.62250150000001 66.13512200000001 3.3929957500000003 52.232628000000012 67.380072000000013 5.7937860000000017 5.6121765000000012 4.7351355000000011 1.0565900000000001 5.2932525000000004
decision_type=2 2 2 2 2 2 2 2 2 2 2
left_child=3 2 7 -1 5 -5 8 -2 -3 -4 -6
right_child=1 6 9 4 10 -7 -8 -9 -10 -11 -12
leaf_value=-0.0016158726767748393 0.00058969001362613399 -0.0020572532314943374 -0.0054784921516163425 0.00024767385861681411 0.00029567425264704689 0.00061658648558763891 -0.0036819968611331009 -8.9435812133249322e-05 0.00049393754131552318 0.00076784176340305573 -0.003735444262474197
leaf_weight=33 54 23 21 41 20 88 26 29 24 21 20
leaf_count=33 54 23 21 41 20 88 26 29 24 21 20
internal_value=0 -0.0111111 0.0072 0.0168317 0.0266272 0.0395349 -0.0424658 0.0277108 -0.0191489 -0.0333333 -0.015
internal_weight=0 198 125 202 169 129 73 83 47 42 40
internal_count=400 198 125 202 169 129 73 83 47 42 40
is_linear=0
shrinkage=0.1


Tree=27
num_leaves=13
num_cat=0
split_feature=17 44 31 52 2 0 28 37 51 16 1 3
split_gain=11.4366 14.1118 12.3751 10.7777 9.58308 9.00779 8.89231 8.71249 8.39738 11.4232 8.16109 7.40184
threshold=78.447560000000024 0.70056600000000013 27.094692000000006 6008.3910270000006 117.57367725000002 0.60035650000000007 0.39423525000000009 1383.6066065000002 128.49053000000004 0.5774281200000001 3726.2863550000006 23.976974000000002
decision_type=2 2 2 2 2 2 2 2 2 10 2 2
left_child=3 10 5 4 7 -3 -4 -1 9 -5 11 -2
right_child=1 2 6 8 -6 -7 -8 -9 -10 -11 -12 -13
leaf_value=0.00033203803003523216 0.00061008717501009402 0.0009842357654134225 -0.0013291568200759054 -0.0029587881423565783 -0.0019169285688357023 -0.0044716853533799533 -0.002797663270245946 -0.00086515617648467687 -0.0041677611516201 0.00016279447039437979 0.021900460598005024 -0.00090414420150983265
leaf_weight=40 22 48 52 34 26 22 20 27 20 43 32 24
leaf_count=40 22 48 52 34 26 22 20 27 20 43 32 24
internal_value=0 0.0145455 -0.00422535 -0.0189474 0.00537634 0.0257143 -0.0333333 0.0253731 -0.042268 -0.0272727 0.0487179 0.0217391
internal_weight=0 220 142 190 93 70 72 67 97 77 78 46
internal_count=410 220 142 190 93 70 72 67 97 77 78 46
is_linear=0
shrinkage=0.1


Tree=28
num_leaves=7
num_cat=0
split_feature=36 42 17 26 35 0
split_gain=10.896 15.7861 7.78148 7.9243 7.89174 6.79234
threshold=4.9057270000000015 101.96617200000001 68.331432000000021 586.55979500000012 5.7374490000000007 0.55762650000000014
decision_type=2 2 2 2 2 2
left_child=1 2 3 -1 -4 -2
right_child=5 -3 4 -5 -6 -7
leaf_value=-0.0022776697889507315 -0.00095755101703174381 -0.0029870756920650412 -0.0014185877719355767 0.00047586327414813744 0.00037094386132035162 -0.0049872510813850947
leaf_weight=83 35 22 41 20 162 22
leaf_count=83 35 22 41 20 162 22
internal_value=0 0 0.00588235 -0.0165049 0.0172414 -0.0473684
internal_weight=0 328 306 103 203 57
internal_count=385 328 306 103 203 57
is_linear=0
shrinkage=0.1


Tree=29
num_leaves=9
num_cat=0
split_feature=42 37 5 25 44 45 7 49
split_gain=15.571 14.308 11.6141 10.2122 11.071 9.14319 6.73436 3.52696
threshold=73.850844000000009 1467.6809625000003 3.7894372500000002 46.891740000000006 0.42746400000000001 9749.9236060000021 10.284864000000001 0.19303050000000002
decision_type=2 2 2 2 2 2 2 8
left_child=1 2 -1 4 -3 -5 -4 -2
right_child=7 3 6 5 -6 -7 -8 -9
leaf_value=-0.0013706085508508091 -0.0041108116318743122 0.021162231037338986 0.00045821895451477054 -0.0011237932771139146 -0.00036245840262855134 -0.0021218726751953861 0.00041090756563724707 -0.00066286696975907243
leaf_weight=39 25 21 83 83 47 24 59 23
leaf_count=39 25 21 83 83 47 24 59 23
internal_value=0 0.0106742 0.0303867 -0.00971429 0.0205882 -0.028972 0.043662 -0.05
internal_weight=0 356 181 175 68 107 142 48
internal_count=404 356 181 175 68 107 142 48
is_linear=0
shrinkage=0.1


Tree=30
num_leaves=7
num_cat=0
split_feature=37 17 40 42 12 53
split_gain=10.2734 10.9487 11.3536 9.54117 7.25902 8.79075
threshold=1988.4217125000002 74.60644400000001 42.324496500000002 121.32457800000002 5.2126050000000008 28.102852500000004
decision_type=2 2 8 2 10 2
left_child=3 -2 -3 4 -1 -6
right_child=1 2 -4 -5 5 -7
leaf_value=-0.0022332597529241584 -0.0025452385682062321 -0.0023677234846185488 0.0011603529072574095 -0.0019211471302119313 0.000479282979029152 8.7478194229298218e-05
leaf_weight=37 34 27 37 20 93 148
leaf_count=37 34 27 37 20 93 148
internal_value=0 -0.0306122 -0.00625 0.00671141 0.0115108 0.0178423
internal_weight=0 98 64 298 278 241
internal_count=396 98 64 298 278 241
is_linear=0
shrinkage=0.1


Tree=31
num_leaves=9
num_cat=0
split_feature=37 48 35 13 5 24 31 40
split_gain=12.596 9.41168 14.4394 7.73829 9.72235 7.13796 6.93437 6.35161
threshold=1988.4217125000002 1.5961600000000002 8.0981610000000028 395.53352425000008 5.098354500000001 21.513096000000001 28.674448000000002 15.225853500000001
decision_type=2 2 2 2 2 2 2 10
left_child=1 3 -3 4 -1 -2 -7 -5
right_child=5 2 -4 7 -6 6 -8 -9
leaf_value=-4.3527820539517077e-06 0.00055995901909153766 -0.0015507235542720202 0.0061040334579837378 -0.0029593164709131019 0.0015145045387692615 -0.0032206400935233764 -0.00087575656676728588 -0.00041266797302180785
leaf_weight=39 24 25 37 26 27 33 34 150
leaf_count=39 24 25 37 26 27 33 34 150
internal_value=0 0.00394737 0.0387097 -0.00495868 0.0242424 -0.0384615 -0.0552239 -0.0159091
internal_weight=0 304 62 242 66 91 67 176
internal_count=395 304 62 242 66 91 67 176
is_linear=0
shrinkage=0.1


Tree=32
num_leaves=7
num_cat=0
split_feature=51 2 31 52 41 16
split_gain=10.0999 9.54913 12.6437 10.2646 9.28202 3.74657
threshold=354.21689800000007 123.85939800000001 37.349458000000006 5447.1182535000007 81.027280750000003 0.57907746000000004
decision_type=2 2 2 2 2 8
left_child=1 2 3 -1 -3 -6
right_child=-2 4 -4 -5 5 -7
leaf_value=0.0006143591045853112 -0.0035344410529238889 0.00027982893912523334 -0.0038440632997357805 7.0651375295540452e-05 -0.0026283408534395029 -0.00078426868913374992
leaf_weight=92 20 37 36 169 21 20
leaf_count=92 20 37 36 169 21 20
internal_value=0 0.00293333 0.0111111 0.0187739 -0.0282051 -0.0609756
internal_weight=0 375 297 261 78 41
internal_count=395 375 297 261 78 41
is_linear=0
shrinkage=0.1


Tree=33
num_leaves=10
num_cat=0
split_feature=37 42 24 31 12 5 3 19 28
split_gain=14.3088 8.79507 9.99462 8.54842 11.2486 10.4061 10.6374 8.38338 6.92308
threshold=1988.4217125000002 8.9455560000000016 37.60582800000001 27.548488000000003 120.82380750000002 4.8945975000000006 21.233032000000005 0.03283500000000001 0.43454700000000007
decision_type=2 2 2 2 10 2 2 2 2
left_child=3 -2 -3 4 7 8 -7 -1 -5
right_child=1 2 -4 5 -6 6 -8 -9 -10
leaf_value=0.00034010457960201469 -0.0041699424583517891 0.0011512808992854935 -0.0025862490287428164 -0.0013153006198817515 0.025221814085541569 0.00068811370794912236 -0.0011685561364662134 -0.0016532343072267249 0.0001415445528869311
leaf_weight=131 23 27 29 32 25 24 39 35 20
leaf_count=131 23 27 29 32 25 24 39 35 20
internal_value=0 -0.0392405 -0.0178571 0.00849673 0.021466 -0.0130435 0.0142857 0.0120482 -0.0461538
internal_weight=0 79 56 306 191 115 63 166 52
internal_count=385 79 56 306 191 115 63 166 52
is_linear=0
shrinkage=0.1


Tree=34
num_leaves=10
num_cat=0
split_feature=24 43 52 36 18 17 13 43 42
split_gain=11.1443 9.83168 15.7636 9.67164 10.6056 9.46592 8.39799 8.8079 6.89447
threshold=36.196388000000006 28.422912000000004 4658.6653875000011 2.6181345000000005 7.1531922500000009 62.339846000000009 1274.3125850000004 43.702512000000006 42.960444000000003
decision_type=2 8 2 2 2 2 2 10 2
left_child=1 2 -1 8 -5 -2 7 -7 -3
right_child=5 3 -4 4 -6 6 -8 -9 -10
leaf_value=0.00076733009950845311 -0.0033678683732561963 0.0019251402954419063 -0.0020462907596545885 -0.0018921133079782756 0.00027394324226291851 -1.628071540696904e-05 0.0012680752671855734 -0.00097094567989924679 0.00056013631666614646
leaf_weight=27 38 46 33 23 44 86 24 41 21
leaf_count=27 38 46 33 23 44 86 24 41 21
internal_value=0 0.0103093 -0.0233333 0.0253731 -0.00149254 -0.0238095 -0.0125828 -0.0228346 0.0522388
internal_weight=0 194 60 134 67 189 151 127 67
internal_count=383 194 60 134 67 189 151 127 67
is_linear=0
shrinkage=0.1


Tree=35
num_leaves=8
num_cat=0
split_feature=52 17 27 13 51 9 29
split_gain=10.3885 10.2513 10.5709 9.77011 9.71006 7.88408 8.49786
threshold=1421.0448030000002 69.306576000000021 0.75482550000000004 742.79602850000015 82.010439000000005 4026.2728600000005 95.609351250000017
decision_type=2 2 2 2 2 2 2
left_child=3 5 4 -1 -3 -2 -7
right_child=1 2 -4 -5 -6 6 -8
leaf_value=0.033543457775221608 0.00044495666451146819 0.00040539771897157124 -0.0017449852581366552 9.5465409446241352e-05 -0.00016380253312289986 0.00037862139225835789 -0.0023647092203683447
leaf_weight=24 22 100 38 34 94 23 70
leaf_count=24 22 100 38 34 94 23 70
internal_value=0 -0.0112392 0.000862069 0.0344828 0.0103093 -0.0356522 -0.0483871
internal_weight=0 347 232 58 194 115 93
internal_count=405 347 232 58 194 115 93
is_linear=0
shrinkage=0.1


Tree=36
num_leaves=9
num_cat=0
split_feature=9 26 17 48 9 1 0 23
split_gain=11.5901 13.6585 9.7269 7.83764 7.40002 7.15555 6.98989 2.5098
threshold=5823.5274800000007 109.89708250000002 69.306576000000021 1.6095000000000002 4026.2728600000005 2270.1995800000004 0.34718125000000005 1.3323555
decision_type=2 2 2 2 2 2 2 2
left_child=1 -1 4 6 -3 -4 -2 -8
right_child=3 2 5 -5 -6 -7 7 -9
leaf_value=0.0195158126474432 -0.00042704356819548767 0.00033197055976913969 0.00036195722334168417 0.0016043848741188597 -0.0016432725283993125 -9.1754103699194091e-05 -0.0022220457723062816 -0.0033949193698811068
leaf_weight=20 28 27 50 28 62 122 27 24
leaf_count=20 28 27 50 28 62 122 27 24
internal_value=0 0.000355872 -0.00574713 -0.0383178 -0.0325843 0.00813953 -0.0544304 -0.0764706
internal_weight=0 281 261 107 89 172 79 51
internal_count=388 281 261 107 89 172 79 51
is_linear=0
shrinkage=0.1


Tree=37
num_leaves=8
num_cat=0
split_feature=18 17 42 23 32 11 52
split_gain=10.414 10.962 9.75746 11.8379 9.4083 7.22068 8.27369
threshold=2.6692377500000002 69.306576000000021 50.969160000000009 1.6413075000000001 0.010345500000000002 268.54912800000005 5447.1182535000007
decision_type=2 2 2 2 10 2 2
left_child=-1 5 4 -4 -3 6 -2
right_child=1 2 3 -5 -6 -7 -8
leaf_value=-0.0020927759606176517 -9.754301952444754e-05 0.0005435470065510631 0.00023527092309838486 -0.0014042505602496187 0.00022763128208409881 0.00046760684107654448 -0.0018559191833572618
leaf_weight=33 41 64 46 27 111 20 53
leaf_count=33 41 64 46 27 111 20 53
internal_value=0 0.00110497 0.0129032 -0.0178082 0.0257143 -0.0245614 -0.0361702
internal_weight=0 362 248 73 175 114 94
internal_count=395 362 248 73 175 114 94
is_linear=0
shrinkage=0.1


Tree=38
num_leaves=9
num_cat=0
split_feature=17 40 6 43 13 30 6 12
split_gain=10.403 9.70852 15.3337 9.81875 9.53077 8.64588 7.05985 5.10367
threshold=63.709408000000003 71.275132500000026 0.043391250000000006 41.263488000000002 442.83216750000003 74.585840000000005 0.029841000000000003 37.101712500000012
decision_type=2 8 2 10 2 2 2 10
left_child=4 2 3 -2 -1 -3 -7 -6
right_child=1 5 -4 -5 7 6 -8 -9
leaf_value=0.00024390242904638181 0.000157332103632105 0.025644172691227277 -0.0064727418016731104 -0.0022563954092304022 -0.0013192894921962234 -0.00032717527026046995 0.00054040798018791252 -0.0027702902623786131
leaf_weight=27 59 24 27 43 24 91 43 33
leaf_count=27 59 24 27 43 24 91 43 33
internal_value=0 -0.00522648 -0.0255814 -0.00784314 -0.0452381 0.0113924 0.00149254 -0.0684211
internal_weight=0 287 129 102 84 158 134 57
internal_count=371 287 129 102 84 158 134 57
is_linear=0
shrinkage=0.1


Tree=39
num_leaves=9
num_cat=0
split_feature=23 54 31 2 18 35 43 31
split_gain=7.91261 11.3351 12.3609 11.1247 13.0748 12.8926 5.31858 4.1166
threshold=0.77927625 75.260578000000024 23.454088000000002 107.17077675000002 15.673314000000003 6.2622480000000005 33.009648000000006 32.168336000000004
decision_type=2 2 2 2 2 2 10 2
left_child=6 3 -3 4 -2 -5 -1 -4
right_child=1 2 7 5 -6 -7 -8 -9
leaf_value=-0.0032772812337244456 0.00045127259590097907 0.00030563876572118742 -0.0029505733407558018 -0.0022662980856557663 -0.002830565741867349 0.00018138254414470697 -0.0015287516610578754 -0.002750512138302943
leaf_weight=22 147 20 30 28 42 51 23 23
leaf_count=22 147 20 30 28 42 51 23 23
internal_value=0 -0.00205279 -0.0369863 0.00746269 0.0206349 -0.0240506 -0.0466667 -0.0622642
internal_weight=0 341 73 268 189 79 45 53
internal_count=386 341 73 268 189 79 45 53
is_linear=0
shrinkage=0.1


Tree=40
num_leaves=10
num_cat=0
split_feature=43 21 27 26 15 25 52 53 53
split_gain=8.58566 6.88108 12.4445 11.9853 8.03073 6.87028 8.88747 5.15454 3.23077
threshold=28.517160000000004 0.53390625000000014 0.40558050000000007 201.26251750000003 32.678600500000009 61.271020000000007 5447.1182535000007 30.045214500000004 28.489836500000006
decision_type=10 2 2 2 2 2 2 2 2
left_child=5 3 4 -2 -3 6 7 -1 -8
right_child=1 2 -4 -5 -6 -7 8 -9 -10
leaf_value=0.00058147154902204632 0.027768581271890358 -0.0012054987973910717 -0.0022683861851379343 -0.0030383473324434029 0.00033770007702387905 9.5794457008871133e-05 -0.003452234387782234 -0.0016403068956308831 -0.00070427886749529546
leaf_weight=21 21 62 39 25 118 29 24 22 28
leaf_count=21 21 62 39 25 118 29 24 22 28
internal_value=0 -0.000377358 -0.00776256 0.0347826 0.00333333 -0.0322581 -0.0452632 -0.0116279 -0.0730769
internal_weight=0 265 219 46 180 124 95 43 52
internal_count=389 265 219 46 180 124 95 43 52
is_linear=0
shrinkage=0.1


Tree=41
num_leaves=11
num_cat=0
split_feature=17 34 46 24 29 41 52 12 30 17
split_gain=10.8996 13.3915 14.4883 11.322 9.14184 8.17603 7.90606 8.19512 7.85258 7.7263
threshold=69.306576000000021 17.857946000000002 9.9647475000000032 21.423902000000002 140.81664750000002 118.96529775 5833.6956540000001 44.777345000000004 114.05494000000002 58.540352000000006
decision_type=2 2 2 2 2 2 2 8 2 2
left_child=6 5 4 -4 -3 8 9 -8 -2 -1
right_child=1 2 3 -5 -6 -7 7 -9 -10 -11
leaf_value=-0.0009610829109161223 0.0004357240458369876 0.00040625899088731924 0.00063822981967116626 -0.0017914649324879122 0.019868782802704901 -0.0026136492388374758 -0.00034585874466002656 -0.0019036140886711794 -0.0023102925679019978 0.00033653395398720561
leaf_weight=28 57 49 20 53 31 22 38 35 22 29
leaf_count=28 57 49 20 53 31 22 38 35 22 29
internal_value=0 0.00944882 0.0281046 -0.00410959 0.0575 -0.0188119 -0.0261538 -0.0479452 -0.00379747 0.00175439
internal_weight=0 254 153 73 80 101 130 73 79 57
internal_count=384 254 153 73 80 101 130 73 79 57
is_linear=0
shrinkage=0.1


Tree=42
num_leaves=9
num_cat=0
split_feature=5 9 53 35 41 25 37 10
split_gain=9.05182 9.82204 11.321 10.6833 9.84979 9.19427 6.13665 2.5
threshold=3.8049405000000003 4314.9275900000011 44.41199550000001 5.914149000000001 110.87809525000002 54.245310000000011 1656.8750000000002 20.303250000000002
decision_type=2 2 2 2 2 2 2 2
left_child=5 3 4 -2 -3 7 -5 -1
right_child=1 2 -4 6 -6 -7 -8 -9
leaf_value=-0.0030572847546414734 -0.0022172604168839267 -0.00031176534891262821 0.00073368331974222765 0.0012715022511780279 -0.0019369246745775848 0.00025482745321284654 0.00020994586520335811 -0.0011623667496835168
leaf_weight=20 20 163 24 45 51 23 22 20
leaf_count=20 20 163 24 45 51 23 22 20
internal_value=0 -0.00461538 -0.0151261 0.0241379 -0.0224299 -0.0460317 0.0432836 -0.075
internal_weight=0 325 238 87 214 63 67 40
internal_count=388 325 238 87 214 63 67 40
is_linear=0
shrinkage=0.1


Tree=43
num_leaves=7
num_cat=0
split_feature=12 18 47 20 37 17
split_gain=9.81668 9.11301 7.71923 7.41647 12.1721 10.104
threshold=7.2562275000000005 2.7627485000000003 4.1390182095000005 1.0979625000000002 1094.8946315000001 82.732644000000008
decision_type=10 2 10 2 2 2
left_child=2 -2 -1 4 -3 -5
right_child=1 3 -4 5 -6 -7
leaf_value=-0.0028605456198257696 -0.0018510533519781873 0.00051332319169446997 -0.00071004074615112027 -0.00018399431842065639 -0.00096734685999504361 0.00089543590343547832
leaf_weight=22 32 48 27 62 146 61
leaf_count=22 32 48 27 62 146 61
internal_value=0 0.000859599 -0.0469388 0.00599369 -0.00618557 0.0252033
internal_weight=0 349 49 317 194 123
internal_count=398 349 49 317 194 123
is_linear=0
shrinkage=0.1


Tree=44
num_leaves=8
num_cat=0
split_feature=41 48 24 33 13 37 13
split_gain=10.7152 10.6724 8.3711 7.5785 6.44536 7.69906 7.04157
threshold=122.47593150000002 1.3790950000000002 37.970608000000006 1.7935750000000001 441.52558350000004 2436.8474000000001 284.07616250000007
decision_type=2 2 2 2 2 2 2
left_child=3 2 -2 4 6 -6 -1
right_child=1 -3 -4 -5 5 -7 -8
leaf_value=-0.00041335148699743756 0.00064130144630271326 -0.0027994904858306838 -0.0011311566205161885 0.0008329167462933321 -0.00039833000913243365 0.00080123692369809369 0.00046138585768272115
leaf_weight=24 30 27 22 22 187 28 51
leaf_count=24 30 27 22 22 187 28 51
internal_value=0 -0.0341772 -0.00769231 0.00705128 0.00275862 -0.00604651 0.028
internal_weight=0 79 52 312 290 215 75
internal_count=391 79 52 312 290 215 75
is_linear=0
shrinkage=0.1


Tree=45
num_leaves=11
num_cat=0
split_feature=42 17 30 18 21 10 43 41 3 9
split_gain=9.35232 11.2525 7.37094 6.61005 6.94266 6.07545 6.19829 4.98462 3.48444 3.32938
threshold=51.421122000000004 69.306576000000021 88.163380000000018 3.7434710000000004 0.53390625000000014 22.774950000000004 30.245040000000003 110.87809525000002 16.175631000000003 4635.5902600000018
decision_type=2 2 2 2 2 2 10 2 2 2
left_child=1 2 8 -3 -5 6 -2 -4 -1 -7
right_child=5 3 7 4 -6 9 -8 -9 -10 -11
leaf_value=-0.0016801944525935142 -0.0019352814330843441 -0.00064393463232829528 0.00042732778931900829 0.025290338539797532 0.00031104006829536486 -0.0024911560882963668 -0.0013992202930222801 -0.00093448209793027819 -0.00034847061280993645 0.0005136909650585085
leaf_weight=25 24 27 45 25 143 21 22 20 20 23
leaf_count=25 24 27 45 25 143 21 22 20 20 23
internal_value=0 0.00557377 -0.02 0.02 0.027381 -0.0311111 -0.0565217 0.00153846 -0.0511111 -0.00454545
internal_weight=0 305 110 195 168 90 46 65 45 44
internal_count=395 305 110 195 168 90 46 65 45 44
is_linear=0
shrinkage=0.1


Tree=46
num_leaves=8
num_cat=0
split_feature=12 38 40 52 8 32 0
split_gain=6.90158 9.25269 8.09132 10.0882 10.308 9.98862 6.98182
threshold=7.2562275000000005 0.051714000000000003 22.150342500000004 10727.695365000001 7.3548020000000012 0.19311600000000004 0.49353150000000007
decision_type=10 2 8 2 2 10 2
left_child=1 -1 6 5 -5 -4 -2
right_child=2 -3 3 4 -6 -7 -8
leaf_value=-0.0032109109703934435 4.1760555608406308e-05 0.0002705173034115845 0.00092961471457720908 6.9268405429587433e-05 -0.0027582958422992425 0.00031469775612850677 -0.0042231483906019808
leaf_weight=23 24 27 53 122 22 108 20
leaf_count=23 24 27 53 122 22 108 20
internal_value=0 -0.036 0.00372493 0.0095082 -0.00972222 0.0267081 -0.0363636
internal_weight=0 50 349 305 144 161 44
internal_count=399 50 349 305 144 161 44
is_linear=0
shrinkage=0.1


Tree=47
num_leaves=7
num_cat=0
split_feature=45 21 0 31 45 13
split_gain=7.39116 6.78433 11.5387 9.51326 7.4179 6.55341
threshold=26820.584405000005 0.87731250000000005 0.45507450000000005 38.463476000000007 7721.2438070000007 810.23330500000009
decision_type=2 2 2 2 2 2
left_child=1 3 4 5 -3 -1
right_child=-2 2 -4 -5 -6 -7
leaf_value=-0.00068732156575425113 0.013204681582085431 0.00091822907874577597 -0.0015536107184850709 -0.0038008335515417827 0.00027746658007130504 0.00027512134545866452
leaf_weight=180 20 32 30 22 21 94
leaf_count=180 20 32 30 22 21 94
internal_value=0 -0.00237467 0.0228916 -0.00945946 0.0509434 -0.00437956
internal_weight=0 379 83 296 53 274
internal_count=399 379 83 296 53 274
is_linear=0
shrinkage=0.1


Tree=48
num_leaves=7
num_cat=0
split_feature=22 11 9 43 45 17
split_gain=7.63034 8.64929 11.2052 10.3703 11.9916 8.36289
threshold=55.836459250000011 266.34908700000005 6045.6854350000003 30.927624000000005 5844.5896960000009 89.483336000000023
decision_type=2 2 2 10 2 2
left_child=1 3 -3 4 -1 -5
right_child=-2 2 -4 5 -6 -7
leaf_value=0.00036965561686597533 -0.0020246068304482262 0.00083755521084099129 -0.00067280303454157373 -0.00034485727019589632 -0.001457620549705798 0.00088089238550441862
leaf_weight=43 21 38 30 109 95 69
leaf_count=43 21 38 30 109 95 69
internal_value=0 0 0.0323529 -0.00696203 -0.0275362 0.00898876
internal_weight=0 384 68 316 138 178
internal_count=405 384 68 316 138 178
is_linear=0
shrinkage=0.1


Tree=49
num_leaves=8
num_cat=0
split_feature=46 20 42 40 32 48 44
split_gain=7.22093 14.3774 10.5198 9.23906 8.46914 8.92523 5.73494
threshold=10.371331250000003 1.2952775000000003 71.071974000000012 27.151839000000006 2.0587545000000005 1.7189750000000001 5.019733500000001
decision_type=2 2 2 8 10 2 2
left_child=2 3 4 -2 5 -1 -5
right_child=1 -3 -4 6 -6 -7 -8
leaf_value=0.00027539949574051142 -0.0033401948223243136 0.00039337126588337781 -0.001637398718878759 -1.8878819693123576e-05 0.022997387020895033 -0.0012916393447857479 -0.0034669895093721948
leaf_weight=139 27 38 22 68 27 23 31
leaf_count=139 27 38 22 68 27 23 31
internal_value=0 -0.0170732 0.0109005 -0.0333333 0.0185185 0.00987654 -0.0191919
internal_weight=0 164 211 126 189 162 99
internal_count=375 164 211 126 189 162 99
is_linear=0
shrinkage=0.1


Tree=50
num_leaves=8
num_cat=0
split_feature=50 41 19 23 44 20 18
split_gain=8.22275 9.94865 8.42551 8.74563 8.35685 7.04311 6.36987
threshold=18.915617000000005 122.03101950000001 0.039601000000000004 0.77927625 5.515473000000001 1.2507225000000004 5.4175415000000013
decision_type=2 2 2 2 2 2 2
left_child=2 4 3 -1 6 -5 -2
right_child=1 -3 -4 5 -6 -7 -8
leaf_value=-0.0020421131768612907 0.00035450231482323001 -0.0014087726301377564 -0.0018969752121537763 0.0001832264253142806 0.0012214644564982828 0.0012635205857805013 -0.0012059396542599167
leaf_weight=23 26 35 20 124 39 32 87
leaf_count=23 26 35 20 124 39 32 87
internal_value=0 -0.0176471 0.0115578 0.0184358 -0.00657895 0.0269231 -0.020354
internal_weight=0 187 199 179 152 156 113
internal_count=386 187 199 179 152 156 113
is_linear=0
shrinkage=0.1


Tree=51
num_leaves=9
num_cat=0
split_feature=51 25 31 52 50 21 24 36
split_gain=9.68626 10.484 7.97881 8.15131 7.28693 8.57883 6.43622 5.74359
threshold=85.143196250000003 71.514220000000009 20.001144000000004 5706.421002000001 26.994404000000003 0.47064375000000008 34.307490000000008 2.8539480000000004
decision_type=2 2 2 2 2 2 2 2
left_child=1 4 -2 7 5 -1 -5 -4
right_child=2 -3 3 6 -6 -7 -8 -9
leaf_value=0.022198787336296901 -0.0022378459400021855 0.0027777830827623072 -0.00044751859865328482 -0.0028170630981585415 -0.001074712761235637 6.3266078828967009e-05 -8.2962832128245483e-05 0.0003559073841642309
leaf_weight=21 31 23 24 24 38 153 50 28
leaf_count=21 31 23 24 24 38 153 50 28
internal_value=0 0.00978723 -0.022293 -0.0111111 0.00283019 0.0114943 -0.0324324 0.0192308
internal_weight=0 235 157 126 212 174 74 52
internal_count=392 235 157 126 212 174 74 52
is_linear=0
shrinkage=0.1


Tree=52
num_leaves=6
num_cat=0
split_feature=36 48 50 13 13
split_gain=7.08802 7.76587 7.30888 6.79124 4.56673
threshold=0.91302150000000004 2.0146300000000004 28.305986000000001 1212.7942550000002 679.36016550000011
decision_type=2 2 2 2 2
left_child=-1 2 3 -2 -4
right_child=1 -3 4 -5 -6
leaf_value=0.0013348126639168324 -2.7038741256134802e-05 -0.0021505320120360958 0.00019471400775712556 0.00049692775620526527 -0.00081582914650139718
leaf_weight=29 253 28 20 36 31
leaf_count=29 253 28 20 36 31
internal_value=0 -0.00652174 -0.00235294 0.00380623 -0.0372549
internal_weight=0 368 340 289 51
internal_count=397 368 340 289 51
is_linear=0
shrinkage=0.1


Tree=53
num_leaves=6
num_cat=0
split_feature=51 1 25 25 28
split_gain=6.85868 6.01981 10.4207 9.25114 11.7425
threshold=311.75738125000004 5312.8099200000006 41.410270000000004 71.514220000000009 0.34572450000000005
decision_type=2 2 2 2 2
left_child=1 3 -3 4 -1
right_child=-2 2 -4 -5 -6
leaf_value=-0.0014465607316216469 -0.0016627649011341145 0.0036241443016566399 -0.0027883030116130506 0.00045334972915729631 0.00021365513841939017
leaf_weight=121 26 24 29 37 174
leaf_count=121 26 24 29 37 174
internal_value=0 -0.000779221 -0.0320755 0.00421687 -0.00169492
internal_weight=0 385 53 332 295
internal_count=411 385 53 332 295
is_linear=0
shrinkage=0.1


Tree=54
num_leaves=6
num_cat=0
split_feature=5 16 42 18 32
split_gain=12.0178 7.27136 7.13981 8.73094 8.59907
threshold=3.2645415000000004 0.94857705000000014 48.935964000000006 11.914638000000002 0.12414600000000002
decision_type=2 8 2 2 10
left_child=-1 2 4 -4 -2
right_child=1 -3 3 -5 -6
leaf_value=-0.002236070392554849 0.00035772831155759014 0.00063734813266588244 -0.0015288639986011494 0.0011280369890766537 -3.9654276391921615e-05
leaf_weight=27 104 30 65 25 153
leaf_count=27 104 30 65 25 153
internal_value=0 0.0061008 0.00201729 -0.0222222 0.0105058
internal_weight=0 377 347 90 257
internal_count=404 377 347 90 257
is_linear=0
shrinkage=0.1


Tree=55
num_leaves=10
num_cat=0
split_feature=48 18 45 25 41 26 36 54 9
split_gain=7.75822 9.799 9.33129 7.73049 7.13636 7.74297 10.6194 7.4822 7.08338
threshold=1.1405700000000001 16.976382500000003 4623.3311420000009 45.396000000000008 117.85996950000002 199.81449000000001 1.7111595000000002 39.50334800000001 4813.1280600000009
decision_type=2 2 2 2 2 2 2 2 2
left_child=1 2 -1 -4 5 6 -2 -7 -6
right_child=4 -3 3 -5 8 7 -8 -9 -10
leaf_value=-0.00020308224385968442 0.00099497026094828487 -0.0023117068005242803 0.0017083840478357209 0.00012886298070830405 0.00019904225992583291 0.00073450747464584619 -0.0022912176385522748 -0.0003803111754968989 -0.0015422725538832593
leaf_weight=30 20 20 52 89 22 49 26 54 31
leaf_count=30 20 20 52 89 22 49 26 54 31
internal_value=0 0.0162304 0.0239766 0.0347518 -0.0118812 -0.000671141 -0.0347826 0.0145631 -0.0433962
internal_weight=0 191 171 141 202 149 46 103 53
internal_count=393 191 171 141 202 149 46 103 53
is_linear=0
shrinkage=0.1


Tree=56
num_leaves=8
num_cat=0
split_feature=51 46 11 13 21 25 40
split_gain=9.20813 7.42034 11.334 8.27388 9.72807 7.69883 4.91639
threshold=311.75738125000004 8.900738500000001 262.13976000000008 957.91661550000015 0.88016250000000007 58.963390000000011 55.808824500000007
decision_type=2 2 2 2 2 2 8
left_child=1 2 5 4 -3 -1 -5
right_child=-2 3 -4 6 -6 -7 -8
leaf_value=-0.00032524990783406931 -0.0019036521303052931 -0.00025780097915624971 0.0068400420950365248 -0.0025064194260418925 0.00043166122462679488 0.00080344272070031911 -0.00015666291531962547
leaf_weight=69 25 149 21 30 39 21 39
leaf_count=69 25 149 21 30 39 21 39
internal_value=0 0.00271739 0.0243243 -0.00661479 0.00425532 0.00888889 -0.0362319
internal_weight=0 368 111 257 188 90 69
internal_count=393 368 111 257 188 90 69
is_linear=0
shrinkage=0.1


Tree=57
num_leaves=7
num_cat=0
split_feature=36 41 22 14 48 36
split_gain=9.62212 8.72041 7.92923 7.15148 7.05712 6.30806
threshold=5.921539000000001 122.03101950000001 22.157269750000005 547.43583175000015 0.95671000000000006 2.1868175000000005
decision_type=2 2 2 2 2 2
left_child=1 2 -1 -4 -3 -6
right_child=-2 4 3 -5 5 -7
leaf_value=-0.0028158839547609777 -0.0017351124675038278 0.00015464756108831193 0.00010929884739047601 0.0035524394374297653 -0.0001575743633935853 -0.0017858124093750748
leaf_weight=27 39 29 243 31 21 22
leaf_count=27 39 29 243 31 21 22
internal_value=0 0.00348525 0.0109635 0.0160584 -0.0277778 -0.0534884
internal_weight=0 373 301 274 72 43
internal_count=412 373 301 274 72 43
is_linear=0
shrinkage=0.1


Tree=58
num_leaves=11
num_cat=0
split_feature=21 23 9 16 17 49 23 11 28 37
split_gain=9.07294 16.5448 15.5202 14.2151 10.1447 9.58348 7.08337 5.88095 5.02857 4.34603
threshold=0.85848750000000007 1.1502945000000002 5665.3774150000008 0.64778211000000008 80.298748000000003 0.43008550000000006 0.77927625 172.30051350000002 0.24460350000000003 1725.3099625000002
decision_type=2 2 2 10 2 8 2 2 2 2
left_child=1 3 4 8 -3 7 -5 -2 -1 -4
right_child=5 2 9 6 -6 -7 -8 -9 -10 -11
leaf_value=0.015304513692740796 9.0618231423014207e-05 -0.0007165776686701527 -0.0015291545177446475 -0.0053536977722750531 0.00040553875797870735 -3.3695425912597198e-05 0.00054925269171092093 0.00061094999523097376 0.0030805531073549719 -0.00048999348501351165
leaf_weight=20 23 66 35 20 71 31 27 36 35 28
leaf_count=20 23 66 35 20 71 31 27 36 35 28
internal_value=0 -0.00728477 -0.024 0.0254902 -0.00510949 0.0288889 -0.0148936 0.0525424 0.06 -0.0650794
internal_weight=0 302 200 102 137 90 47 59 55 63
internal_count=392 302 200 102 137 90 47 59 55 63
is_linear=0
shrinkage=0.1


Tree=59
num_leaves=6
num_cat=0
split_feature=49 12 16 55 18
split_gain=8.42435 7.0962 9.65242 8.06717 9.44133
threshold=0.90758200000000011 7.2562275000000005 0.64778211000000008 0.073550903500000014 3.7434710000000004
decision_type=10 10 10 10 2
left_child=1 2 -1 -3 -5
right_child=-2 3 -4 4 -6
leaf_value=-0.002809172030915583 0.0016613647252910564 0.017979086890479203 1.7594522326442872e-05 -0.0017799827990566848 2.7757870212366588e-05
leaf_weight=26 33 20 28 43 235
leaf_count=26 33 20 28 43 235
internal_value=0 -0.00738636 -0.0407407 -0.00134228 -0.0057554
internal_weight=0 352 54 298 278
internal_count=385 352 54 298 278
is_linear=0
shrinkage=0.1


Tree=60
num_leaves=6
num_cat=0
split_feature=52 40 26 36 41
split_gain=6.21974 8.16051 7.21546 9.86033 6.0041
threshold=29725.568405000002 16.060902000000002 891.55031000000008 4.7142545000000009 81.027280750000003
decision_type=2 8 2 2 2
left_child=1 -1 3 -3 -2
right_child=4 2 -4 -5 -6
leaf_value=-0.0042273128878180886 -1.2678993565463731e-05 0.00010338557801508686 0.00046208020702989059 -0.0010830959122283712 -0.0012026295545451442
leaf_weight=22 33 255 25 41 25
leaf_count=22 33 255 25 41 25
internal_value=0 0.00437318 0.00841121 0.00405405 -0.0310345
internal_weight=0 343 321 296 58
internal_count=401 343 321 296 58
is_linear=0
shrinkage=0.1


Tree=61
num_leaves=12
num_cat=0
split_feature=50 34 23 53 10 41 18 43 30 15 36
split_gain=8.46297 7.78666 7.66661 9.41856 6.4346 8.35088 8.14545 10.2101 6.235 5.88139 5.13333
threshold=18.915617000000005 13.040276 1.2496005000000003 27.834940500000005 22.068750000000005 80.45955450000001 8.9831140000000023 27.591816000000005 84.062770000000015 42.733554500000004 2.7048010000000002
decision_type=2 2 2 2 2 2 2 10 2 2 2
left_child=4 -2 3 -3 6 10 9 -8 -4 -1 -6
right_child=1 2 8 -5 5 -7 7 -9 -10 -11 -12
leaf_value=-0.0012080218343667366 -0.00099440142508681406 0.0014504094616885892 0.00078871969413398023 -8.3774895055888158e-05 0.0078840598730157817 1.6652057843382874e-05 -0.001504005570874828 0.00040560429833599182 -0.0013206420602290617 0.00044599744837530119 0.00046509400109839513
leaf_weight=37 31 25 21 42 22 34 21 45 77 23 20
leaf_count=37 31 25 21 42 22 34 21 45 77 23 20
internal_value=0 -0.0153061 -0.00666667 0.019403 0.0138614 0.0368421 0 0.0242424 -0.0244898 -0.0266667 0.0666667
internal_weight=0 196 165 67 202 76 126 66 98 60 42
internal_count=398 196 165 67 202 76 126 66 98 60 42
is_linear=0
shrinkage=0.1


Tree=62
num_leaves=10
num_cat=0
split_feature=40 27 17 46 29 30 29 31 5
split_gain=8.40546 10.1144 8.76232 7.5188 6.55261 9.1691 7.89571 6.80248 7.91324
threshold=35.388639000000005 0.40558050000000007 68.053952000000024 8.900738500000001 126.78261000000002 84.689760000000021 169.35158250000003 29.483092000000003 4.7351355000000011
decision_type=10 2 2 2 2 2 2 2 2
left_child=1 2 -1 -4 7 -6 -7 8 -2
right_child=4 -3 3 -5 5 6 -8 -9 -10
leaf_value=-0.00026735107954740922 -8.8589631487296728e-05 -0.0034753359035987921 0.0020967469711904254 0.00032494332731920734 0.0027662383869552932 9.5336454969371785e-05 -0.00083566790693312366 8.5706789443823473e-05 -0.0010889190857009427
leaf_weight=29 31 31 20 56 37 59 54 36 38
leaf_count=29 31 31 20 56 37 59 54 36 38
internal_value=0 0.0147059 0.0295238 0.0473684 -0.0160784 -0.00266667 -0.0168142 -0.0352381 -0.0536232
internal_weight=0 136 105 76 255 150 113 105 69
internal_count=391 136 105 76 255 150 113 105 69
is_linear=0
shrinkage=0.1


Tree=63
num_leaves=9
num_cat=0
split_feature=43 45 43 21 38 19 45 7
split_gain=9.95687 11.186 10.1078 7.55193 6.12188 7.84401 5.10094 2.65947
threshold=30.927624000000005 5825.7474340000017 35.857080000000003 0.82991250000000016 0.28899000000000002 0.039601000000000004 11649.617755000001 10.158824000000001
decision_type=8 2 10 2 2 2 2 2
left_child=1 -1 7 6 5 -4 -3 -2
right_child=2 3 4 -5 -6 -7 -8 -9
leaf_value=0.00012757306927551907 0.000930157082226471 -0.0011305620686987599 0.00040520757166690911 7.608220611001612e-05 -0.0023802289636069064 -0.0025877295208759179 -3.823702326048543e-05 0.0007363306184237948
leaf_weight=39 20 49 138 29 37 22 25 21
leaf_count=39 20 49 138 29 37 22 25 21
internal_value=0 -0.0225352 0.0109244 -0.0398058 0.00152284 0.01 -0.0567568 0.0560976
internal_weight=0 142 238 103 197 160 74 41
internal_count=380 142 238 103 197 160 74 41
is_linear=0
shrinkage=0.1


Tree=64
num_leaves=9
num_cat=0
split_feature=43 23 21 52 34 29 5 51
split_gain=8.60206 11.9966 8.00027 9.4674 8.91024 6.50791 6.9323 6.19493
threshold=28.517160000000004 1.6578585000000003 0.85350000000000004 5833.6956540000001 22.340962000000001 89.859255000000005 4.5490965000000001 84.02238250000002
decision_type=10 2 2 2 2 2 2 2
left_child=2 5 3 -1 -5 -2 -7 -3
right_child=1 7 -4 4 -6 6 -8 -9
leaf_value=9.6558283193207619e-05 -0.0008545095295257242 0.00031347059758162453 6.8473985499014513e-05 -0.0017758735054913544 -8.3029385348336456e-06 0.000541740843605325 0.00021082643656176569 -0.0028684721717320049
leaf_weight=37 34 26 33 34 20 48 124 33
leaf_count=37 34 26 33 34 20 48 124 33
internal_value=0 0.0109434 -0.0209677 -0.0362637 -0.062963 0.0223301 0.0302326 -0.0288136
internal_weight=0 265 124 91 54 206 172 59
internal_count=389 265 124 91 54 206 172 59
is_linear=0
shrinkage=0.1


Tree=65
num_leaves=5
num_cat=0
split_feature=22 27 36 52
split_gain=7.1592 7.47659 7.1373 5.92947
threshold=22.157269750000005 1.5015780000000001 5.921539000000001 1190.1905505000002
decision_type=2 2 2 2
left_child=-1 2 3 -2
right_child=1 -3 -4 -5
leaf_value=-0.0025006783264371149 0.0023946995857954895 -0.0015855032702731407 -0.00076905857657315173 4.0073264450133321e-05
leaf_weight=28 30 27 30 276
leaf_count=28 30 27 30 276
internal_value=0 0.00247934 0.00654762 0.0111111
internal_weight=0 363 336 306
internal_count=391 363 336 306
is_linear=0
shrinkage=0.1


Tree=66
num_leaves=12
num_cat=0
split_feature=46 45 43 47 26 2 21 17 16 29 23
split_gain=7.39696 14.4727 13.1779 8.48439 7.38474 11.2918 9.06016 8.95746 4.90003 4.87619 2.72727
threshold=9.1185020000000012 6868.2590230000014 30.821952000000003 5.0559010760000005 199.81449000000001 105.12633900000002 0.61432500000000012 79.938024000000013 0.64323495000000008 109.92858750000001 1.3599405000000002
decision_type=2 2 10 10 2 2 2 2 10 2 2
left_child=1 3 -3 8 7 6 -6 -2 -1 -7 -4
right_child=4 2 10 -5 5 9 -8 -9 -10 -11 -12
leaf_value=-0.0015118637708838257 -0.0019356861334586858 1.223041100784463e-07 0.0098094363436175506 0.00027392704501008787 -0.00090172504807211294 8.4793310448229582e-05 0.00036470764075294997 -0.00038448769537477987 -0.00036451731783946267 -0.00080846056319179094 0.006371148481201472
leaf_weight=22 29 39 24 20 29 21 97 39 21 35 20
leaf_count=22 29 39 24 20 29 21 97 39 21 35 20
internal_value=0 0.0123288 0.039759 -0.0238095 -0.016 -0.00549451 0.0111111 -0.0441176 -0.0488372 -0.0428571 0.0772727
internal_weight=0 146 83 63 250 182 126 68 43 56 44
internal_count=396 146 83 63 250 182 126 68 43 56 44
is_linear=0
shrinkage=0.1


Tree=67
num_leaves=13
num_cat=0
split_feature=45 0 40 22 52 45 42 50 17 11 47 25
split_gain=9.81511 10.0379 11.5247 9.18107 9.15118 12.3686 9.14502 9.05357 6.88931 6.77739 5.31342 3.58442
threshold=7721.2438070000007 0.48071250000000004 74.537463000000017 35.345103750000007 2824.8385500000004 10955.051705000002 7.1693580000000008 20.585326000000002 66.642768000000004 181.05086925000003 3.7466843770000007 50.238240000000005
decision_type=2 2 8 2 2 2 2 2 2 2 10 2
left_child=1 2 10 -4 5 -2 -3 -8 11 -10 -1 -6
right_child=4 6 3 -5 8 -7 7 -9 9 -11 -12 -13
leaf_value=0.00052651914062807736 -0.00073111981617628792 -0.0042029293229297656 -0.00065316105235454646 0.00017160442720570788 -0.00074688853687573996 0.013757197552801021 -0.0013606773937954431 0.0017604877636703622 0.00013361714500979802 -0.00089497258603123012 0.00037314639076568867 -0.0011766340250657179
leaf_weight=35 22 21 48 29 21 27 24 32 32 58 33 23
leaf_count=35 22 21 48 29 21 27 24 32 32 58 33 23
internal_value=0 0.0045045 0.02 -0.00649351 -0.026776 0.0102041 -0.0246753 -0.00357143 -0.0402985 -0.0244444 0.05 -0.0727273
internal_weight=0 222 145 77 183 49 77 56 134 90 68 44
internal_count=405 222 145 77 183 49 77 56 134 90 68 44
is_linear=0
shrinkage=0.1


Tree=68
num_leaves=5
num_cat=0
split_feature=36 17 30 29
split_gain=9.62714 6.44327 6.08818 8.19266
threshold=0.91302150000000004 47.811786000000005 61.472580000000008 179.05022250000005
decision_type=2 2 2 2
left_child=-1 -2 -3 -4
right_child=1 2 3 -5
leaf_value=0.0073467436138072405 -0.00062889642010410059 0.0030332369094584252 -9.9167344424693296e-06 -0.0014145669976042465
leaf_weight=29 21 27 263 59
leaf_count=29 21 27 263 59
internal_value=0 -0.00810811 -0.00487106 -0.00869565
internal_weight=0 370 349 322
internal_count=399 370 349 322
is_linear=0
shrinkage=0.1


Tree=69
num_leaves=6
num_cat=0
split_feature=53 42 32 17 16
split_gain=7.80695 6.97518 6.42317 8.59524 8.58952
threshold=44.41199550000001 73.850844000000009 0.010345500000000002 78.447560000000024 0.49043538000000003
decision_type=2 2 8 2 10
left_child=1 2 3 -1 -4
right_child=-2 -3 4 -5 -6
leaf_value=-0.00019111904282713389 0.0010312031580058875 -0.0017886801643747985 0.00080434888362093725 0.00052501064817732845 -0.00063247242661541132
leaf_weight=72 37 33 26 54 162
leaf_count=72 37 33 26 54 162
internal_value=0 -0.00778098 -0.00318471 0.0142857 -0.0148936
internal_weight=0 347 314 126 188
internal_count=384 347 314 126 188
is_linear=0
shrinkage=0.1


Tree=70
num_leaves=9
num_cat=0
split_feature=35 35 45 12 16 28 53 23
split_gain=7.63746 12.5286 12.6763 10.6061 10.2548 7.17924 8.02222 3.48444
threshold=6.1067520000000011 6.804717000000001 5739.1793300000008 78.067942500000015 0.69418854000000019 0.41131650000000003 33.448069000000011 1.2385665000000003
decision_type=2 2 2 8 10 2 2 2
left_child=5 -2 3 -3 -4 6 7 -1
right_child=1 2 4 -5 -6 -7 -8 -9
leaf_value=-0.0012716313952492826 0.00072391399525884351 -2.2964246605998099e-05 7.922019278030057e-05 0.001007357280100371 -0.00079045311267969217 0.00031798656435254877 -4.8146334103950014e-05 -0.0011835706328822337
leaf_weight=25 30 33 116 42 75 29 36 20
leaf_count=25 30 33 116 42 75 29 36 20
internal_value=0 0.00540541 -0.00150376 0.0333333 -0.0151832 -0.0254545 -0.0407407 -0.0688889
internal_weight=0 296 266 75 191 110 81 45
internal_count=406 296 266 75 191 110 81 45
is_linear=0
shrinkage=0.1


Tree=71
num_leaves=10
num_cat=0
split_feature=17 15 31 38 12 41 1 10 3
split_gain=7.51862 7.23932 6.54615 10.0119 8.60593 7.60833 5.30262 6.69848 3.6
threshold=63.709408000000003 61.363711500000008 36.508400000000009 0.11255400000000002 7.2562275000000005 117.85996950000002 2174.9181300000005 21.009450000000005 23.422611000000003
decision_type=2 2 2 2 10 2 2 2 2
left_child=1 6 4 -4 8 -6 -1 -8 -2
right_child=2 -3 3 -5 5 -7 7 -9 -10
leaf_value=-0.00048261463023625936 -0.0014742746380442891 -0.00095400645637202803 0.00031058622333580022 -0.0033355101355225488 0.00028742469081308061 -0.00068423906375560399 0.00083650531226347525 -0.0003707357269525102 -8.893706203696658e-05
leaf_weight=20 20 28 21 27 167 54 23 20 20
leaf_count=20 20 28 21 27 167 54 23 20 20
internal_value=0 -0.0362637 -0.00355987 -0.0375 0.00268199 0.0104072 -0.0174603 0.00232558 -0.04
internal_weight=0 91 309 48 261 221 63 43 40
internal_count=400 91 309 48 261 221 63 43 40
is_linear=0
shrinkage=0.1


Tree=72
num_leaves=10
num_cat=0
split_feature=21 52 38 13 45 41 28 49 22
split_gain=8.53062 9.04274 13.659 11.4329 7.5647 7.19601 7.78962 5.18295 2.60999
threshold=0.87731250000000005 7590.9468735000009 0.033462000000000006 847.53597575000015 9272.5994025000018 143.83865925000001 0.45231150000000003 0.47072350000000002 34.061016000000009
decision_type=2 2 2 2 2 2 2 10 2
left_child=1 2 -1 -4 7 6 -3 8 -2
right_child=4 5 3 -5 -6 -7 -8 -9 -10
leaf_value=0.0020598169891536604 0.00042370903889266034 -0.0004811850574520149 -0.0010255456236163204 0.00052468288043303296 -0.0001363431821715708 -0.00059719039720466959 0.00014389670515771287 0.00018032649437547279 0.0010261582407967388
leaf_weight=39 20 107 75 48 25 21 22 21 21
leaf_count=39 20 107 75 48 25 21 22 21 21
internal_value=0 -0.00897436 0.00740741 -0.00894309 0.0264368 -0.0266667 -0.0178295 0.0451613 0.0658537
internal_weight=0 312 162 123 87 150 129 62 41
internal_count=399 312 162 123 87 150 129 62 41
is_linear=0
shrinkage=0.1


Tree=73
num_leaves=9
num_cat=0
split_feature=22 41 11 31 20 16 18 37
split_gain=7.34397 7.58663 11.7802 11.0312 9.16114 8.4247 8.39256 3.6
threshold=19.500175750000004 117.85996950000002 201.83998500000004 21.372768000000004 1.2666350000000002 0.69971643000000017 10.354605000000001 1659.7609750000004
decision_type=2 2 2 2 2 10 2 2
left_child=-1 3 6 5 -5 -2 -3 -4
right_child=1 2 7 4 -6 -7 -8 -9
leaf_value=-0.0033106774151258067 0.0049679419064035338 -0.00022123159800189319 -0.00081878213703873181 -0.00018375911851285472 0.00045607937038869391 5.5419762289527995e-05 0.00046970549374542281 -0.003966482855831433
leaf_weight=22 39 28 20 167 49 32 25 20
leaf_count=22 39 28 20 167 49 32 25 20
internal_value=0 -0.00421053 -0.0290323 0.00383275 -0.00740741 0.0380282 0.00188679 -0.07
internal_weight=0 380 93 287 216 71 53 40
internal_count=402 380 93 287 216 71 53 40
is_linear=0
shrinkage=0.1


Tree=74
num_leaves=11
num_cat=0
split_feature=42 30 11 23 21 43 0 23 46 15
split_gain=9.07682 9.385 10.1349 8.76041 10.9798 7.78991 8.78117 7.64698 5.91652 5.86667
threshold=5.4513960000000008 66.21502000000001 170.00297550000002 1.1337435000000002 0.75296250000000009 54.378240000000012 0.30231475000000002 1.3875255000000004 9.7993575000000011 64.417421250000004
decision_type=2 2 2 2 2 10 2 2 2 2
left_child=1 -1 -3 4 8 6 -5 -4 -2 -7
right_child=3 2 7 5 -6 9 -8 -9 -10 -11
leaf_value=-0.0030750802208004816 0.014602809544217566 0.00033631920507154364 5.9468124921409548e-05 -0.00023052411619972374 -0.00037370255023925028 -0.00051135875352344693 0.00031926118294987925 -0.0003023276713650004 0.00073721021647919684 -0.0012057996681604959
leaf_weight=22 21 27 31 55 31 33 75 35 25 22
leaf_count=22 21 27 31 55 31 33 75 35 25 22
internal_value=0 -0.0321739 -0.0182796 0.00152672 0.0298701 -0.0102703 0.00307692 -0.0393939 0.0608696 -0.0418182
internal_weight=0 115 93 262 77 185 130 66 46 55
internal_count=377 115 93 262 77 185 130 66 46 55
is_linear=0
shrinkage=0.1


Tree=75
num_leaves=11
num_cat=0
split_feature=17 28 43 1 48 23 45 1 35 31
split_gain=7.59608 11.5125 10.3943 9.92035 13.2656 8.05885 9.21063 8.87504 6.69978 4.44974
threshold=70.884248000000014 0.40858350000000004 43.702512000000006 4129.7287900000001 0.97353000000000012 1.4206275000000004 5460.1910820000003 2270.1995800000004 9.2555460000000007 28.125116000000002
decision_type=2 2 10 2 2 2 2 2 2 2
left_child=5 3 -3 4 -2 6 -1 -8 -5 -7
right_child=1 2 -4 8 -6 9 7 -9 -10 -11
leaf_value=0.00032029149202302324 0.00012013935035876649 0.00054916980852726441 -4.7777506736219514e-05 -0.0014689110930951044 -0.00073343243289349558 -0.00066155895315046472 -0.00072872704405606509 1.0180175159477552e-05 0.0098899767103030282 -0.00043373780711608632
leaf_weight=25 44 38 33 20 77 27 21 45 34 21
leaf_count=25 44 38 33 20 77 27 21 45 34 21
internal_value=0 0.00406504 0.0380282 -0.00971429 -0.0256198 -0.0251799 -0.00769231 -0.0272727 0.0259259 -0.0583333
internal_weight=0 246 71 175 121 139 91 66 54 48
internal_count=385 246 71 175 121 139 91 66 54 48
is_linear=0
shrinkage=0.1


Tree=76
num_leaves=9
num_cat=0
split_feature=36 8 53 47 10 35 29 17
split_gain=9.15583 8.72043 8.05551 8.0412 6.54352 7.03275 4.44216 3.37191
threshold=0.8505410000000001 4.4557520000000013 38.997940500000006 5.3117930825000004 22.774950000000004 10.176153000000001 140.81664750000002 68.053952000000024
decision_type=2 2 2 8 2 2 2 2
left_child=-1 2 3 -2 6 -6 -3 -4
right_child=1 4 7 -5 5 -7 -8 -9
leaf_value=0.0061857932055924417 4.1280830224023872e-05 -0.0014383578740400217 0.00072067858430815274 -0.0012446944395845313 0.010557223294752749 -0.0015524822222818793 -0.00066329737548674996 0.00011375274207168262
leaf_weight=23 154 31 20 61 20 21 30 26
leaf_count=23 154 31 20 61 20 21 30 26
internal_value=0 -0.00853994 0.00114943 -0.00697674 -0.0333333 -0.00243902 -0.0540984 0.0391304
internal_weight=0 363 261 215 102 41 61 46
internal_count=386 363 261 215 102 41 61 46
is_linear=0
shrinkage=0.1


Tree=77
num_leaves=10
num_cat=0
split_feature=48 35 17 48 1 41 12 49 1
split_gain=6.45227 7.66661 7.15035 6.95081 10.7366 9.14286 6.21529 13.7358 5.27473
threshold=0.98223000000000005 8.0981610000000028 91.374164000000022 1.0921400000000003 2356.1113950000004 117.85996950000002 39.870176250000007 0.25398750000000009 1741.8833300000003
decision_type=2 2 2 2 2 2 8 10 2
left_child=1 6 -3 -2 8 -6 -1 -8 -5
right_child=3 2 -4 4 5 -7 7 -9 -10
leaf_value=0.00016712136280210021 -0.0012580790924001479 5.2993986988952514e-05 0.0022601410999879986 2.6405110081796592e-05 -9.201013022186455e-05 -0.00084385262883012358 -0.0017372529903443624 0.00015502017179555482 0.00048287755346736964
leaf_weight=39 27 27 20 30 126 36 35 34 26
leaf_count=39 27 27 20 30 126 36 35 34 26
internal_value=0 0.0109677 0.0446809 -0.015102 -0.00917431 -0.0222222 -0.0037037 -0.0217391 0.0285714
internal_weight=0 155 47 245 218 162 108 69 56
internal_count=400 155 47 245 218 162 108 69 56
is_linear=0
shrinkage=0.1


Tree=78
num_leaves=10
num_cat=0
split_feature=28 53 40 5 19 30 23 43 7
split_gain=8.91504 9.41488 10.1318 6.72838 6.4287 10.593 6.07375 8.73766 5.84599
threshold=0.32932650000000002 33.283414750000006 77.106100500000011 8.1746422500000033 0.023681000000000004 116.61696000000002 1.2096022500000003 29.562456000000001 9.8437240000000017
decision_type=2 2 8 2 2 2 2 10 2
left_child=1 6 -3 4 8 -6 7 -1 -2
right_child=3 2 -4 -5 5 -7 -8 -9 -10
leaf_value=-0.0032824979765861961 -0.0007056675073114139 -0.00039979294838801645 0.0034057085018599251 -0.00020514019643122643 0.00030736103271469513 -0.00088100935104611165 -0.0024109615257803568 0.00015482439847543821 0.00047792905827737748
leaf_weight=20 39 37 28 22 134 23 27 35 28
leaf_count=20 39 37 28 22 134 23 27 35 28
internal_value=0 -0.0238095 0.00461538 0.00731707 0.0125 0.0235669 -0.0463415 -0.0272727 -0.0134328
internal_weight=0 147 65 246 224 157 82 55 67
internal_count=393 147 65 246 224 157 82 55 67
is_linear=0
shrinkage=0.1


Tree=79
num_leaves=8
num_cat=0
split_feature=30 29 30 29 49 21 3
split_gain=7.96658 10.5093 7.84063 14.5426 7.26144 6.78462 5.76
threshold=115.76896000000001 203.60272875000001 103.19418000000002 132.61930125000003 0.071116500000000013 0.62501250000000008 19.604010000000006
decision_type=2 2 2 2 10 2 2
left_child=1 2 4 -4 -1 -2 -7
right_child=5 -3 3 -5 -6 6 -8
leaf_value=8.8261782005506033e-05 -0.0021150068173532931 0.0099498356474198371 0.00044297918605021736 -0.0006543343945168284 -0.00034961073636939659 3.8165085005917342e-05 -0.00088085401880722057
leaf_weight=57 20 35 35 39 169 25 20
leaf_count=57 20 35 35 39 169 25 20
internal_value=0 -0.00328358 -0.00933333 0.0189189 -0.0185841 -0.0415385 -0.02
internal_weight=0 335 300 74 226 65 45
internal_count=400 335 300 74 226 65 45
is_linear=0
shrinkage=0.1


Tree=80
num_leaves=9
num_cat=0
split_feature=28 48 21 42 36 13 5 11
split_gain=7.01759 8.40407 11.4354 9.78995 8.97474 8.33196 8.24395 6.2243
threshold=0.40858350000000004 1.7072300000000002 0.77021250000000008 69.086886000000007 4.6840220000000015 1243.2751665000003 4.1238645000000007 166.91062500000001
decision_type=2 2 2 2 2 2 2 2
left_child=1 3 -3 4 -1 6 -2 -8
right_child=5 2 -4 -5 -6 -7 7 -9
leaf_value=-0.00012445575188326373 -0.00015168501545815405 0.022281408367162303 -0.00040821314053369692 -0.001618252082030805 -0.00060274872682704024 -0.00035400749759129514 0.00079852932488848729 8.3673083310632369e-05
leaf_weight=175 20 28 21 28 36 21 20 53
leaf_count=175 20 28 21 28 36 21 20 53
internal_value=0 -0.0152778 0.022449 -0.0230126 -0.0156398 0.0140351 0.0268817 0.0424658
internal_weight=0 288 49 239 211 114 93 73
internal_count=402 288 49 239 211 114 93 73
is_linear=0
shrinkage=0.1


Tree=81
num_leaves=12
num_cat=0
split_feature=48 54 15 10 22 24 7 21 20 54 16
split_gain=7.04939 10.2643 8.71369 7.99537 7.54024 7.33645 7.20298 6.82551 6.47353 5.66149 4.58046
threshold=0.98223000000000005 35.478168000000004 28.294493500000005 19.243950000000002 32.086502250000002 36.454724000000006 12.953761000000002 0.73301250000000007 1.0565900000000001 57.130550000000007 0.60278022000000009
decision_type=2 2 2 2 2 2 2 2 2 2 10
left_child=1 8 5 -3 7 -2 -6 -4 10 -5 -1
right_child=2 3 4 9 6 -7 -8 -9 -10 -11 -12
leaf_value=-0.0011985150338948087 0.00087715699787851368 -0.000246525311049077 0.0021990514868066974 0.00079995063327374617 -0.00031240700472394867 -0.0010232661618339131 -0.0031914151767060807 -0.0010014755597612069 -0.00058695733406243173 0.00011688801088821388 0.00028474091121102825
leaf_weight=23 30 21 25 26 89 27 35 21 26 31 21
leaf_count=23 30 21 25 26 89 27 35 21 26 31 21
internal_value=0 0.0135135 -0.0145374 0.0384615 -0.0258824 0.0192982 -0.0387097 0.00869565 -0.0142857 0.0578947 0.00909091
internal_weight=0 148 227 78 170 57 124 46 70 57 44
internal_count=375 148 227 78 170 57 124 46 70 57 44
is_linear=0
shrinkage=0.1


Tree=82
num_leaves=10
num_cat=0
split_feature=0 21 36 19 40 36 16 12 1
split_gain=7.67025 19.2658 10.401 10.2563 9.15238 8.67105 7.65483 7.51281 0.9
threshold=0.27988150000000006 0.6898875000000001 5.921539000000001 0.030845000000000001 82.297644000000005 3.6923960000000005 0.7171385400000001 78.844232500000018 3301.4831850000005
decision_type=2 2 2 2 8 2 10 10 2
left_child=1 8 3 6 -5 7 -2 -3 -1
right_child=2 5 -4 4 -6 -7 -8 -9 -10
leaf_value=-0.0023518821975888546 0.00079550135568189203 -0.00020360365466626706 -0.00097461194088899249 -0.0005733710259437589 0.00017433096271218516 0.00050330454869083072 -0.00028781178281768027 0.00018851469939380489 -0.0010308842879110413
leaf_weight=20 90 43 30 64 56 24 32 20 20
leaf_count=20 90 43 30 64 56 24 32 20 20
internal_value=0 -0.0275591 0.00220588 0.00909091 -0.0116667 -0.00114943 0.0295082 -0.0206349 -0.085
internal_weight=0 127 272 242 120 87 122 63 40
internal_count=399 127 272 242 120 87 122 63 40
is_linear=0
shrinkage=0.1


Tree=83
num_leaves=8
num_cat=0
split_feature=11 9 5 36 25 29 24
split_gain=7.76451 9.89852 6.58454 9.17576 8.84812 4.90577 2.81299
threshold=266.34908700000005 6045.6854350000003 3.6100425000000005 6.0545620000000016 64.048130000000015 116.27920125000001 36.454724000000006
decision_type=2 2 2 2 2 2 2
left_child=2 6 5 4 -4 -1 -2
right_child=1 -3 3 -5 -6 -7 -8
leaf_value=-0.0013852503922318592 0.0014893777760531272 -0.00016837220228506941 7.8423847817225866e-05 -0.00096453114604554786 -0.00022933348403042573 -0.00018169310699862477 0.00019509795941691815
leaf_weight=21 22 39 196 20 53 32 20
leaf_count=21 22 39 196 20 53 32 20
internal_value=0 0.0234568 -0.0111801 -0.00483271 0.000401606 -0.0433962 0.0571429
internal_weight=0 81 322 269 249 53 42
internal_count=403 81 322 269 249 53 42
is_linear=0
shrinkage=0.1


Tree=84
num_leaves=6
num_cat=0
split_feature=36 50 42 26 36
split_gain=7.25696 8.95659 7.52684 7.37061 6.22763
threshold=0.8505410000000001 11.980976000000002 100.17098400000002 367.00955500000003 5.921539000000001
decision_type=2 2 2 2 2
left_child=-1 3 4 -2 -3
right_child=1 2 -4 -5 -6
leaf_value=0.0099038850000609194 -0.00061698019282315712 8.077694161945526e-05 -0.00091658001957611607 0.00015056537050950106 -0.00092189674638467093
leaf_weight=22 34 267 22 21 29
leaf_count=22 34 267 22 21 29
internal_value=0 -0.00455764 0.00188679 -0.0418182 0.00608108
internal_weight=0 373 318 55 296
internal_count=395 373 318 55 296
is_linear=0
shrinkage=0.1


Tree=85
num_leaves=7
num_cat=0
split_feature=42 46 46 30 28 21
split_gain=7.73676 6.58102 10.3562 6.38923 8.52787 7.14286
threshold=89.620140000000006 11.891541000000002 13.024462500000002 99.633640000000014 0.37305450000000007 0.6655500000000002
decision_type=2 2 2 2 2 2
left_child=1 3 -3 5 -5 -1
right_child=-2 2 -4 4 -6 -7
leaf_value=0.00079408061731896294 -0.00098756317485202533 -0.00078247226901649331 4.2321572817124791e-05 -0.00050000093209700495 6.8711899218615232e-05 3.9249694777262315e-06
leaf_weight=72 36 30 38 64 61 96
leaf_count=72 36 30 38 64 61 96
internal_value=0 -0.00138504 -0.0294118 0.00511945 -0.012 0.0178571
internal_weight=0 361 68 293 125 168
internal_count=397 361 68 293 125 168
is_linear=0
shrinkage=0.1


Tree=86
num_leaves=9
num_cat=0
split_feature=43 2 13 50 54 53 45 34
split_gain=6.63235 7.56083 7.5252 8.74345 10.6434 5.86288 6.56043 4.36987
threshold=28.517160000000004 99.308727000000019 401.48725250000007 13.032102000000002 48.884718000000007 23.431137000000003 8282.6451480000014 24.165837000000003
decision_type=8 2 2 2 2 2 2 2
left_child=1 5 7 -4 -5 -1 -7 -2
right_child=2 -3 3 4 -6 6 -8 -9
leaf_value=-0.0020687796382753893 4.5457398862148417e-05 -0.00092284158869804895 -0.00064737443436525246 0.00023792146957049188 -0.00019755863554454009 -0.00018767187207852464 0.00034696715478213915 0.0031248942224037734
leaf_weight=25 20 23 37 117 85 43 30 23
leaf_count=25 20 23 37 117 85 43 30 23
internal_value=0 -0.022314 0.00567376 -0.00125523 0.00693069 -0.0102041 0.00410959 0.044186
internal_weight=0 121 282 239 202 98 73 43
internal_count=403 121 282 239 202 98 73 43
is_linear=0
shrinkage=0.1


Tree=87
num_leaves=12
num_cat=0
split_feature=46 20 38 36 45 25 34 35 48 51 54
split_gain=9.14929 14.3245 7.09459 12.2377 11.3077 10.8513 6.41212 6.13648 7.05596 6.1088 3.9058
threshold=10.339631500000001 1.3143725000000002 0.14905800000000005 2.1465075000000007 4282.0668600000017 42.214400000000005 27.047455000000003 8.5558140000000016 1.3398000000000001 73.956039500000017 35.478168000000004
decision_type=2 2 2 2 2 2 2 2 2 2 2
left_child=2 7 4 -4 -1 -6 -3 9 -9 -2 -5
right_child=1 6 3 10 5 -7 -8 8 -10 -11 -12
leaf_value=-0.0014191664125190401 5.1082560039372512e-05 0.00077890387996889046 -0.0003516975404229683 0.00036445923391499016 0.0010399226082388668 -0.00015652999984771193 -0.00013610308002088168 -0.0025807204085683245 -0.00090771043059470361 -0.0010387962594440379 0.0039653601023263213
leaf_weight=20 49 24 28 24 52 78 20 29 32 26 22
leaf_count=20 49 24 28 24 52 78 20 29 32 26 22
internal_value=0 -0.0177778 0.0125 0.0378378 0 0.0107692 0.0318182 -0.0338235 -0.057377 -0.0146667 0.0695652
internal_weight=0 180 224 74 150 130 44 136 61 75 46
internal_count=404 180 224 74 150 130 44 136 61 75 46
is_linear=0
shrinkage=0.1


Tree=88
num_leaves=6
num_cat=0
split_feature=46 46 32 22 11
split_gain=7.98233 6.35538 11.5857 5.93831 7.80882
threshold=13.377294500000001 11.818493750000002 0.5000325000000001 45.439968750000013 271.32779250000004
decision_type=2 2 10 2 2
left_child=1 3 -3 4 -1
right_child=-2 2 -4 -5 -6
leaf_value=2.2349542713315219e-06 0.00066505374757475078 6.0639937779408096e-05 -0.0032834179042635983 -0.001078256394218279 0.00038784497344462421
leaf_weight=236 34 26 22 35 36
leaf_count=236 34 26 22 35 36
internal_value=0 -0.00366197 -0.0375 0.00162866 0.00661765
internal_weight=0 355 48 307 272
internal_count=389 355 48 307 272
is_linear=0
shrinkage=0.1


Tree=89
num_leaves=8
num_cat=0
split_feature=18 17 25 12 15 45 12
split_gain=10.904 9.92184 6.69262 6.21959 8.1 7.3162 3.47037
threshold=3.7434710000000004 55.281944000000003 54.673080000000006 7.2562275000000005 24.172330000000006 13712.476755000002 44.777345000000004
decision_type=2 2 2 10 2 2 8
left_child=2 6 -1 4 -3 -5 -2
right_child=1 3 -4 5 -6 -7 -8
leaf_value=-0.00014846350847990853 -4.173103328337261e-05 -0.0039768821316199148 -0.001045708381586226 4.4191051522359198e-05 0.00014990115939088417 0.00099144751426730507 -0.0013558148187733131
leaf_weight=31 23 20 27 222 20 44 20
leaf_count=31 23 20 27 222 20 44 20
internal_value=0 0.00544413 -0.0413793 0.0117647 -0.025 0.0172932 -0.0395349
internal_weight=0 349 58 306 40 266 43
internal_count=407 349 58 306 40 266 43
is_linear=0
shrinkage=0.1


Tree=90
num_leaves=10
num_cat=0
split_feature=17 23 28 18 0 0 20 47 48
split_gain=6.73636 10.2739 12.074 12.824 8.58773 14.0688 6.74853 6.66862 4.26087
threshold=67.380072000000013 1.8785385000000001 0.40858350000000004 4.1403215000000015 0.27026725000000007 0.41554925000000004 1.1043275000000004 2.0727148465000007 1.0846000000000002
decision_type=2 2 2 2 2 2 2 10 2
left_child=4 2 3 -2 8 -6 -3 -4 -1
right_child=1 6 7 -5 5 -7 -8 -9 -10
leaf_value=-0.00025406493502683967 -0.00096624094769825997 -0.0020388332830208931 0.00062209928146263367 0.00014209214408868713 0.00018996332725258313 -0.0014693812142709886 -1.0420925676839531e-05 7.9720595992511706e-05 -0.0018258513349349343
leaf_weight=23 36 22 28 142 34 38 23 23 23
leaf_count=23 36 22 28 142 34 38 23 23 23
internal_value=0 0.00145985 0.0100437 -0.00224719 -0.0271186 -0.00555556 -0.0422222 0.0529412 -0.0608696
internal_weight=0 274 229 178 118 72 45 51 46
internal_count=392 274 229 178 118 72 45 51 46
is_linear=0
shrinkage=0.1


Tree=91
num_leaves=11
num_cat=0
split_feature=28 41 11 52 26 0 25 30 45 36
split_gain=8.78988 13.48 9.61738 6.66726 6.41212 6.1164 14.0018 6.44811 9.01517 4.23345
threshold=0.32932650000000002 111.88146450000001 232.34382900000003 1748.2200030000001 234.07264750000004 0.24569750000000004 55.938930000000006 115.34178000000001 7769.1673075000008 2.1868175000000005
decision_type=2 2 2 2 2 2 2 2 2 2
left_child=1 2 3 -1 -4 6 9 8 -7 -2
right_child=5 -3 4 -5 -6 7 -8 -9 -10 -11
leaf_value=0.00082122562845270684 -0.00015409979884638074 -0.00098976496263024068 -0.00070937310285175143 -0.0014652034651675334 0.00074021799583069042 6.2780109775971874e-05 -0.00038291239159870855 -0.00021144507384190524 0.00056998228198303113 0.00056576544998459416
leaf_weight=20 21 34 20 47 24 91 22 37 61 20
leaf_count=20 21 34 20 47 24 91 22 37 61 20
internal_value=0 -0.0213793 -0.0045045 -0.0283582 0.0318182 0.00952381 -0.0174603 0.0185185 0.0276316 0.0170732
internal_weight=0 145 111 67 44 252 63 189 152 41
internal_count=397 145 111 67 44 252 63 189 152 41
is_linear=0
shrinkage=0.1


Tree=92
num_leaves=9
num_cat=0
split_feature=5 9 12 34 15 28 10 17
split_gain=9.36053 16.376 9.42674 11.4261 10.822 8.64038 7.74074 6.92113
threshold=3.9112485000000006 4451.0831825000014 118.65123750000001 14.358678000000003 100.08539450000002 0.40858350000000004 24.893550000000001 78.027376000000018
decision_type=2 2 10 2 2 2 2 2
left_child=1 -1 4 -4 5 -2 -5 -3
right_child=2 7 3 6 -6 -7 -8 -9
leaf_value=-0.0022275131803708515 -0.00041511972062392493 -0.00017742301989948962 -0.00061621402468823184 0.0078660217173262218 0.00043884862945902455 7.6979282108316331e-05 1.1582606683971756e-05 0.00063213415133130059
leaf_weight=32 125 23 21 54 29 72 22 20
leaf_count=32 125 23 21 54 29 72 22 20
internal_value=0 -0.0333333 0.00588235 0.0319588 -0.00530973 -0.0137056 0.05 0.00697674
internal_weight=0 75 323 97 226 197 76 43
internal_count=398 75 323 97 226 197 76 43
is_linear=0
shrinkage=0.1


Tree=93
num_leaves=11
num_cat=0
split_feature=48 29 43 23 42 30 42 15 30 25
split_gain=7.77445 9.21503 8.24997 10.5332 9.45472 6.29504 7.14463 5.81392 5.90769 5.74359
threshold=0.95671000000000006 112.83422625000001 33.009648000000006 1.6578585000000003 8.9455560000000016 114.05494000000002 20.239542000000004 47.039538000000007 82.306880000000021 46.556120000000007
decision_type=2 2 8 2 2 2 2 2 2 2
left_child=1 9 5 4 -4 6 -2 8 -3 -1
right_child=2 7 3 -5 -6 -7 -8 -9 -10 -11
leaf_value=8.5325898046645756e-05 0.00013022313918709737 0.0008664966739575687 -0.00050100611962492002 -0.00069377491388684519 0.00061706713685158487 -0.00055281461810038185 -0.0012696091671349956 0.00032723611559960612 -4.2797367685827915e-05 -0.00082104261855184756
leaf_weight=24 27 26 44 27 72 23 51 28 39 28
leaf_count=24 27 26 44 27 72 23 51 28 39 28
internal_value=0 0.0144828 -0.0147541 0.000699301 0.0137931 -0.0366337 -0.0230769 0.0333333 0.0169231 -0.0192308
internal_weight=0 145 244 143 116 101 78 93 65 52
internal_count=389 145 244 143 116 101 78 93 65 52
is_linear=0
shrinkage=0.1


Tree=94
num_leaves=10
num_cat=0
split_feature=48 50 24 50 3 31 35 41 11
split_gain=7.0711 9.62786 8.97292 9.19863 8.93352 8.37449 7.4179 5.44444 5.09394
threshold=0.86072000000000004 16.004091000000006 38.406918000000012 31.115190000000002 22.208587000000005 20.625540000000004 4.9688040000000013 117.85996950000002 174.30768000000003
decision_type=2 2 2 2 2 2 2 2 2
left_child=1 6 3 5 -3 -2 -1 -4 -6
right_child=2 4 7 -5 8 -7 -8 -9 -10
leaf_value=4.6631097927337288e-05 0.00036231495866894417 -0.00046323031232488234 -0.0004553486255494091 0.00017955252448272817 -0.0001173718867744767 -0.00046347143295763981 0.00081262078457974103 -0.00072231557759132444 0.00030771747081894031
leaf_weight=21 44 39 25 31 20 135 32 20 24
leaf_count=21 44 39 25 31 20 135 32 20 24
internal_value=0 0.0176471 -0.0105882 -0.00190476 -0.00361446 -0.0106145 0.0509434 -0.0511111 0.0272727
internal_weight=0 136 255 210 83 179 53 45 44
internal_count=391 136 255 210 83 179 53 45 44
is_linear=0
shrinkage=0.1


Tree=95
num_leaves=7
num_cat=0
split_feature=30 24 8 30 36 17
split_gain=8.36085 7.81944 8.03195 7.19535 5.65134 5.97071
threshold=114.05494000000002 35.155454000000013 3.8091760000000003 110.81876000000001 6.274251500000001 105.52960800000001
decision_type=2 2 2 2 2 2
left_child=3 -2 -3 4 5 -1
right_child=1 2 -4 -5 -6 -7
leaf_value=-2.1973068018155921e-05 -0.00058013266431883293 0.00030896729180543772 -0.00062470812725657742 0.0011349063873757317 -0.00064776857772237326 0.00060110742758670468
leaf_weight=223 29 26 21 21 20 55
leaf_count=223 29 26 21 21 20 55
internal_value=0 -0.0315789 -0.00638298 0.00532915 0.00134228 0.00503597
internal_weight=0 76 47 319 298 278
internal_count=395 76 47 319 298 278
is_linear=0
shrinkage=0.1


Tree=96
num_leaves=7
num_cat=0
split_feature=42 55 32 55 38 55
split_gain=6.63701 6.86787 9.90534 8.68723 8.69501 8.21778
threshold=82.312788000000012 0.095820817500000016 1.0414470000000002 0.13393491100000002 0.069966000000000014 0.062960915500000006
decision_type=2 10 10 10 2 10
left_child=1 2 -1 -3 -5 -4
right_child=-2 3 5 4 -6 -7
leaf_value=-0.0030994227516585732 -0.00036825620586689679 0.00064786350261293829 0.015174438441945238 7.5134892003777837e-05 -0.0003663521978476833 -0.0026135456582326855
leaf_weight=21 39 37 20 149 112 25
leaf_count=21 39 37 20 149 112 25
internal_value=0 0.00494505 -0.0242424 0.0114094 0.00498084 0.00222222
internal_weight=0 364 66 298 261 45
internal_count=403 364 66 298 261 45
is_linear=0
shrinkage=0.1


Tree=97
num_leaves=9
num_cat=0
split_feature=23 49 19 35 15 29 26 12
split_gain=8.11768 8.48014 8.08542 9.2325 8.84178 7.22105 6.25429 6.82058
threshold=1.8978480000000002 0.11852750000000001 0.034029000000000011 6.0184020000000009 131.55537850000005 90.875805000000014 413.10472750000002 34.283102500000005
decision_type=2 10 2 2 2 2 2 10
left_child=2 -2 3 5 -5 -1 7 -4
right_child=1 -3 6 4 -6 -7 -8 -9
leaf_value=-0.00055158337341219474 0.00026536321336979434 -0.00062368726462517414 -0.0034643134541166676 0.0002691816178249969 -0.00015743752464137265 1.8002281936655206e-05 4.3074661610890153e-05 -0.00024866487355899468
leaf_weight=20 22 34 20 160 22 56 32 42
leaf_count=20 22 34 20 160 22 56 32 42
internal_value=0 -0.0392857 0.00170455 0.0108527 0.0230769 -0.0184211 -0.0234043 -0.0419355
internal_weight=0 56 352 258 182 76 94 62
internal_count=408 56 352 258 182 76 94 62
is_linear=0
shrinkage=0.1


Tree=98
num_leaves=10
num_cat=0
split_feature=3 41 22 46 17 7 16 29 0
split_gain=7.58557 10.4873 9.53342 9.06673 9.48058 8.53752 7.76751 3.66959 3.6
threshold=37.342077500000009 122.03101950000001 25.502174500000006 8.6443840000000005 88.238640000000018 10.683465500000002 0.66981411000000013 144.21644250000003 0.48071250000000004
decision_type=2 2 2 2 2 2 10 2 2
left_child=2 5 -1 6 -5 8 -4 -7 -2
right_child=1 -3 3 4 -6 7 -8 -9 -10
leaf_value=-0.00047282679070795048 0.00099345640133372557 -0.0015939308839969081 0.00036667131870875611 -0.00010941799101518166 0.00047055845898896076 -0.0006814352742797405 0.0013151605690312996 -2.8251232425097554e-05 -0.00032014741476552705
leaf_weight=32 20 22 43 157 52 22 21 21 20
leaf_count=32 20 22 43 157 52 22 21 21 20
internal_value=0 -0.0295238 0.00163934 0.00769231 -0.00239234 -0.013253 0.040625 -0.044186 0.02
internal_weight=0 105 305 273 209 83 64 43 40
internal_count=410 105 305 273 209 83 64 43 40
is_linear=0
shrinkage=0.1


Tree=99
num_leaves=8
num_cat=0
split_feature=48 55 46 20 10 25 18
split_gain=7.09565 8.19802 7.64539 14.3552 7.76143 6.30252 4.85444
threshold=1.8165600000000002 0.094198922500000018 11.624160500000002 1.2825475000000004 19.950150000000004 43.265880000000003 9.8330735000000029
decision_type=2 8 2 2 2 2 2
left_child=1 6 4 -4 -3 -2 -1
right_child=5 2 3 -5 -6 -7 -8
leaf_value=-0.0015333816693941635 0.029337869312789023 0.00018351377911857023 -0.00059776815418371976 0.00010379915244473258 -4.4507233355814028e-05 9.609847864981534e-06 -0.0031421604145462755
leaf_weight=32 21 78 43 23 138 30 26
leaf_count=32 21 78 43 23 138 30 26
internal_value=0 -0.0105882 -0.0035461 -0.0333333 0.00555556 0.0294118 -0.0448276
internal_weight=0 340 282 66 216 51 58
internal_count=391 340 282 66 216 51 58
is_linear=0
shrinkage=0.1


Tree=100
num_leaves=6
num_cat=0
split_feature=5 51 26 21 0
split_gain=7.00631 7.63189 7.91757 8.81564 8.43896
threshold=3.3974265000000003 271.62672775000004 593.42739250000011 0.43132500000000001 0.40379850000000006
decision_type=2 2 2 2 2
left_child=-1 2 3 -2 -4
right_child=1 -3 4 -5 -6
leaf_value=-0.000343463398406425 0.0091294147509418666 -0.00053829535419409912 0.00022565702624372538 -3.0971101393496835e-05 -2.636113404501562e-07
leaf_weight=38 24 27 35 259 20
leaf_count=38 24 27 35 259 20
internal_value=0 0.0030137 0.00710059 0.000353357 0.0418182
internal_weight=0 365 338 283 55
internal_count=403 365 338 283 55
is_linear=0
shrinkage=0.1


Tree=101
num_leaves=6
num_cat=0
split_feature=22 19 17 31 19
split_gain=6.06842 8.08536 8.35465 13.1201 8.85958
threshold=19.500175750000004 0.043183000000000006 78.447560000000024 22.333246000000006 0.023681000000000004
decision_type=2 2 2 2 2
left_child=-1 2 4 -4 -2
right_child=1 -3 3 -5 -6
leaf_value=-0.0023902215819348962 -0.00056490822150746854 -0.00057821106233515833 0.0013889090075204225 1.8855156952044994e-05 2.2093743313349901e-05
leaf_weight=22 52 34 46 130 118
leaf_count=22 52 34 46 130 118
internal_value=0 -0.000526316 0.00404624 0.0193182 -0.0117647
internal_weight=0 380 346 176 170
internal_count=402 380 346 176 170
is_linear=0
shrinkage=0.1


Tree=102
num_leaves=12
num_cat=0
split_feature=54 3 54 11 53 43 2 28 23 18 26
split_gain=6.91234 6.86745 11.863 8.88499 6.4728 6.27505 7.88663 7.87288 6.23699 6.16117 4.23336
threshold=35.478168000000004 37.342077500000009 58.340676000000009 219.74764050000002 24.616275500000004 67.670064000000011 99.308727000000019 0.42224850000000008 1.0785735000000003 10.813796000000002 220.61907500000004
decision_type=2 2 2 2 2 10 2 2 2 2 2
left_child=5 3 -3 4 -2 6 7 -1 -8 -5 -4
right_child=1 2 10 9 -6 -7 8 -9 -10 -11 -12
leaf_value=-0.00043148013746174564 0.00040711583535420681 0.00018840426047325308 -0.00062246006765209446 0.00089649427261646398 -2.8216231089776118e-05 0.00054556087560504642 -0.00033070779522791451 0.00025610399331353113 -0.0016784927062854314 0.00012431694281398223 -0.0016940894252034423
leaf_weight=76 21 21 22 28 80 31 21 21 22 24 21
leaf_count=76 21 21 22 28 80 31 21 21 22 24 21
internal_value=0 0.00875576 -0.01875 0.0202614 0.0029703 -0.0181287 -0.0271429 -0.0113402 -0.0627907 0.0538462 -0.0488372
internal_weight=0 217 64 153 101 171 140 97 43 52 43
internal_count=388 217 64 153 101 171 140 97 43 52 43
is_linear=0
shrinkage=0.1


Tree=103
num_leaves=11
num_cat=0
split_feature=22 21 30 12 36 11 53 16 28 12
split_gain=7.0782 9.01149 9.3814 7.94029 10.1728 10.7447 6.08311 7.76958 5.19505 5.33586
threshold=36.358949000000003 0.78054375000000009 98.204760000000007 40.763040000000011 1.6406170000000004 271.32779250000004 24.063707000000004 0.64778211000000008 0.41131650000000003 15.627395000000002
decision_type=2 2 2 8 2 2 2 10 2 10
left_child=3 6 -3 8 -5 -6 -2 -8 9 -1
right_child=1 2 -4 4 5 -7 7 -9 -10 -11
leaf_value=-0.00010443377193703695 -0.0021028082581620255 -0.00017461023893453078 0.00094119040675681362 0.002715817761340578 -0.00030962224777884498 0.00045675725591348693 0.00050415348409548356 -0.00060452025465310491 0.00023552647919809213 0.00023687140549495667
leaf_weight=20 22 33 25 33 103 20 40 54 20 27
leaf_count=20 22 33 25 33 103 20 40 54 20 27
internal_value=0 -0.0183908 0.0137931 0.00852018 -0.00384615 -0.0170732 -0.0344828 -0.0234043 0.0373134 0.0191489
internal_weight=0 174 58 223 156 123 116 94 67 47
internal_count=397 174 58 223 156 123 116 94 67 47
is_linear=0
shrinkage=0.1


Tree=104
num_leaves=9
num_cat=0
split_feature=22 35 40 53 26 18 34 18
split_gain=7.36832 6.7455 9.57279 8.39652 7.72874 7.36148 6.4639 6.04029
threshold=45.439968750000013 6.0184020000000009 24.650340000000003 25.695365500000005 578.25747500000011 10.381974000000001 26.889112000000004 10.505134500000002
decision_type=2 2 10 2 2 2 2 2
left_child=1 3 6 -1 -4 -5 -3 -2
right_child=7 2 4 5 -6 -7 -8 -9
leaf_value=-0.00051308981598277559 -0.0006868471990890291 0.00090744930881077053 -6.4809729452340175e-05 7.1652284636386669e-05 0.00024155434791322674 -0.00053129511146773032 6.0203290414283848e-05 0.00018812512155694716
leaf_weight=25 38 27 172 47 26 30 23 20
leaf_count=25 38 27 172 47 26 30 23 20
internal_value=0 0.004 0.0129032 -0.0176471 0.0030303 -0.0012987 0.052 -0.0344828
internal_weight=0 350 248 102 198 77 50 58
internal_count=408 350 248 102 198 77 50 58
is_linear=0
shrinkage=0.1


Tree=105
num_leaves=13
num_cat=0
split_feature=11 36 2 40 28 35 13 34 25 26 10 50
split_gain=7.0379 9.61822 10.8651 6.95457 9.0844 8.74904 6.6331 6.56268 6.40762 6.22222 4.95918 3.17539
threshold=169.21664100000001 3.1240250000000001 94.867137000000014 27.151839000000006 0.33205950000000006 6.2622480000000005 735.03818600000011 17.206606000000004 58.136950000000006 343.88990000000007 20.656350000000003 16.064554000000005
decision_type=2 2 2 10 2 2 2 2 2 2 2 2
left_child=3 7 6 5 -5 -1 -3 9 -9 -2 -4 -6
right_child=1 2 10 4 11 -7 -8 8 -10 -11 -12 -13
leaf_value=-0.0017490521552128891 -0.000700443001368279 9.3557708998525104e-05 6.0461326986426199e-05 -9.9839635019895612e-05 0.00027343161329345718 0.00029975352469441583 0.00024022623709315456 0.00021050028163121213 -0.00045099088058813091 4.1432508376714788e-05 -0.0017444418194594241 0.00086021274465163545
leaf_weight=20 42 35 21 28 27 23 34 70 30 21 28 23
leaf_count=20 42 35 21 28 27 23 34 70 30 21 28 23
internal_value=0 -0.00818505 0.0135593 0.0206612 0.0384615 -0.0116279 0.0391304 -0.0239264 -0.008 -0.0492063 -0.022449 0.064
internal_weight=0 281 118 121 78 43 69 163 100 63 49 50
internal_count=402 281 118 121 78 43 69 163 100 63 49 50
is_linear=0
shrinkage=0.1


Tree=106
num_leaves=10
num_cat=0
split_feature=36 42 11 46 22 0 49 32 40
split_gain=8.28625 10.6823 10.4693 12.4245 9.09091 7.54837 6.23152 7.76328 3.26635
threshold=3.2006140000000003 71.071974000000012 195.15084300000004 9.9647475000000032 34.948457500000011 0.58753750000000016 0.87710350000000015 0.12414600000000002 86.747661000000008
decision_type=2 2 2 2 2 2 10 10 10
left_child=1 6 3 4 -2 8 7 -1 -4
right_child=2 -3 5 -5 -6 -7 -8 -9 -10
leaf_value=4.4579937644638732e-05 -8.9855671517906059e-05 -0.00051161028102674172 0.00044410210773416386 -0.00078778153008653379 0.00032214332601014059 -0.00013803545881058347 0.0037142070798190175 -0.00055497339203747849 0.00012218043360876977
leaf_weight=99 22 31 33 37 22 20 22 98 24
leaf_count=99 22 31 33 37 22 20 22 98 24
internal_value=0 -0.0128 0.0164557 -0.00864198 0.0272727 0.0428571 -0.00502283 -0.0106599 0.0614035
internal_weight=0 250 158 81 44 77 219 197 57
internal_count=408 250 158 81 44 77 219 197 57
is_linear=0
shrinkage=0.1


Tree=107
num_leaves=8
num_cat=0
split_feature=53 48 14 30 29 50 15
split_gain=9.63671 9.82819 10.3061 8.44215 8.00924 7.05997 5.90278
threshold=44.144083500000008 1.3458900000000003 1119.2255660000003 99.633640000000014 94.452555000000004 23.696845000000003 62.462036000000005
decision_type=2 2 2 2 2 2 2
left_child=1 2 4 5 -1 -3 -5
right_child=-2 3 -4 6 -6 -7 -8
leaf_value=-0.00034906735263908292 0.00083313212269305363 -0.00052219239756003523 -0.00076210076398262655 -0.00035417849515608781 0.00017117751481927971 0.001965395025147706 -0.00092641497123290137
leaf_weight=48 39 39 20 32 164 20 36
leaf_count=48 39 39 20 32 164 20 36
internal_value=0 -0.00362117 0.00862069 -0.0259843 0.0150943 0.00169492 -0.05
internal_weight=0 359 232 127 212 59 68
internal_count=398 359 232 127 212 59 68
is_linear=0
shrinkage=0.1


Tree=108
num_leaves=11
num_cat=0
split_feature=26 25 46 25 42 21 30 0 25 20
split_gain=7.94839 7.20818 11.1616 7.174 7.09113 6.78179 8.53514 7.68979 6.6881 4.88526
threshold=593.42739250000011 42.214400000000005 9.5292205000000028 31.413450000000005 4.5829200000000005 0.77756250000000005 103.71570000000001 0.33115750000000005 53.675920000000005 1.1998025000000003
decision_type=2 2 2 2 2 2 2 2 2 2
left_child=1 2 3 -1 -2 7 -7 -3 -6 -4
right_child=4 5 9 -5 8 6 -8 -9 -10 -11
leaf_value=0.00024337397990490417 0.00024277473608293258 -0.00064180496814997571 -0.0019208480826675195 0.0021189148669369696 -0.00028674133744203311 -0.00029369773594042334 0.00010570485864828269 -0.00028339724743791744 0.00028733185229600508 0.00020814890335592447
leaf_weight=36 22 43 34 23 20 53 39 74 28 21
leaf_count=36 22 43 34 23 20 53 39 74 28 21
internal_value=0 -0.0114551 0.00877193 0.0389831 0.0257143 -0.022488 -0.00217391 -0.0384615 0.00416667 -0.0236364
internal_weight=0 323 114 59 70 209 92 117 48 55
internal_count=393 323 114 59 70 209 92 117 48 55
is_linear=0
shrinkage=0.1


Tree=109
num_leaves=8
num_cat=0
split_feature=41 37 28 48 12 36 7
split_gain=8.73383 9.79815 8.68327 9.63163 8.04719 11.9134 6.24865
threshold=117.85996950000002 2436.8474000000001 0.34572450000000005 1.4813200000000002 40.763040000000011 1.9731745000000003 6.8171885000000012
decision_type=2 2 2 2 8 2 2
left_child=1 4 -2 -4 5 -1 -6
right_child=2 -3 3 -5 6 -7 -8
leaf_value=-0.00030871151064047389 -0.00043607674807193462 0.00062024440649495081 0.00019150766648239761 -0.00049944813575430774 0.00051634380759906862 0.00029315681568881688 -0.00013251228720861442
leaf_weight=29 34 26 39 22 37 64 148
leaf_count=29 34 26 39 22 37 64 148
internal_value=0 0.0105263 -0.0242105 -0.00163934 0.00503597 0.0290323 -0.00702703
internal_weight=0 304 95 61 278 93 185
internal_count=399 304 95 61 278 93 185
is_linear=0
shrinkage=0.1


Tree=110
num_leaves=9
num_cat=0
split_feature=41 30 17 27 23 41 32 5
split_gain=7.94008 9.07225 7.98684 6.07754 5.91652 8.34802 5.45248 4.9
threshold=117.85996950000002 104.40417000000001 49.978112000000003 0.45945900000000001 0.92961450000000012 105.83807650000001 0.010345500000000002 5.2356690000000006
decision_type=2 2 2 2 2 2 10 2
left_child=2 3 -1 -2 6 -6 -4 -3
right_child=1 7 4 -5 5 -7 -8 -9
leaf_value=-0.00067048074249297335 -0.0006134547655827164 0.00014306262287142759 0.0064157042537355546 -6.2499643394018983e-05 -1.4150707420819266e-05 0.00051556271673756893 0.00021921510601147134 -0.00026913088720841678
leaf_weight=22 26 20 20 23 221 21 27 20
leaf_count=22 26 20 20 23 221 21 27 20
internal_value=0 -0.0303371 0.00353698 -0.0591837 0.00795848 0.00165289 0.0404255 0.005
internal_weight=0 89 311 49 289 242 47 40
internal_count=400 89 311 49 289 242 47 40
is_linear=0
shrinkage=0.1


Tree=111
num_leaves=11
num_cat=0
split_feature=35 52 5 3 36 31 13 44 1 7
split_gain=8.82664 10.0515 8.17558 8.55706 7.11169 7.97922 6.4506 8.39683 7.7354 6.23077
threshold=6.1067520000000011 19996.452870000005 6.4537815000000007 13.792489500000002 1.7736400000000001 27.548488000000003 810.23330500000009 4.7733480000000013 3868.7517550000007 10.332129
decision_type=2 2 2 2 2 2 2 2 2 2
left_child=2 6 3 -1 -3 -6 7 -2 -8 -5
right_child=1 4 -4 9 5 -7 8 -9 -10 -11
leaf_value=-0.00040980678209410023 0.00023370288137735713 -0.00046380958446601972 -0.0021461384718238236 0.00020422167916081072 -0.00020890676314913668 0.00015537787711845832 0.00045053885313185336 -0.00078973740105262545 0.00010087665805893205 -2.0196356065917488e-05
leaf_weight=31 84 22 22 26 28 27 53 42 32 26
leaf_count=31 84 22 22 26 28 27 53 42 32 26
internal_value=0 0.00625 -0.027619 -0.013253 -0.0246753 -0.00545455 0.0175355 0.0031746 0.0388235 0.0115385
internal_weight=0 288 105 83 77 55 211 126 85 52
internal_count=393 288 105 83 77 55 211 126 85 52
is_linear=0
shrinkage=0.1


Tree=112
num_leaves=10
num_cat=0
split_feature=3 7 28 12 1 28 23 6 15
split_gain=9.2203 6.89345 7.97528 6.32836 11.4234 11.8421 8.27423 6.40554 3.88658
threshold=39.266863000000008 9.0244640000000018 0.33479250000000005 30.956517500000004 2672.2069550000001 0.38398650000000006 1.6413075000000001 0.038823750000000004 34.038868500000007
decision_type=2 2 2 8 2 2 2 2 2
left_child=3 -2 -3 7 5 -5 -6 8 -1
right_child=1 2 -4 4 6 -7 -8 -9 -10
