tree
version=v4
num_class=1
num_tree_per_iteration=1
label_index=0
max_feature_idx=55
objective=regression_l1
feature_names=AB AF AH AM AR AX AY AZ BC BD_ BN BP BQ BR BZ CB CC CD_ CF CH CL CR CS CU CW_ DA DE DF DH DI DL DN DU DV DY EB EE EG EH EJ EL EP EU FC FD_ FE FI FL FR FS GB GE GF GH GI GL
feature_infos=[0.085459999999999994:4.4353740000000004] [192.59327999999999:18720.829600000001] [85.200147000000001:1817.6205540000001] [3.1775220000000002:630.51823000000002] [8.1386880000000001:178.943634] [0.69986099999999996:38.270879999999998] [0.025578:10.315851] [3.3967779999999999:38.971567999999998] [1.2299:1463.693448] [1693.6243199999999:53060.599240000003] [9.8867999999999991:29.307300000000001] [72.948950999999994:2447.8105500000001] [1.3311550000000001:344.64410500000002] [51.216883000000003:179250.25289999999] [257.43237699999997:50092.459300000002] [12.49976:2271.4361669999998] [0.18911412:4.1030315999999996] [23.387599999999999:485.16981600000003] [0.51088800000000001:200.96752599999999] [0.0031840000000000002:0.17910000000000001] [1.050225:24.842594999999999] [0.069224999999999995:3.0396749999999999] [13.784110999999999:267.94282349999997] [0.13792499999999999:4.9515075] [7.03064:64.521624000000003] [6.9063999999999997:210.33091999999999] [35.998894999999997:2103.4051899999999] [0.23868:37.895012999999999] [0.043728000000000003:1.0604039999999999] [60.232469999999999:1049.1680779999999] [10.345599999999999:326.2362] [6.6670480000000003:61.197631999999999] [0.0055176000000000001:136.13298599999999] [1.7430699999999999:25.19293] [0.804068:152.355164] [4.9263960000000004:90.791994000000003] [0.28620099999999998:18.324926000000001] [185.5941:30243.75878] [0.003042:10.239371999999999] -1:1:0 [6.912477:109.125159] [78.526967999999997:1063.594578] [3.8283839999999998:6501.2644799999998] [7.5341279999999999:3030.6558239999999] [0.29685:160.51866899999999] [1563.136688:143224.68229999999] [3.58345:35.851039] [0.17322899999999999:110.34231579999999] [0.49706:1244.22702] [0.067729999999999999:31.365763000000001] [4.102182:135.781294] [72.611063000000001:1497.351958] [13.038894000000001:143790.07120000001] [9.4327349999999992:81.210825] [2.0910359999999999:191.19476399999999] [0.0011292780000000001:21.978000000000002]
tree_sizes=645 605 552 590 774 596 840 748 673 809 735 678 754 636 665 949 817 823 903 1234 1059 649 976 992 910 993 908 981 899 740 893 1154 734 571 1235 901 1070 817 816 973 987 903 735 900 738 1055 656 814 744 818 814 988 741 820 987 736 818 994 652 891 1068 817 909 825 1062 897 1148 977 908 580 1068 992 1147 902 989 813 826 985 990 654 571 1064 996 895 1057 804 910 912 821 816 737 894 569 821 743 817 1148 738 1158 895 660 894 820 910 1075 832 900 808 897 746 742 662 992 819 1145 656 1080 978 981 821 994 992 661 739 657 730 747 905 898 991 992 913 986 656 1059 1063 994 987 828 989 1141 1072 1071 824 662 1075 988 825 661 911 729 988 974 579 1154 1075 659 659 742 1082 1060 910 654 650 904 1078 979 1076 824 733 744 985 747 821 824 1075 899 653 828 970 659 657 739 827 903 1058 816 909 991 891 740 805 734 662 659 1076 1071 819 655 1067 902 734 820 737 1079 818 890 651 569 1149 817 812 898 737 904 745 1156 655 739 814 663 739 822 824 890 737 733 834 908 989 903 651 648 733 992 1165 827 727 982 894 814 984 1240 901 832 1150 730 734 898 1072 899 1072 911 662 575 819 729 970 821 741 991 1066 911 834 649 900 734 1246 566 1069 979 995 991 907 658 987 905 656 1075 891 1137 825 1059 827 738 739 657 895 820 649 906 657 827 1158 659 1079 574 1073 808 988 647 823 983 827 1151 1236 664 898 823 900 740 908 899 907 572 659 985 825 576 649 988 742 829 905 906 1165 740 995 830 1324 907 744 1068 914 815 994 1058 988 904 828 740 894 990 905 968 907 742 733 739 826 648 806 656 1151 986 822 742 1157 991 904 989 896 824 997 829 906 1330 648 992 1155 1160 987 980 743 823 986 736 747 739 983 980 995 1075 982 829 994 826 655 742 988 822 825 824 822 1149 811 743 906 1212 1058 656 832 902 910 986 984 1148 1070 909 898 1082 1064 1078 1083 1153 1078 905 819 891 986 1145 909 820 989 653 994 1068 982 912 816 1072 902 819 742 661 987 903 742 575 720 820 742 652 978 1073 1078 1077 987 823 987 1064 907 985 814 1076 978 894 905 737 901 1155 731 824 1248 742 986 991 655 1062 825 1080 661 981

Tree=0
num_leaves=7
num_cat=0
split_feature=32 21 37 48 43 12
split_gain=17.4839 5.71895 3.85376 1.70536 1.28333 0.710001
threshold=2.2898040000000006 0.45686250000000006 1905.9183750000004 2.0242000000000004 31.750152000000003 135.63974500000003
decision_type=10 2 2 2 2 10
left_child=1 -1 4 5 -2 -3
right_child=2 3 -4 -5 -6 -7
leaf_value=0.10000000000000001 0.10000000000000001 0 0 0 0.10000000000000001 0
leaf_weight=30 22 240 20 23 20 43
leaf_count=30 22 240 20 23 20 43
internal_value=0 0.00833333 0.066129 0.00424837 0.0833333 0.00212014
internal_weight=0 336 62 306 42 283
internal_count=398 336 62 306 42 283
is_linear=0
shrinkage=0.1


Tree=1
num_leaves=6
num_cat=0
split_feature=32 25 21 22 12
split_gain=14.1875 8.15824 6.68516 4.24377 1.17762
threshold=2.8691520000000001 27.794380000000004 0.46552500000000002 40.214699250000002 76.557042500000009
decision_type=10 2 2 2 10
left_child=1 -1 -3 -2 -4
right_child=3 2 4 -5 -6
leaf_value=0.090000000000000011 0.090000000000000011 -0.010000000000000002 0 0.090000000000000011 0
leaf_weight=36 27 23 193 23 90
leaf_count=36 27 23 193 23 90
internal_value=0 0.00497076 -0.000326797 0.062 0.00388693
internal_weight=0 342 306 50 283
internal_count=392 342 306 50 283
is_linear=0
shrinkage=0.1


Tree=2
num_leaves=5
num_cat=0
split_feature=55 29 25 21
split_gain=9.70574 6.00507 5.03598 5.07149
threshold=0.055068563000000008 227.93686500000004 28.263860000000005 0.45686250000000006
decision_type=8 2 2 2
left_child=-1 2 -2 -4
right_child=1 -3 3 -5
leaf_value=0.081000000000000016 -0.0090000000000000011 0.081000000000000016 -0.0089999999999999993 0
leaf_weight=36 29 23 20 294
leaf_count=36 29 23 20 294
internal_value=0 -0.00163934 -0.00495627 -0.00127389
internal_weight=0 366 343 314
internal_count=402 366 343 314
is_linear=0
shrinkage=0.1


Tree=3
num_leaves=6
num_cat=0
split_feature=32 8 51 12 29
split_gain=10.5701 8.69218 5.46828 4.02243 3.01683
threshold=5.3072415000000008 11.675265000000001 194.80184675000001 115.94334000000002 175.63913250000004
decision_type=10 2 2 10 2
left_child=1 2 3 -1 -4
right_child=-2 -3 4 -5 -6
leaf_value=0 0.081000000000000016 0.082900000000000001 0 0 -0.0081000000000000013
leaf_weight=221 29 20 33 71 21
leaf_count=221 29 20 33 71 21
internal_value=0 -0.00409836 -0.00780347 -0.00239726 -0.037037
internal_weight=0 366 346 292 54
internal_count=395 366 346 292 54
is_linear=0
shrinkage=0.1


Tree=4
num_leaves=9
num_cat=0
split_feature=1 32 21 26 16 45 6 1
split_gain=6.57394 7.55777 5.33824 3.97753 7.51776 3.69231 2.45314 2.42719
threshold=2688.3223400000002 2.8691520000000001 0.50055000000000016 286.48104250000006 0.56551401000000012 4191.1737195000014 0.038519250000000005 2319.6776900000004
decision_type=2 10 2 2 10 2 2 2
left_child=2 3 -1 4 -2 -4 -5 -7
right_child=1 -3 5 6 -6 7 -8 -9
leaf_value=-0.0081000000000000013 0.072900000000000006 0.072900000000000006 0 0 0 0 0 0
leaf_weight=20 22 34 20 86 72 97 22 33
leaf_count=20 22 34 20 86 72 97 22 33
internal_value=0 0.00932203 -0.0164706 0.0019802 0.0170213 -0.01 -0.0111111 -0.00384615
internal_weight=0 236 170 202 94 150 108 130
internal_count=406 236 170 202 94 150 108 130
is_linear=0
shrinkage=0.1


Tree=5
num_leaves=6
num_cat=0
split_feature=32 46 55 53 17
split_gain=7.87994 12.1284 10.6474 5.14288 3.99396
threshold=1.6725225000000001 9.4933860000000028 0.078351675000000023 18.720351000000004 88.103864000000016
decision_type=10 2 8 2 2
left_child=2 -2 -1 -4 -5
right_child=1 -3 3 4 -6
leaf_value=-0.0081000000000000013 0.065609999999999988 0 -0.0072900000000000013 0 0
leaf_weight=20 28 39 21 178 102
leaf_count=20 28 39 21 178 102
internal_value=0 0.0283582 -0.00934579 -0.00465116 -0.00107143
internal_weight=0 67 321 301 280
internal_count=388 67 321 301 280
is_linear=0
shrinkage=0.1


Tree=6
num_leaves=10
num_cat=0
split_feature=1 47 55 0 38 9 19 19 37
split_gain=10.5708 10.7875 8.7358 7.7369 7.58333 3.30004 2.42755 2.10493 2.0964
threshold=2781.8734900000004 9.065583976500001 0.10178344350000001 0.53198850000000009 0.10038600000000002 5032.2218500000008 0.024079000000000003 0.027263000000000006 1215.8901875000001
decision_type=2 10 10 2 2 2 2 2 2
left_child=2 3 -1 5 -5 -2 8 -8 -4
right_child=1 -3 6 4 -6 -7 7 -9 -10
leaf_value=-0.0072900000000000022 0 0.059048999999999997 0 0.074609999999999996 0 0 0 0 0
leaf_weight=26 60 38 21 28 26 67 27 76 20
leaf_count=26 60 38 21 28 26 67 27 76 20
internal_value=0 0.0173516 -0.0158824 0.00718232 0.0388889 -0.00629921 -0.00625 0.00194175 -0.0268293
internal_weight=0 219 170 181 54 127 144 103 41
internal_count=389 219 170 181 54 127 144 103 41
is_linear=0
shrinkage=0.1


Tree=7
num_leaves=8
num_cat=0
split_feature=32 5 36 25 55 46 29
split_gain=14.4555 8.20676 7.83688 9.38777 7.14353 5.05351 1.14841
threshold=2.8691520000000001 5.3818425000000003 1.5932527500000002 38.855290000000004 0.08376739150000001 6.9918622500000014 127.83492750000002
decision_type=10 2 2 2 10 2 2
left_child=2 -2 3 -1 -4 -6 -5
right_child=1 -3 4 6 5 -7 -8
leaf_value=0.062522049999999996 0.059705100000000004 0.051605099999999994 -0.0065610000000000017 0 -0.0065610000000000009 0 0
leaf_weight=29 28 26 26 21 21 223 29
leaf_count=29 28 26 26 21 21 223 29
internal_value=0 0.0481481 -0.00744986 0.0202532 -0.0155556 -0.0102459 -0.006
internal_weight=0 54 349 79 270 244 50
internal_count=403 54 349 79 270 244 50
is_linear=0
shrinkage=0.1


Tree=8
num_leaves=7
num_cat=0
split_feature=32 30 55 43 36 8
split_gain=11.713 10.0949 7.53788 6.23077 5.34019 2.21198
threshold=2.8691520000000001 115.44566000000002 0.081071428500000015 35.805672000000008 1.2516255000000003 2.5564350000000005
decision_type=10 2 10 2 2 2
left_child=1 2 -1 -2 -4 -3
right_child=3 5 4 -5 -6 -7
leaf_value=-0.0059049000000000011 0.052349489999999999 0 0 0.047173590000000001 0 -0.0070110000000000007
leaf_weight=28 26 35 44 26 217 27
leaf_count=28 26 35 44 26 217 27
internal_value=0 -0.00854701 -0.000692042 0.0423077 0.0045977 -0.0451613
internal_weight=0 351 289 52 261 62
internal_count=403 351 289 52 261 62
is_linear=0
shrinkage=0.1


Tree=9
num_leaves=9
num_cat=0
split_feature=32 8 25 25 0 17 16 1
split_gain=12.4037 8.07086 10.0413 7.02579 6.85801 5.39346 4.19255 3.69875
threshold=3.6105795000000005 4.209772000000001 35.631980000000006 39.092940000000006 0.48071250000000004 63.852112000000012 0.6353707500000001 4987.9267350000009
decision_type=10 2 2 2 2 2 10 2
left_child=1 3 -3 6 -2 -4 -1 -5
right_child=4 2 5 7 -6 -7 -8 -9
leaf_value=0 0.049017230999999994 0.063506795000000005 -0.0052038000000000006 0 0.033838641000000003 0 -0.0052487999999999996 0
leaf_weight=21 22 24 22 159 20 58 48 20
leaf_count=21 22 24 22 159 20 58 48 20
internal_value=0 -0.00511364 0.0182692 -0.0149194 0.052381 0.00125 -0.042029 -0.00446927
internal_weight=0 352 104 248 42 80 69 179
internal_count=394 352 104 248 42 80 69 179
is_linear=0
shrinkage=0.1


Tree=10
num_leaves=8
num_cat=0
split_feature=12 51 55 47 26 0 0
split_gain=9.23096 11.3236 10.1448 5.28671 4.42605 5.56481 5.24717
threshold=115.94334000000002 98.785100750000012 0.083371988000000022 5.8426497270000004 168.06654250000003 0.34718125000000005 0.73281950000000007
decision_type=10 2 10 10 2 2 2
left_child=2 3 -1 -2 5 -4 -6
right_child=1 -3 4 -5 6 -7 -8
leaf_value=-0.0054044100000000001 0 0 0 0.048364507899999999 0 0.039454776900000002 -0.0064655099999999998
leaf_weight=34 36 38 28 28 189 22 23
leaf_count=34 36 38 28 28 189 22 23
internal_value=0 0.027451 -0.00743243 0.053125 -0.000763359 0.026 -0.00707547
internal_weight=0 102 296 64 262 50 212
internal_count=398 102 296 64 262 50 212
is_linear=0
shrinkage=0.1


Tree=11
num_leaves=7
num_cat=0
split_feature=12 55 48 47 36 55
split_gain=16.4976 11.1912 7.9459 7.35914 4.37575 2.98368
threshold=5.7205800000000009 0.055068563000000008 1.7004150000000002 5.8426497270000004 2.6705375000000005 0.11523667700000001
decision_type=10 10 2 10 2 10
left_child=5 -2 3 -3 -4 -1
right_child=1 2 4 -5 -6 -7
leaf_value=-0.004773969000000002 0.036702153899999999 0 0.00081000000000000017 -0.0048129903950000011 0 0
leaf_weight=22 23 218 38 55 23 30
leaf_count=22 23 218 38 55 23 30
internal_value=0 0.00644258 0.00179641 -0.00549451 0.0344262 -0.0538462
internal_weight=0 357 334 273 61 52
internal_count=409 357 334 273 61 52
is_linear=0
shrinkage=0.1


Tree=12
num_leaves=8
num_cat=0
split_feature=12 25 0 44 54 19 3
split_gain=11.0894 10.2298 8.57684 11.9554 7.15556 5.64012 1.6
threshold=5.7205800000000009 34.177950000000003 0.78836850000000014 7.8457455000000005 69.171368000000015 0.024775500000000002 38.053613250000005
decision_type=10 2 2 2 2 2 2
left_child=5 4 3 -3 6 -1 -2
right_child=1 2 -4 -5 -6 -7 -8
leaf_value=-0.0044841321000000005 0.038975718819999998 0 -0.0065382994802500012 0.030489697615000002 0.00026244000000000001 0 0.046275115499999998
leaf_weight=23 20 227 25 39 23 31 20
leaf_count=23 20 227 25 39 23 31 20
internal_value=0 0.0079096 0 0.00526316 0.0444444 -0.0407407 0.07
internal_weight=0 354 291 266 63 54 40
internal_count=408 354 291 266 63 54 40
is_linear=0
shrinkage=0.1


Tree=13
num_leaves=6
num_cat=0
split_feature=32 37 44 55 52
split_gain=14.8124 12.0104 9.38191 9.13217 7.32041
threshold=2.8691520000000001 1878.9173375000003 6.8720775000000005 0.081071428500000015 905.39613000000008
decision_type=10 2 2 10 2
left_child=2 -2 3 -1 -5
right_child=1 -3 -4 4 -6
leaf_value=-0.0043865720999999996 0.035771857429250008 -0.018357489000000001 -0.0033726918820000001 0.00065610000000000017 0
leaf_weight=28 35 20 22 21 269
leaf_count=28 35 20 22 21 269
internal_value=0 0.0418182 -0.0141176 -0.00974843 -0.00448276
internal_weight=0 55 340 318 290
internal_count=395 55 340 318 290
is_linear=0
shrinkage=0.1


Tree=14
num_leaves=7
num_cat=0
split_feature=32 18 46 36 12 29
split_gain=11.0803 12.4214 9.66795 13.0739 6.83743 2.86255
threshold=5.3072415000000008 4.289330500000001 11.078373500000001 2.3561195000000006 1.0000000180025095e-35 128.53239375000001
decision_type=10 2 2 2 10 2
left_child=1 5 4 -4 -3 -1
right_child=-2 2 3 -5 -6 -7
leaf_value=-0.0038650496849999996 0.030285076115074999 -0.00276806448 0 -0.0033910967810000005 0 0
leaf_weight=27 27 26 31 59 176 28
leaf_count=27 27 26 31 59 176 28
internal_value=0 -0.010951 -0.00273973 -0.03 0.00940594 -0.0545455
internal_weight=0 347 292 90 202 55
internal_count=374 347 292 90 202 55
is_linear=0
shrinkage=0.1


Tree=15
num_leaves=10
num_cat=0
split_feature=12 55 51 32 34 53 18 47 23
split_gain=9.47658 16.7253 12.4322 8.64961 8.43699 8.43411 12.6483 7.39628 3.57842
threshold=68.89573750000001 0.08376739150000001 85.143196250000003 2.2898040000000006 13.893756000000002 25.833972750000004 2.8623412500000005 4.960972409500001 1.2606345000000003
decision_type=10 10 2 10 2 2 2 10 2
left_child=1 -1 3 7 -4 8 -7 -2 -3
right_child=2 5 4 -5 -6 6 -8 -9 -10
leaf_value=-0.0037885989912500003 0.00033818943315000005 0 -0.0050686643228500007 0.033915265816280002 0 -0.0028232367007499999 0.00027515306305000005 -0.0018943077178499995 -0.0031105595115000001
leaf_weight=29 57 21 23 27 36 21 123 21 32
leaf_count=29 57 21 23 27 36 21 123 21 32
internal_value=0 -0.00840708 0.0231707 0.0438095 -0.0135593 0.00203046 0.0145833 0.0269231 -0.0320755
internal_weight=0 226 164 105 59 197 144 78 53
internal_count=390 226 164 105 59 197 144 78 53
is_linear=0
shrinkage=0.1


Tree=16
num_leaves=8
num_cat=0
split_feature=32 30 9 8 43 16 50
split_gain=13.5572 10.2321 9.85006 11.0211 7.50436 7.18854 4.67219
threshold=2.6829330000000007 75.57959000000001 3181.5221200000005 7.9908360000000007 35.805672000000008 0.57600675000000001 17.259861000000004
decision_type=10 2 2 2 2 10 2
left_child=1 5 -3 -4 -2 -1 -7
right_child=4 2 3 -5 -6 6 -8
leaf_value=0.0014039709338375004 0.029489686403943241 -0.0051989272311250001 -2.7515306305000007e-05 0.0011881818665975003 0.032487009827262492 0.00031105595115000004 -2.7515306305000007e-05
leaf_weight=23 27 21 212 29 24 20 23
leaf_count=23 27 21 212 29 24 20 23
internal_value=0 -0.00640244 -0.0152672 -0.00954357 0.0490196 0.0287879 0.00465116
internal_weight=0 328 262 241 51 66 43
internal_count=379 328 262 241 51 66 43
is_linear=0
shrinkage=0.1


Tree=17
num_leaves=8
num_cat=0
split_feature=28 11 24 32 12 38 50
split_gain=12.0939 11.0734 10.4777 8.51025 9.91546 6.29002 5.59189
threshold=0.22547250000000005 192.81939300000002 18.271016000000003 0.90350700000000017 104.28205750000002 0.16122600000000001 21.713193500000003
decision_type=2 2 2 10 8 2 2
left_child=-1 3 6 4 -2 -4 -3
right_child=1 2 5 -5 -6 -7 -8
leaf_value=0.016590842829713248 -2.4763775674500007e-05 -0.0013599239924145005 0.0003143459024255001 0.00035316599858000017 2.7515306305000008e-06 0.00021874535365837494 0.00023892569292037502
leaf_weight=32 82 21 75 36 46 57 37
leaf_count=32 82 21 75 36 46 57 37
internal_value=0 -0.00169492 0.0147368 -0.0207317 -0.0328125 0.030303 -0.0206897
internal_weight=0 354 190 164 128 132 58
internal_count=386 354 190 164 128 132 58
is_linear=0
shrinkage=0.1


Tree=18
num_leaves=9
num_cat=0
split_feature=32 40 15 46 25 31 25 41
split_gain=11.2212 9.46789 11.8416 13.6608 8.47958 6.6983 5.50356 3.61966
threshold=2.8691520000000001 32.327938500000009 19.705504000000001 9.978530000000001 49.025740000000006 23.194776000000001 63.238180000000007 83.947015750000006
decision_type=10 10 10 2 2 2 2 2
left_child=1 4 -3 -4 7 -2 -6 -1
right_child=5 2 3 -5 6 -7 -8 -9
leaf_value=-0.002701523966781551 0.030122291578770489 0.00067405654677294997 -5.9350184422050012e-05 0.00022975672048270004 0.00025176751926245 0.013052677094990979 -4.8271128620300011e-05 -0.0027348675323575502
leaf_weight=39 23 34 103 91 32 29 23 24
leaf_count=39 23 34 103 91 32 29 23 24
internal_value=0 -0.00751445 0.00438596 -0.00515464 -0.0305085 0.0423077 -0.00181818 -0.0555556
internal_weight=0 346 228 194 118 52 55 63
internal_count=398 346 228 194 118 52 55 63
is_linear=0
shrinkage=0.1


Tree=19
num_leaves=13
num_cat=0
split_feature=11 15 12 37 53 25 10 54 50 5 29 5
split_gain=15.2026 12.5354 11.7359 11.4793 9.6705 8.80306 7.55214 6.9486 6.52323 5.6018 5.50476 0.951452
threshold=192.81939300000002 34.650070000000007 21.971221250000003 1599.9056125000004 33.382951500000004 40.569280000000006 18.537750000000006 42.325475000000004 25.203769000000005 5.8159335000000008 164.01469500000005 4.8325845000000003
decision_type=2 10 8 2 2 2 2 2 2 2 2 2
left_child=1 2 -1 5 8 -2 -4 11 -5 -7 -9 -3
right_child=3 7 6 4 -6 9 -8 10 -10 -11 -12 -13
leaf_value=-0.0018857172053288946 -4.3720189292595001e-05 -0.00097656113915730734 0.00065583692984468012 -0.0032403792231516073 0.000342243298224905 0.00071948672186504894 0.00024786499857110507 0.00026077239762218002 0.00021614131065815511 0.00021950039773572995 -0.0041393505845573209 -0.0010334943304776696
leaf_weight=30 27 21 20 38 36 43 52 35 29 28 21 20
leaf_count=30 27 21 20 38 36 43 52 35 29 28 21 20
internal_value=0 -0.018593 0.00588235 0.020398 -0.00291262 0.044898 0.0277778 -0.0443299 -0.0253731 0.0633803 -0.0214286 -0.0756098
internal_weight=0 199 102 201 103 98 72 97 67 71 56 41
internal_count=400 199 102 201 103 98 72 97 67 71 56 41
is_linear=0
shrinkage=0.1


Tree=20
num_leaves=11
num_cat=0
split_feature=51 50 10 11 8 8 13 12 0 16
split_gain=16.5232 11.6257 9.60214 12.7969 8.95382 7.61771 9.7809 7.60799 10.4214 7.4032
threshold=131.21361050000004 24.343334000000002 24.187350000000006 192.81939300000002 5.3518220000000012 2.1101570000000005 588.87468675000002 61.600435000000004 0.5960835000000001 0.71672391000000013
decision_type=2 2 2 2 2 2 2 10 2 10
left_child=1 7 3 -3 5 6 -2 8 -1 -9
right_child=4 2 -4 -5 -6 -7 -8 9 -10 -11
leaf_value=0.00019929770042066578 0.00020162094753746197 -0.002219004353256455 -0.0055890067292723358 0.00027423579986485209 0.013910357807350379 -0.0048949511062350379 -0.0055072728398863433 0.0004943976366188575 -0.0050445740555793567 7.1830092677461051e-05
leaf_weight=89 30 30 20 38 21 26 27 67 24 27
leaf_count=89 30 30 20 38 21 26 27 67 24 27
internal_value=0 0.0213559 -0.00909091 0.00882353 -0.025 -0.039759 -0.0192982 0.0342995 0.0168142 0.0553191
internal_weight=0 295 88 68 104 83 57 207 113 94
internal_count=399 295 88 68 104 83 57 207 113 94
is_linear=0
shrinkage=0.1


Tree=21
num_leaves=6
num_cat=0
split_feature=34 19 24 37 42
split_gain=15.6566 10.6109 10.6177 10.2667 7.70667
threshold=7.202922 0.047561000000000006 21.729158000000002 1386.3690690000001 49.151184000000008
decision_type=2 2 2 2 2
left_child=-1 2 4 -4 -2
right_child=1 -3 3 -5 -6
leaf_value=-0.0050301060563451017 4.4172061825065477e-05 -0.0032909715122985241 0.00034874221825834556 0.00017898484566691936 -0.0031364930966089437
leaf_weight=24 100 21 96 135 20
leaf_count=24 100 21 96 135 20
internal_value=0 0.0166667 0.0207977 0.0333333 -0.00333333
internal_weight=0 372 351 231 120
internal_count=396 372 351 231 120
is_linear=0
shrinkage=0.1


Tree=22
num_leaves=10
num_cat=0
split_feature=53 5 18 54 36 50 48 15 11
split_gain=13.9279 12.0655 8.10701 9.19515 8.02589 7.8953 7.55954 6.75568 4.94002
threshold=24.588368000000003 6.3120375000000015 3.7054585000000002 81.187752000000017 1.0924010000000004 20.831829000000003 0.97904000000000013 41.083770000000008 201.30163200000001
decision_type=2 2 2 2 2 2 2 10 2
left_child=1 6 5 4 -4 -2 -1 -5 -8
right_child=2 -3 3 7 -6 -7 8 -9 -10
leaf_value=0.00024239501369586032 -0.0033536872525111805 -0.0065898599186737829 0.0248664951650873 0.00064272323728127513 0.00021516603729675139 0.0004530490889642005 -0.0024044735416026818 -0.0034825987773766873 0.0004707304461113603
leaf_weight=20 23 20 20 27 186 22 23 23 24
leaf_count=20 23 20 20 27 186 22 23 23 24
internal_value=0 -0.0218391 0.023588 0.0304688 0.0398058 -0.0155556 -0.00149254 -0.008 -0.0234043
internal_weight=0 87 301 256 206 45 67 50 47
internal_count=388 87 301 256 206 45 67 50 47
is_linear=0
shrinkage=0.1


Tree=23
num_leaves=10
num_cat=0
split_feature=48 12 48 19 55 15 19 36 26
split_gain=12.6888 10.6558 9.61184 9.42058 8.64468 8.33564 7.69579 4.34683 1.8087
threshold=0.60204000000000013 16.009027500000006 1.8165600000000002 0.021989500000000006 0.12113994750000003 24.305599500000003 0.030447000000000005 2.6523980000000003 254.41821000000002
decision_type=2 10 2 2 10 10 2 2 2
left_child=3 4 5 -1 -2 -3 8 -4 -5
right_child=1 2 7 6 -6 -7 -8 -9 -10
leaf_value=-0.00029666608023858987 -0.0032467770453293411 0.00033349322606012551 0.02303544180982562 0.00075196942484503319 -0.00020321192414316186 -0.0010778598956162973 0.00014003864219607387 7.0397781532358208e-05 0.00056122525405222971
leaf_weight=29 22 41 25 20 28 145 32 21 26
leaf_count=29 22 41 25 20 28 145 32 21 26
internal_value=0 -0.00212766 0.00689655 0.0383178 -0.044 -0.00322581 0.0564103 0.0478261 0.0826087
internal_weight=0 282 232 107 50 186 78 46 46
internal_count=389 282 232 107 50 186 78 46 46
is_linear=0
shrinkage=0.1


Tree=24
num_leaves=9
num_cat=0
split_feature=19 48 22 16 24 45 49 21
split_gain=10.2447 10.3651 11.8618 10.1951 8.64479 7.72162 6.79744 3.26523
threshold=0.047561000000000006 0.99049500000000013 35.522940750000011 0.65633022000000008 37.498050000000006 5067.5803260000002 0.17271150000000005 0.77988750000000007
decision_type=2 2 2 8 2 2 10 2
left_child=1 2 4 5 -1 -3 -5 -4
right_child=-2 3 7 6 -6 -7 -8 -9
leaf_value=-8.0483761042434823e-05 -0.0047611533997961317 0.00070411302366740053 0.00062616497756657892 0.00010223632708871375 0.00047797687582733038 0.00014222477102127594 -0.0023011095093914131 0.00064711321451693476
leaf_weight=58 25 23 37 46 25 83 65 22
leaf_count=58 25 23 37 46 25 83 65 22
internal_value=0 0.0142061 0.0352113 0.000460829 0.0108434 0.0226415 -0.0207207 0.0694915
internal_weight=0 359 142 217 83 106 111 59
internal_count=384 359 142 217 83 106 111 59
is_linear=0
shrinkage=0.1


Tree=25
num_leaves=10
num_cat=0
split_feature=44 35 48 12 37 49 35 36 42
split_gain=9.84115 10.8664 9.96804 8.57942 7.6588 7.46667 6.24813 8.03091 2.45098
threshold=2.2234065000000003 5.5925550000000008 0.7782150000000001 16.390660000000004 1113.0856125000003 0.15239250000000001 11.169207000000002 3.8032485000000005 49.090416000000012
decision_type=2 2 2 10 2 8 2 2 2
left_child=2 -2 3 -1 -3 -6 7 -4 -5
right_child=1 4 6 8 5 -7 -8 -9 -10
leaf_value=3.3626367609074603e-05 -0.0018265116663806241 0.0054476940375446101 0.00036783086312714797 0.00043506649935229504 0.00061660073525738018 -0.0012853523416577993 -0.0022145318007259526 -0.00019293413152987406 0.0005131511047512502
leaf_weight=29 27 21 79 34 35 105 29 23 20
leaf_count=29 27 21 79 34 35 105 29 23 20
internal_value=0 -0.00425532 0.0271028 0.0542169 0.00559006 -0.00285714 0.00992366 0.0215686 0.0777778
internal_weight=0 188 214 83 161 140 131 102 54
internal_count=402 188 214 83 161 140 131 102 54
is_linear=0
shrinkage=0.1


Tree=26
num_leaves=9
num_cat=0
split_feature=48 32 47 15 23 21 25 7
split_gain=10.7961 13.7824 10.3721 8.57143 7.75544 5.42628 12.9068 5.33434
threshold=0.77227000000000012 5.3072415000000008 3.8538025505000006 94.635131500000014 1.0620225000000001 0.57097500000000012 39.455720000000007 9.5695870000000021
decision_type=2 10 10 10 2 2 2 2
left_child=5 2 4 -4 -2 -1 -7 -8
right_child=1 -3 3 -5 -6 6 7 -9
leaf_value=0.021746581598850137 0.00032599406048909661 0.021539585503626765 -0.0021567111595277434 0.00056001027318196219 -3.3068438969236932e-05 -0.0024924467808350261 0.00047540870365066554 9.8340678907843243e-05
leaf_weight=28 35 25 80 28 112 20 22 52
leaf_count=28 35 25 80 28 112 20 22 52
internal_value=0 -0.00285714 -0.00980392 -0.0333333 0.00748299 0.0327869 0.0212766 0.0405405
internal_weight=0 280 255 108 147 122 94 74
internal_count=402 280 255 108 147 122 94 74
is_linear=0
shrinkage=0.1


Tree=27
num_leaves=10
num_cat=0
split_feature=45 30 25 46 12 17 50 49 1
split_gain=12.024 15.2006 13.3854 12.1352 13.1953 12.8356 9.38574 8.27367 3.6
threshold=7339.558868000001 118.82388000000002 30.231020000000004 9.2811355000000013 87.512370000000018 70.670192000000014 26.994404000000003 0.66036750000000011 3281.4861200000005
decision_type=2 2 2 2 8 2 2 10 2
left_child=2 3 -1 5 -5 -2 7 -4 -8
right_child=1 -3 6 4 -6 -7 8 -9 -10
leaf_value=-0.0070048539743610971 5.9837213976480065e-05 -0.0033929913118212322 0.00011815817448064872 -0.0010886274984875971 0.00075392019899763591 0.02125368532594445 -0.0013171026718316822 -0.0020367823630487313 -0.00073910712559310571
leaf_weight=26 30 24 103 69 43 45 20 28 20
leaf_count=26 30 24 103 69 43 45 20 28 20
internal_value=0 0.0165877 -0.0177665 0.0262032 0.00535714 0.0573333 -0.00760234 0.00534351 -0.05
internal_weight=0 211 197 187 112 75 171 131 40
internal_count=408 211 197 187 112 75 171 131 40
is_linear=0
shrinkage=0.1


Tree=28
num_leaves=9
num_cat=0
split_feature=32 7 53 20 34 19 43 11
split_gain=10.7367 11.3138 12.0522 8.8953 9.14502 7.9717 7.80806 3.5979
threshold=1.8139110000000003 8.6337400000000013 36.37649600000001 1.1552475000000002 35.156638000000008 0.03283500000000001 34.557600000000008 234.47604600000003
decision_type=10 2 2 2 2 2 2 2
left_child=1 2 7 5 -5 -3 -2 -1
right_child=6 3 -4 4 -6 -7 -8 -9
leaf_value=-0.0018589284133826189 0.01960761749603096 -3.2942623064935038e-05 0.0001490394521049577 7.0005875698240773e-05 0.00045652315446691964 -0.0018422851001430028 -0.00095818554046507511 -0.00062048671610479835
leaf_weight=56 30 100 21 56 21 43 35 22
leaf_count=56 30 100 21 56 21 43 35 22
internal_value=0 -0.0153605 -0.0434343 -0.00272727 0.0246753 -0.0174825 0.0292308 -0.0615385
internal_weight=0 319 99 220 77 143 65 78
internal_count=384 319 99 220 77 143 65 78
is_linear=0
shrinkage=0.1


Tree=29
num_leaves=7
num_cat=0
split_feature=34 45 48 37 30 19
split_gain=14.0744 10.3109 12.8638 8.63706 10.1995 8.65258
threshold=5.6228610000000012 16013.712460000002 1.1389750000000001 1226.4128500000002 101.50666000000002 0.024079000000000003
decision_type=2 2 2 2 2 2
left_child=-1 3 -3 4 -2 -5
right_child=1 2 -4 5 -6 -7
leaf_value=-0.0045326931064029611 0.00036290937650839224 0.022130013623058078 -0.00068268748761690548 -0.0019739521154768882 -0.00041841147422548786 -2.1092562311616792e-05
leaf_weight=24 58 37 22 49 37 174
leaf_count=24 58 37 22 49 37 174
internal_value=0 0.00397878 0.0423729 -0.00314465 0.0221053 -0.0139013
internal_weight=0 377 59 318 95 223
internal_count=401 377 59 318 95 223
is_linear=0
shrinkage=0.1


Tree=30
num_leaves=9
num_cat=0
split_feature=32 7 48 37 25 45 0 40
split_gain=16.0383 12.7277 7.9309 8.82317 7.89824 9.95933 7.31975 3.50635
threshold=3.6105795000000005 10.344733000000003 1.1721800000000002 1858.5046375000004 31.720940000000002 14161.780865000002 0.39097950000000009 60.8607285
decision_type=10 2 2 2 2 2 2 8
left_child=1 4 3 -3 -1 -6 -4 -2
right_child=7 2 6 -5 5 -7 -8 -9
leaf_value=-0.0050987273032210957 0.017844250957975549 0.00019929391964915202 -0.0012682784847596923 -0.00033941579345020829 -0.00045027168114018324 -0.0018355215242959466 0.00027567506062771646 0.019917012260752265
leaf_weight=25 24 57 43 27 116 27 54 21
leaf_count=25 24 57 43 27 116 27 54 21
internal_value=0 -0.0123209 0.00607735 0.0285714 -0.0321429 -0.0230769 -0.0134021 0.0511111
internal_weight=0 349 181 84 168 143 97 45
internal_count=394 349 181 84 168 143 97 45
is_linear=0
shrinkage=0.1


Tree=31
num_leaves=12
num_cat=0
split_feature=17 9 47 53 23 21 23 52 26 30 23
split_gain=10.9295 9.5564 9.13751 8.86042 8.72166 7.7277 7.38901 6.98123 5.58405 4.95534 4.35095
threshold=64.109772000000007 5171.2079000000003 4.3032993585000012 34.971818500000005 1.2344287500000002 0.74587500000000018 1.0620225000000001 24726.359780000003 168.06654250000003 84.580050000000014 1.3282177500000001
decision_type=2 2 10 2 2 2 2 2 2 2 2
left_child=6 3 7 8 -4 -5 -1 -3 -2 -8 -11
right_child=1 2 4 5 -6 -7 9 -9 -10 10 -12
leaf_value=0.00026395633288762781 0.00056344331938333462 0.00050863438965871729 0.0011615847155970389 0.016616381834952128 -0.0015027123476345056 -0.00030734638018508416 -0.00032615392790139475 0.00012478604210456077 -0.0014801422857531326 -0.0033019172481140377 -0.0017951366809240939
leaf_weight=26 27 52 29 25 41 21 22 21 90 21 22
leaf_count=26 27 52 29 25 41 21 22 21 90 21 22
internal_value=0 0.00980392 0.0286713 -0.00674847 0.00285714 0.0304348 -0.0296703 0.0534247 -0.0213675 -0.0476923 -0.0674419
internal_weight=0 306 143 163 70 46 91 73 117 65 43
internal_count=397 306 143 163 70 46 91 73 117 65 43
is_linear=0
shrinkage=0.1


Tree=32
num_leaves=7
num_cat=0
split_feature=32 23 7 11 12 47
split_gain=12.9066 10.28 9.79632 12.2862 8.432 8.25143
threshold=5.3072415000000008 1.1116755000000003 15.241387000000001 129.33612900000003 101.22639250000002 5.3468395610000004
decision_type=10 2 2 2 10 8
left_child=1 4 3 -3 5 -1
right_child=-2 2 -4 -5 -6 -7
leaf_value=0.00013653735546129595 0.011858884863431297 0.00033173577339625936 0.00050343817737720064 -0.0013729621473062747 0.0078958359459741952 -0.0015034029832616291
leaf_weight=50 28 31 25 211 32 20
leaf_count=50 28 31 25 211 32 20
internal_value=0 -0.0132791 -0.0235955 -0.0297521 0.0137255 -0.00571429
internal_weight=0 369 267 242 102 70
internal_count=397 369 267 242 102 70
is_linear=0
shrinkage=0.1


Tree=33
num_leaves=5
num_cat=0
split_feature=11 28 32 45
split_gain=10.4565 12.2018 11.521 18.3452
threshold=124.36166250000001 0.24118725000000002 3.6105795000000005 6774.3583820000013
decision_type=2 2 10 2
left_child=-1 -2 3 -3
right_child=1 2 -4 -5
leaf_value=0.0006633678399194376 0.00092166346891197574 0.00010635948245431682 0.014930502170898752 -0.001342950941981177
leaf_weight=29 36 121 35 162
leaf_count=29 36 121 35 162
internal_value=0 -0.0107345 -0.0169811 -0.0236749
internal_weight=0 354 318 283
internal_count=383 354 318 283
is_linear=0
shrinkage=0.1


Tree=34
num_leaves=13
num_cat=0
split_feature=7 12 15 42 42 21 16 31 37 7 40 30
split_gain=11.3499 16.4432 11.4188 12.726 9.74031 12.8572 7.85007 7.61012 10.8514 7.26578 4.75955 0.962791
threshold=10.026482000000001 32.70577500000001 39.737288500000005 23.438724000000004 9.9355680000000017 0.67901250000000013 0.70730370000000009 37.479114000000003 1243.2226000000003 6.4154360000000006 41.813128500000012 97.624940000000009
decision_type=2 10 10 2 2 2 10 2 2 2 8 2
left_child=1 9 10 -4 5 -2 -7 8 -6 -1 -3 -11
right_child=4 2 3 -5 7 6 -8 -9 -10 11 -12 -13
leaf_value=-0.00055981716290591911 -0.0050507172359674007 0.00020309101556717927 0.00052547081728583883 -0.001429482052747921 0.0014048071785741727 -0.00086345056317498308 0.00046479068989872157 -0.0013254556824662789 0.0002715420036080841 -0.0017089150327284659 0.0091556242999953023 -0.0018108709057391053
leaf_weight=21 22 24 31 27 27 27 22 22 96 20 22 23
leaf_count=21 22 24 31 27 27 27 22 22 96 20 22 23
internal_value=0 -0.022619 0.00192308 -0.0275862 0.012037 -0.0183099 0.0102041 0.0268966 0.0365854 -0.0625 0.0391304 -0.0860465
internal_weight=0 168 104 58 216 71 49 145 123 64 46 43
internal_count=384 168 104 58 216 71 49 145 123 64 46 43
is_linear=0
shrinkage=0.1


Tree=35
num_leaves=9
num_cat=0
split_feature=7 32 45 2 25 26 3 52
split_gain=11.8576 11.2083 12.1389 10.2182 9.23757 15.7603 6.78169 5.20714
threshold=10.404602000000002 2.8691520000000001 6993.0824585000009 173.39183550000004 29.449200000000001 201.84350250000003 12.679118000000001 7794.3630240000011
decision_type=2 10 2 2 2 2 2 2
left_child=1 2 6 4 -2 -6 -1 -4
right_child=3 -3 7 -5 5 -7 -8 -9
leaf_value=0.0002766049290449065 0.043105207814751738 0.0094364895794188889 -0.00094612667515112591 0.0015294831576075092 -0.0027558958676538107 8.2674563016898539e-05 -0.00064176429834566292 -0.0020125309706860973
leaf_weight=23 24 21 48 22 33 124 61 42
leaf_count=23 24 21 48 22 33 124 61 42
internal_value=0 -0.0261538 -0.0344828 0.00837438 0.000552486 -0.00828025 -0.00714286 -0.06
internal_weight=0 195 174 203 181 157 84 90
internal_count=398 195 174 203 181 157 84 90
is_linear=0
shrinkage=0.1


Tree=36
num_leaves=11
num_cat=0
split_feature=17 34 8 37 38 32 30 28 0 48
split_gain=8.92873 15.0693 11.6436 13.3614 10.6871 12.7431 10.6841 14.2165 4.7784 2.38704
threshold=85.941502000000014 11.553424000000001 2.9886570000000003 1179.4901500000003 0.0091260000000000022 0.52762050000000016 75.709440000000015 0.41951550000000004 0.49780450000000004 1.3986700000000003
decision_type=2 2 2 2 2 10 2 2 2 2
left_child=2 -2 6 -4 8 -6 -1 -8 -3 -5
right_child=1 4 3 9 5 -7 7 -9 -10 -11
leaf_value=0.00042930491455591926 -0.0024686084004979423 0.00023167293969754904 0.00037902096100819608 -0.0018865081784471738 -0.0014436001337862 0.0012416581851745533 -0.0011161567195312545 0.00011022409496810563 0.043543199673043494 -0.0011093661840384313
leaf_weight=29 25 26 26 28 31 58 78 41 25 23
leaf_count=29 25 26 26 28 31 58 78 41 25 23
internal_value=0 0.0115152 -0.0191111 -0.0506494 0.0242857 0.00337079 -0.0027027 -0.0159664 0.0607843 -0.0803922
internal_weight=0 165 225 77 140 89 148 119 51 51
internal_count=390 165 225 77 140 89 148 119 51 51
is_linear=0
shrinkage=0.1


Tree=37
num_leaves=8
num_cat=0
split_feature=32 45 26 0 12 42 47
split_gain=13.7844 12.5211 14.2131 11.3091 7.33333 7.17087 7.07245
threshold=2.8691520000000001 6774.3583820000013 136.00371000000004 0.65590550000000014 69.596482500000022 47.342070000000007 6.3669864925000006
decision_type=10 2 2 2 10 2 10
left_child=1 3 -3 6 -2 -4 -1
right_child=4 2 5 -5 -6 -7 -8
leaf_value=0.00014960995718929084 0.0036528448929228578 0.002705844865281113 -0.00083736353830927762 -0.0040704252491300507 0.014236340456756293 -0.0017554910093152973 -0.0011392676053760791
leaf_weight=106 22 28 119 23 27 51 21
leaf_count=106 22 28 119 23 27 51 21
internal_value=0 -0.0137931 -0.030303 0.008 0.0428571 -0.0411765 0.019685
internal_weight=0 348 198 150 49 170 127
internal_count=397 348 198 150 49 170 127
is_linear=0
shrinkage=0.1


Tree=38
num_leaves=8
num_cat=0
split_feature=52 45 5 0 25 45 17
split_gain=8.21824 7.93111 9.7982 14.3374 8.71194 9.12146 5.14976
threshold=1756.6815060000001 6774.3583820000013 3.9112485000000006 0.31406550000000005 37.990050000000004 10849.987560000003 85.941502000000014
decision_type=2 2 2 2 2 2 2
left_child=6 2 -2 -4 -3 -6 -1
right_child=1 4 3 -5 5 -7 -8
leaf_value=0.00013825324843264855 -0.00040401434538941722 0.0026388372541581878 0.00045315670240985611 -0.0001648145385197644 -0.0003859846799120536 -0.0015774149220605994 0.001982279284247455
leaf_weight=31 24 37 42 71 82 55 27
leaf_count=31 24 37 42 71 82 55 27
internal_value=0 -0.00996785 0.0080292 0.020354 -0.0241379 -0.0357664 0.0310345
internal_weight=0 311 137 113 174 137 58
internal_count=369 311 137 113 174 137 58
is_linear=0
shrinkage=0.1


Tree=39
num_leaves=10
num_cat=0
split_feature=9 46 11 17 8 22 35 52 5
split_gain=8.78403 13.0581 11.3934 10.0621 12.8692 9.65714 6.72347 6.98185 2.81577
threshold=5171.2079000000003 7.4976800000000008 150.42303450000003 85.539156000000006 2.7602470000000006 37.36058975000001 6.2551800000000002 5174.5622850000009 4.7617125000000007
decision_type=2 2 2 2 2 2 2 2 2
left_child=1 -1 -2 4 -4 -5 8 -8 -3
right_child=2 6 3 5 -6 -7 7 -9 -10
leaf_value=0.0023754098238967301 0.00064130525777929921 -0.00091765237602434667 9.203552990828877e-06 -4.5049378772905688e-05 -0.0015200496479997533 0.0010912197187752798 0.00020423084968726877 -0.00094535025907259429 -0.001600416790409965
leaf_weight=38 20 20 58 35 34 35 48 77 23
leaf_count=38 20 20 58 35 34 35 48 77 23
internal_value=0 -0.0213592 0.00879121 0 -0.0217391 0.0285714 -0.0333333 -0.0216 -0.0674419
internal_weight=0 206 182 162 92 70 168 125 43
internal_count=388 206 182 162 92 70 168 125 43
is_linear=0
shrinkage=0.1


Tree=40
num_leaves=10
num_cat=0
split_feature=19 45 17 0 45 18 53 19 35
split_gain=14.8491 10.1038 10.6845 8.93555 8.31489 7.68357 8.68718 4.12571 3.27273
threshold=0.03283500000000001 5699.928360500001 57.541424000000006 0.53198850000000009 4191.1737195000014 4.6968245000000008 39.920748500000009 0.038009000000000008 7.2376320000000005
decision_type=2 2 2 2 2 2 2 2 2
left_child=1 4 -3 -4 -1 -2 7 -7 -6
right_child=5 2 3 -5 8 6 -8 -9 -10
leaf_value=-1.172738583292471e-05 0.00042309768339754764 -0.0014448541932157723 -0.00015471446932603512 0.017195889101182839 0.00029471386749523601 -0.00074796976557489256 0.00042212731974161925 -0.0021615276701379724 0.00086430660667969901
leaf_weight=26 23 28 140 32 22 25 21 45 22
leaf_count=26 23 28 140 32 22 25 21 45 22
internal_value=0 0.00444444 -0.007 0.00232558 0.0371429 -0.0385965 -0.0516484 -0.0685714 0.0636364
internal_weight=0 270 200 172 70 114 91 70 44
internal_count=384 270 200 172 70 114 91 70 44
is_linear=0
shrinkage=0.1


Tree=41
num_leaves=9
num_cat=0
split_feature=28 7 37 6 30 16 17 7
split_gain=11.6914 11.389 11.6099 8.8658 7.7572 6.91454 6.59182 4.96305
threshold=0.24460350000000003 9.3899800000000031 1432.8233250000003 0.072471000000000022 99.330480000000009 0.78095484000000004 89.380272000000005 11.428677000000002
decision_type=2 2 2 2 2 10 2 2
left_child=7 3 5 4 -2 -3 -4 -1
right_child=1 2 6 -5 -6 -7 -8 -9
leaf_value=0.0012061654534749836 -0.00045100129970083075 8.4688631393359755e-05 -0.00061028149283061611 0.00012489007257641843 -0.0011919655113835181 0.00072166015132294641 6.8593381846144506e-05 0.00047477075070320973
leaf_weight=22 52 63 74 27 47 26 53 21
leaf_count=22 52 63 74 27 47 26 53 21
internal_value=0 -0.0157895 -0.00185185 -0.0396825 -0.0535354 0.0258427 -0.0212598 0.0395349
internal_weight=0 342 216 126 99 89 127 43
internal_count=385 342 216 126 99 89 127 43
is_linear=0
shrinkage=0.1


Tree=42
num_leaves=7
num_cat=0
split_feature=17 22 45 15 46 54
split_gain=9.31723 9.31943 9.05715 15.12 12.4637 2.96077
threshold=129.46424000000005 47.42058475000001 10849.987560000003 20.050166500000003 12.431815000000002 45.060154000000004
decision_type=2 2 2 10 2 2
left_child=1 2 4 -4 -1 -3
right_child=-2 5 3 -5 -6 -7
leaf_value=-0.0001144368971344526 0.0042375996685194532 -0.0029971344390091284 0.002230916966436534 -0.0017253862088332291 0.00049596473484137676 -0.00056187193201768853
leaf_weight=208 36 23 21 54 25 20
leaf_count=208 36 23 21 54 25 20
internal_value=0 -0.0145299 -0.00844156 -0.0386667 0.00128755 -0.0581395
internal_weight=0 351 308 75 233 43
internal_count=387 351 308 75 233 43
is_linear=0
shrinkage=0.1


Tree=43
num_leaves=9
num_cat=0
split_feature=30 3 32 26 48 19 26 46
split_gain=10.1221 14.282 11.6687 8.80291 8.4845 9.96643 6.10583 4.60909
threshold=73.909560000000013 11.350505000000002 0.0062073000000000015 345.88786750000003 1.7353600000000002 0.031939500000000003 149.71007750000004 10.374087750000001
decision_type=2 2 10 2 2 2 2 2
left_child=3 2 -2 -1 6 -6 -3 -4
right_child=1 4 7 -5 5 -7 -8 -9
leaf_value=0.0061653981491774151 -0.00019906830646350079 0.00014624908999071688 0.00055204469574956973 -0.00055182945983927125 0.0068938272286126617 -0.00083780545607315565 -0.00086620063199705942 0.00082330154288914154
leaf_weight=38 36 36 24 36 23 20 165 20
leaf_count=38 36 36 24 36 23 20 165 20
internal_value=0 -0.0166667 0.02 0.0243243 -0.0286885 0.0116279 -0.0373134 0.0545455
internal_weight=0 324 80 74 244 43 201 44
internal_count=398 324 80 74 244 43 201 44
is_linear=0
shrinkage=0.1


Tree=44
num_leaves=7
num_cat=0
split_feature=41 52 12 17 21 23
split_gain=11.5891 9.48068 9.24335 8.89865 8.57143 3.98304
threshold=170.62606925000003 30575.528460000005 7.984325000000001 69.401712000000018 0.71306250000000004 1.2606345000000003
decision_type=2 2 10 2 2 2
left_child=1 2 5 -4 -3 -1
right_child=-2 4 3 -5 -6 -7
leaf_value=-6.1669024778635966e-05 -0.00090872340583117873 -0.0020747079712413992 -0.00020967348301224656 0.00038849567545525037 -0.00037879200272870547 -0.0024061775119040476
leaf_weight=22 30 20 86 174 28 29
leaf_count=22 30 20 86 174 28 29
internal_value=0 -0.0086351 -0.0022508 0.00538462 -0.05 -0.0411765
internal_weight=0 359 311 260 48 51
internal_count=389 359 311 260 48 51
is_linear=0
shrinkage=0.1


Tree=45
num_leaves=11
num_cat=0
split_feature=3 25 15 40 17 3 37 25 23 26
split_gain=8.73072 10.9278 7.03951 13.7146 9.025 11.6817 9.63333 8.84053 8.27475 2.65947
threshold=11.350505000000002 47.714300000000001 41.488174000000008 41.813128500000012 83.240036000000018 24.134921000000002 1531.6468815000003 61.979120000000002 1.4620050000000002 350.77967250000006
decision_type=2 2 10 10 2 2 2 2 2 2
left_child=1 -1 3 8 6 -6 -4 -5 -2 -3
right_child=2 9 4 7 5 -7 -8 -9 -10 -11
leaf_value=-0.00013090605206304517 -0.00097271297586859506 0.00048038345108183028 -0.00054108248662526799 0.0014496018349841328 0.0029817629903856812 -0.00042724915244421327 -0.0023201436887908956 -0.00036520082272626037 6.8011460545511473e-05 0.00050181743698709364
leaf_weight=33 44 20 32 51 22 58 48 23 36 21
leaf_count=33 44 20 32 51 22 58 48 23 36 21
internal_value=0 0.0216216 -0.0165605 -0.0012987 -0.03125 -0.0075 -0.055 0.0297297 -0.03 0.0560976
internal_weight=0 74 314 154 160 80 80 74 80 41
internal_count=388 74 314 154 160 80 80 74 80 41
is_linear=0
shrinkage=0.1


Tree=46
num_leaves=6
num_cat=0
split_feature=25 31 3 16 36
split_gain=11.3911 17.1603 8.08088 11.0414 9.49614
threshold=23.239260000000005 37.479114000000003 11.457351500000001 0.45821664000000006 3.1240250000000001
decision_type=2 2 2 10 2
left_child=-1 2 4 -4 -2
right_child=1 -3 3 -5 -6
leaf_value=0.013386256291409783 -8.1362669011092033e-05 -0.0021814321426534456 0.00045905919391948957 -0.00049383710840259496 0.00054323278388969149
leaf_weight=26 53 34 28 233 29
leaf_count=26 53 34 28 233 29
internal_value=0 -0.0145889 -0.00787172 -0.0164751 0.0195122
internal_weight=0 377 343 261 82
internal_count=403 377 343 261 82
is_linear=0
shrinkage=0.1


Tree=47
num_leaves=8
num_cat=0
split_feature=34 11 34 46 25 26 38
split_gain=9.02889 7.47087 12.1992 8.36427 8.6427 8.09011 6.79233
threshold=7.202922 201.92476500000004 15.449111000000002 7.4976800000000008 42.934140000000006 267.24866500000002 0.12472200000000001
decision_type=2 2 2 2 2 2 2
left_child=-1 2 6 -3 -5 -4 -2
right_child=1 3 5 4 -6 -7 -8
leaf_value=-0.001734069987476306 0.00072639171947324092 0.023860305052345265 -0.00012957073424504155 -0.0014550022937689054 0.00017298331646410284 -0.00070974656525818686 -4.5155748414635716e-05
leaf_weight=30 21 24 72 43 112 79 20
leaf_count=30 21 24 72 43 112 79 20
internal_value=0 -0.00296496 -0.0166667 0.0117318 0.00322581 -0.0298013 0.0317073
internal_weight=0 371 192 179 155 151 41
internal_count=401 371 192 179 155 151 41
is_linear=0
shrinkage=0.1


Tree=48
num_leaves=7
num_cat=0
split_feature=54 16 16 17 21 10
split_gain=9.13282 6.4704 9.683 10.0649 9.80711 5.13333
threshold=10.450679000000003 0.88710012000000005 0.65132253000000018 72.402460000000019 0.70012500000000011 21.362550000000002
decision_type=2 10 8 2 2 2
left_child=-1 2 3 -2 -4 -3
right_child=1 5 4 -5 -6 -7
leaf_value=-0.0015774474108743476 -0.00071696622775162039 6.2862515611700507e-05 -0.0015318531926649802 0.00045770807447299507 -3.8338635401129239e-05 0.00062439138286791269
leaf_weight=21 71 22 67 105 95 20
leaf_count=21 71 22 67 105 95 20
internal_value=0 -0.00368421 -0.00828402 0.00795455 -0.0259259 0.0333333
internal_weight=0 380 338 176 162 42
internal_count=401 380 338 176 162 42
is_linear=0
shrinkage=0.1


Tree=49
num_leaves=8
num_cat=0
split_feature=7 52 52 53 32 25 16
split_gain=10.2569 8.59542 6.50077 8.4 5.84214 4.79858 4.52472
threshold=8.2650730000000028 1373.5978380000004 2422.0860975000005 22.045064500000006 0.4172685000000001 46.129320000000007 0.67488759000000009
decision_type=2 2 2 2 10 2 10
left_child=4 -2 -3 -4 5 -1 -6
right_child=1 2 3 -5 6 -7 -8
leaf_value=-0.0027700371818655638 0.0017103336959138342 -0.0035520177224544463 -0.00091360126844441882 5.0733356383619369e-05 -0.0014190109518349044 -0.00048246398735612967 0.00013390935440409088
leaf_weight=27 33 24 35 189 25 23 22
leaf_count=27 33 24 35 189 25 23 22
internal_value=0 -0.0024911 -0.00887097 -0.00357143 -0.0402062 -0.064 -0.0148936
internal_weight=0 281 248 224 97 50 47
internal_count=378 281 248 224 97 50 47
is_linear=0
shrinkage=0.1


Tree=50
num_leaves=8
num_cat=0
split_feature=34 54 21 36 25 0 43
split_gain=15.1392 8.80804 9.95517 7.36682 9.14372 6.92488 6.6192
threshold=11.553424000000001 22.507572000000003 0.56889375000000009 5.4418500000000014 67.95141000000001 0.28415450000000003 29.336832000000005
decision_type=2 2 2 2 2 2 2
left_child=6 2 -2 4 -3 -4 -1
right_child=1 3 5 -5 -6 -7 -8
leaf_value=-0.00030423855924675814 0.0039605245621010974 9.6026267727354248e-05 5.8303048058352376e-05 -0.00087952393396239928 0.0006166790471896237 -0.0020914628733462166 -0.0029047720728559928
leaf_weight=30 22 193 21 27 30 41 23
leaf_count=30 22 193 21 27 30 41 23
internal_value=0 0.00658683 -0.0214286 0.016 0.0219731 -0.0419355 -0.0509434
internal_weight=0 334 84 250 223 62 53
internal_count=387 334 84 250 223 62 53
is_linear=0
shrinkage=0.1


Tree=51
num_leaves=10
num_cat=0
split_feature=12 29 31 52 17 50 15 32 40
split_gain=9.32253 11.6563 10.5706 12.4138 13.3064 8.7986 7.64091 7.57576 4.76374
threshold=16.390660000000004 104.08342500000002 32.547068000000003 3310.2945945000006 58.90107600000001 19.450482000000004 35.155575000000006 0.7000455000000001 62.321688000000002
decision_type=10 2 2 2 2 2 10 10 10
left_child=1 -1 3 8 -5 -3 -4 -8 -2
right_child=2 5 6 4 -6 -7 7 -9 -10
leaf_value=-0.0019218289401617507 0.00038395621656622185 -0.00069277215563412584 0.00067439130246307725 -0.0013655242412299706 7.6759885707679076e-05 0.00021691338720268268 -0.00065727295294074409 -0.0040804841787915698 0.0015085903779626499
leaf_weight=24 24 38 20 32 148 29 24 20 28
leaf_count=24 24 38 20 32 148 29 24 20 28
internal_value=0 -0.0318681 0.00472973 0.0146552 0.00222222 -0.0104478 -0.03125 -0.0545455 0.0576923
internal_weight=0 91 296 232 180 67 64 44 52
internal_count=387 91 296 232 180 67 64 44 52
is_linear=0
shrinkage=0.1


Tree=52
num_leaves=7
num_cat=0
split_feature=19 20 42 46 18 16
split_gain=8.35759 8.80183 6.87205 8.92025 6.91765 6.13966
threshold=0.04686450000000001 1.3716575000000002 50.651394000000003 8.4376465000000014 5.4844435000000011 0.63761832000000018
decision_type=2 2 2 2 2 10
left_child=1 2 3 -1 -4 -3
right_child=-2 5 4 -5 -6 -7
leaf_value=-0.00041020566495827634 -0.0020055589344433627 0.0010266845717138207 4.3984439154789198e-05 9.3872581766465295e-05 -0.0019131687210430103 0.00018754384032493613
leaf_weight=56 23 26 20 190 48 37
leaf_count=56 23 26 20 190 48 37
internal_value=0 0.00557029 -0.00127389 0.00650407 -0.0294118 0.0396825
internal_weight=0 377 314 246 68 63
internal_count=400 377 314 246 68 63
is_linear=0
shrinkage=0.1


Tree=53
num_leaves=8
num_cat=0
split_feature=17 53 32 16 37 47 15
split_gain=8.8773 8.38731 8.31252 7.41298 13.0648 7.99833 4.86828
threshold=56.001410000000007 22.206928000000001 0.30001950000000005 0.5382830700000002 1325.7425065000002 8.9680460045000014 66.625559000000024
decision_type=2 2 8 10 2 8 8
left_child=6 2 -2 4 -3 -5 -1
right_child=1 3 -4 5 -6 -7 -8
leaf_value=-0.00019449139664452319 -0.0013780147481748449 -3.4531183883269931e-05 5.773514207911444e-05 7.6615964363405223e-05 0.0074220516445574871 -0.0028671563118842893 -0.0017568332357047465
leaf_weight=29 26 22 34 206 29 35 22
leaf_count=29 26 22 34 206 29 35 22
internal_value=0 0.00738636 -0.0266667 0.0143836 0.0490196 0.00705394 -0.0372549
internal_weight=0 352 60 292 51 241 51
internal_count=403 352 60 292 51 241 51
is_linear=0
shrinkage=0.1


Tree=54
num_leaves=10
num_cat=0
split_feature=15 24 12 40 0 43 55 10 24
split_gain=8.48228 9.95303 9.89054 10.5249 12.734 9.80916 9.33794 9.23804 6.93528
threshold=61.965722000000007 38.674316000000005 7.984325000000001 41.813128500000012 0.33115750000000005 22.570968000000004 0.10852449350000003 21.362550000000002 36.723686000000008
decision_type=10 2 10 8 2 2 10 2 2
left_child=2 7 6 4 -4 -5 -1 -2 -9
right_child=1 -3 3 5 -6 -7 -8 8 -10
leaf_value=-0.0017712492119063335 -0.00069428838345903714 -0.0021731360783210792 0.00028122873546669933 -0.00033216667983807939 -0.0012983869405429889 0.0007594473676189108 0.00017984700160700914 -3.1184255236230058e-05 0.0030298182507631803
leaf_weight=23 39 28 50 24 36 101 33 48 22
leaf_count=23 39 28 50 24 36 101 33 48 22
internal_value=0 -0.0182482 0.0123596 0.0222749 -0.00465116 0.0408 -0.025 -0.00458716 0.0171429
internal_weight=0 137 267 211 86 125 56 109 70
internal_count=404 137 267 211 86 125 56 109 70
is_linear=0
shrinkage=0.1


Tree=55
num_leaves=7
num_cat=0
split_feature=54 50 15 52 30 13
split_gain=9.05842 10.7545 9.98876 11.2406 9.64567 3.66984
threshold=21.462054000000006 33.994159000000003 13.837050500000002 3310.2945945000006 64.829600000000013 843.35762900000009
decision_type=2 2 8 2 2 2
left_child=4 2 -2 -4 -1 -6
right_child=1 -3 3 -5 5 -7
leaf_value=0.00028178246031400361 0.00049151166475715821 0.0018404917289454937 0.0002001184735341602 -0.0002560989937141547 -0.00053055373465252936 -0.0013312920587435859
leaf_weight=22 30 28 60 190 35 28
leaf_count=22 30 28 60 190 35 28
internal_value=0 -0.00194805 -0.00785714 -0.0144 -0.0388235 -0.0587302
internal_weight=0 308 280 250 85 63
internal_count=393 308 280 250 85 63
is_linear=0
shrinkage=0.1


Tree=56
num_leaves=8
num_cat=0
split_feature=31 7 41 45 45 50 23
split_gain=8.4606 10.3437 7.4927 8.51212 7.44083 5.62646 9.70742
threshold=37.479114000000003 9.1883160000000021 117.85996950000002 9103.1313345000017 3945.6048470000005 13.585571000000003 1.0730565000000001
decision_type=2 2 2 2 2 2 2
left_child=1 5 4 -4 -3 -1 -7
right_child=-2 2 3 -5 -6 6 -8
leaf_value=-0.001945397760666132 -0.0011378790823066251 -0.00069070709860529324 -0.0012109500647837961 0.00047267045946449175 0.00028853477769780775 0.0012075153896571511 -0.00019097773166534097
leaf_weight=36 36 20 24 20 168 22 69
leaf_count=36 36 20 24 20 168 22 69
internal_value=0 0.00640669 0.0189655 -0.0181818 0.0276596 -0.0165354 -0.0032967
internal_weight=0 359 232 44 188 127 91
internal_count=395 359 232 44 188 127 91
is_linear=0
shrinkage=0.1


Tree=57
num_leaves=10
num_cat=0
split_feature=19 17 1 0 48 46 55 54 19
split_gain=9.06724 12.5446 9.55442 9.77888 9.3083 6.74496 6.40593 6.09524 3.58546
threshold=0.027263000000000006 64.391216000000014 5548.2892300000012 0.44225550000000008 0.65438500000000011 10.374087750000001 0.14444966500000003 52.648840000000007 0.023681000000000004
decision_type=2 2 2 2 2 2 10 2 2
left_child=4 -2 3 -3 8 6 -6 -7 -1
right_child=1 2 -4 -5 5 7 -8 -9 -10
leaf_value=0.00016244940613900261 -0.00089915887192437228 4.3417432728343604e-05 0.0034010396498045051 -0.00050133134040477743 0.0018229845565177025 8.6152306559363355e-05 -0.00072480184049247614 0.0010728435661649114 0.0005832492537231641
leaf_weight=31 37 78 28 90 32 21 49 21 22
leaf_count=31 37 78 28 90 32 21 49 21 22
internal_value=0 -0.0141631 -0.00408163 -0.0130952 0.0159091 0.000813008 -0.0160494 0.0333333 0.0509434
internal_weight=0 233 196 168 176 123 81 42 53
internal_count=409 233 196 168 176 123 81 42 53
is_linear=0
shrinkage=0.1


Tree=58
num_leaves=6
num_cat=0
split_feature=22 13 32 38 30
split_gain=8.15585 8.97564 8.74623 12.9741 7.83368
threshold=45.052040000000012 910.75256250000018 5.3072415000000008 0.35591400000000006 75.57959000000001
decision_type=2 2 10 2 2
left_child=2 -2 3 4 -1
right_child=1 -3 -4 -5 -6
leaf_value=0.00034056754970337018 -0.0012986685245738657 0.00031164607212164227 0.010756692990464712 -0.0043101574404353074 -3.467215442656932e-05
leaf_weight=60 37 21 22 26 225
leaf_count=60 37 21 22 26 225
internal_value=0 -0.037931 0.0027027 -0.00160772 0.0045614
internal_weight=0 58 333 311 285
internal_count=391 58 333 311 285
is_linear=0
shrinkage=0.1


Tree=59
num_leaves=9
num_cat=0
split_feature=3 55 34 36 29 15 26 0
split_gain=7.89398 10.535 9.78912 9.29565 12.25 7.45528 6.9888 2.5
threshold=11.627686500000001 0.34791428550000009 11.553424000000001 1.5932527500000002 150.94167375000004 27.664910000000003 353.42293250000006 0.41554925000000004
decision_type=2 8 2 2 2 10 2 2
left_child=1 -1 7 4 -4 -5 -3 -2
right_child=2 6 3 5 -6 -7 -8 -9
leaf_value=0.0004837171885713379 -0.0010300249667167893 -0.0006344141139160073 -1.3899167214659337e-05 -0.00025002602557023216 0.030686948512357329 1.2022967310362768e-05 0.00027035128979719357 -0.0018880718540976301
leaf_weight=33 20 24 32 69 32 130 22 20
leaf_count=33 20 24 32 69 32 130 22 20
internal_value=0 0.0265823 -0.00891089 -0.00190114 0.03125 -0.0125628 -0.00434783 -0.055
internal_weight=0 79 303 263 64 199 46 40
internal_count=382 79 303 263 64 199 46 40
is_linear=0
shrinkage=0.1


Tree=60
num_leaves=11
num_cat=0
split_feature=17 35 29 3 49 5 53 19 37 20
split_gain=7.45909 12.8415 11.6071 11.8846 9.6763 10.4199 9.37306 16.0938 6.23874 5.7035
threshold=85.539156000000006 5.7162450000000007 112.11228750000002 11.170879000000001 0.098208500000000018 4.1770185000000009 33.382951500000004 0.039601000000000004 1821.7385815000002 1.0565900000000001
decision_type=2 2 2 2 10 2 2 2 2 2
left_child=2 -2 4 -4 -1 -6 7 -3 -5 -8
right_child=1 6 3 8 5 -7 9 -9 -10 -11
leaf_value=0.00020532615681912903 -0.0013809179205535758 0.00053553611245027498 0.00020783495571143163 -0.00024127216903570064 -0.00093932734656384089 0.0001629397507977271 0.00020691274709303873 -0.0031883008776392033 -0.0014362268392970731 0.018476759514583819
leaf_weight=29 29 72 39 73 20 31 25 22 38 28
leaf_count=29 29 72 39 73 20 31 25 22 38 28
internal_value=0 0.00909091 -0.0182609 -0.0346667 0.0125 -0.0137255 0.0210884 0.00212766 -0.0513514 0.054717
internal_weight=0 176 230 150 80 51 147 94 111 53
internal_count=406 176 230 150 80 51 147 94 111 53
is_linear=0
shrinkage=0.1


Tree=61
num_leaves=8
num_cat=0
split_feature=2 7 52 42 13 3 21
split_gain=9.31812 9.87093 7.9141 8.15213 7.18317 7.11382 5.54113
threshold=128.24437950000004 10.820534000000002 30575.528460000005 72.058188000000015 335.42461125000005 23.185690500000003 0.76736250000000006
decision_type=2 2 2 2 2 2 2
left_child=2 -2 3 4 -1 -3 -4
right_child=1 5 6 -5 -6 -7 -8
leaf_value=-0.00015755513533937117 -0.0012737282789534205 0.00078212816095954972 -0.00115813958315786 -0.0031219587107765446 0.00016417267014331188 -0.0012753301497381972 0.00014558151075886265
leaf_weight=40 27 21 22 28 218 20 20
leaf_count=40 27 21 22 28 218 20 20
internal_value=0 -0.0382353 0.00243902 0.00839161 0.0139535 -0.00731707 -0.0380952
internal_weight=0 68 328 286 258 41 42
internal_count=396 68 328 286 258 41 42
is_linear=0
shrinkage=0.1


Tree=62
num_leaves=9
num_cat=0
split_feature=31 12 32 0 19 32 0 49
split_gain=6.3987 7.28874 13.8482 10.4491 10.2469 7.81579 7.34266 5.91037
threshold=36.64146800000001 115.94334000000002 1.6725225000000001 0.41554925000000004 0.030845000000000001 0.16207950000000002 0.27026725000000007 0.41653950000000006
decision_type=2 10 10 2 2 10 2 10
left_child=1 3 5 6 -5 -3 -1 -2
right_child=7 2 -4 4 -6 -7 -8 -9
leaf_value=-1.5787756861387524e-05 -0.00041085887944847916 0.0028962953976199662 0.02085423030932659 9.8244333614740071e-05 -0.0017402998747913685 -0.00063592353664042528 0.00018747186913339943 -0.0022006076882230712
leaf_weight=91 26 24 27 41 51 33 77 20
leaf_count=91 26 24 27 41 51 33 77 20
internal_value=0 0.000581395 0.0261905 -0.00769231 -0.0347826 -0.00175439 0.00714286 -0.0391304
internal_weight=0 344 84 260 92 57 168 46
internal_count=390 344 84 260 92 57 168 46
is_linear=0
shrinkage=0.1


Tree=63
num_leaves=8
num_cat=0
split_feature=12 52 21 0 25 7 18
split_gain=9.45262 11.4724 9.13308 13.4194 10.8418 8.25702 8.22718
threshold=8.8439750000000021 1903.7408535000002 0.71306250000000004 0.55762650000000014 37.990050000000004 11.579925000000001 8.8196602500000019
decision_type=10 2 2 2 2 2 2
left_child=6 5 4 -4 -3 -2 -1
right_child=1 2 3 -5 -6 -7 -8
leaf_value=0.00010468402395971441 0.0068902902953952988 0.00091501878977913443 0.00015626206583257437 -0.0035113903676717525 -0.0010518853650606991 1.5888316495334339e-05 -0.0011625064961358021
leaf_weight=24 25 34 130 25 83 22 34
leaf_count=24 25 34 130 25 83 22 34
internal_value=0 -0.000940439 -0.00882353 0.00709677 -0.0299145 0.0446809 -0.0448276
internal_weight=0 319 272 155 117 47 58
internal_count=377 319 272 155 117 47 58
is_linear=0
shrinkage=0.1


Tree=64
num_leaves=11
num_cat=0
split_feature=3 32 47 5 16 31 40 30 0 1
split_gain=8.44196 8.18307 12.3236 10.8997 10.5778 9.45893 7.56083 10.4684 4.66598 2.60999
threshold=45.175939000000007 0.75177300000000014 2.0151124675000003 5.372983500000001 0.6953207400000001 21.768560000000004 47.092402500000006 87.636560000000017 0.48712200000000005 3594.9124200000001
decision_type=2 10 8 2 10 2 8 2 2 2
left_child=1 2 3 -1 -4 9 -2 -8 -7 -3
right_child=6 5 4 -5 -6 8 7 -9 -10 -11
leaf_value=-4.6305446456023855e-05 -0.0024650847863156877 0.0010133289031564192 5.3460411182716341e-05 0.00032849466334326479 -0.0010066081769154996 -0.0010313849193252275 0.00043209558870754762 -0.0017628551508677105 0.0004369255330456642 0.0022283674688139792
leaf_weight=89 32 20 34 53 36 33 20 34 20 21
leaf_count=89 32 20 34 53 36 33 20 34 20 21
internal_value=0 0.00522876 -0.00566038 0.0112676 -0.04 0.0297872 -0.0302326 -0.00740741 0.00188679 0.0658537
internal_weight=0 306 212 142 70 94 86 54 53 41
internal_count=392 306 212 142 70 94 86 54 53 41
is_linear=0
shrinkage=0.1


Tree=65
num_leaves=9
num_cat=0
split_feature=30 41 11 20 0 0 53 50
split_gain=8.67033 9.64891 9.58411 7.13483 9.50897 8.67364 5.48917 3.41612
threshold=114.93792000000001 117.85996950000002 177.93838350000001 1.2236712500000002 0.5960835000000001 0.48712200000000005 31.779200500000005 17.222653000000005
decision_type=2 2 2 2 2 2 2 2
left_child=1 3 -2 4 -1 -5 -3 -4
right_child=2 6 7 5 -6 -7 -8 -9
leaf_value=7.9676780807900365e-05 0.0003886782457432356 -0.00011908815906714134 -0.00057632018546586994 3.0099052698824885e-05 -0.0020850194036002067 0.010253307569446316 -0.00069080732761853288 -0.003229719463543607
leaf_weight=154 22 35 24 31 39 29 26 27
leaf_count=154 22 35 24 31 39 29 26 27
internal_value=0 0.00127389 -0.0369863 0.00988142 0.000518135 0.04 -0.0344262 -0.0607843
internal_weight=0 314 73 253 193 60 61 51
internal_count=387 314 73 253 193 60 61 51
is_linear=0
shrinkage=0.1


Tree=66
num_leaves=12
num_cat=0
split_feature=22 26 46 23 19 40 16 1 5 44 1
split_gain=8.87254 9.23649 9.36845 8.38949 11.0691 9.66959 7.75846 7.46185 5.30233 3.08571 1.63902
threshold=39.413561000000009 177.59514000000004 10.538099500000003 1.2054645000000004 0.022885000000000006 26.757373500000003 0.66011085000000003 2601.5532400000006 4.8945975000000006 2.7132090000000004 2916.6009400000007
decision_type=2 2 2 2 2 8 10 2 2 2 2
left_child=3 -2 10 8 7 -6 -4 -5 -1 -10 -3
right_child=1 2 6 4 5 -7 -8 -9 9 -11 -12
leaf_value=4.0146691983654667e-05 0.00037917665980009569 -0.002031682965667836 0.0001781255812124993 -0.0033021958523560997 -0.0009796855824722847 0.00017537877657804082 -0.0017139757196647073 -0.00026996553427937226 0.00077008895129184254 0.00040253337538013112 -0.0024660357794321569
leaf_weight=38 20 21 24 23 20 129 26 31 28 20 20
leaf_count=38 20 21 24 23 20 129 26 31 28 20 20
internal_value=0 -0.0315315 -0.0450549 0.0017301 -0.00935961 0.00469799 -0.016 -0.0481481 0.027907 0.05 -0.0804878
internal_weight=0 111 91 289 203 149 50 54 86 48 41
internal_count=400 111 91 289 203 149 50 54 86 48 41
is_linear=0
shrinkage=0.1


Tree=67
num_leaves=10
num_cat=0
split_feature=31 12 25 15 28 24 45 40 44
split_gain=10.1375 7.59288 8.54467 7.88017 7.70667 7.53266 6.75568 5.46763 5.76
threshold=32.117156000000008 115.94334000000002 67.95141000000001 41.262994500000005 0.32112750000000007 36.128492000000008 7950.9161585000011 101.67793350000001 2.1699735000000007
decision_type=2 10 2 10 2 2 2 8 2
left_child=1 2 3 -1 -3 -4 -6 8 -2
right_child=7 4 5 -5 6 -7 -8 -9 -10
leaf_value=3.3202019741107917e-05 -2.581675677134788e-05 0.018470797071191394 -8.0504015989794084e-05 -0.00057377206618783132 0.0022439986103632513 0.00045644417852296358 -0.00034760408975164942 -3.920308739684599e-05 -0.0016178772134445415
leaf_weight=119 20 25 20 86 23 23 27 37 25
leaf_count=119 20 25 20 86 23 23 27 37 25
internal_value=0 0.00278638 -0.00564516 -0.0141463 0.0306667 0.0348837 0.008 -0.0365854 -0.06
internal_weight=0 323 248 205 75 43 50 82 45
internal_count=405 323 248 205 75 43 50 82 45
is_linear=0
shrinkage=0.1


Tree=68
num_leaves=9
num_cat=0
split_feature=19 16 50 43 7 0 40 23
split_gain=11.4362 9.30208 6.93165 6.47895 6.16127 6.01499 9.40822 4.66667
threshold=0.033233000000000006 0.86840811000000018 13.585571000000003 33.452328000000009 8.554965000000001 0.44225550000000008 47.092402500000006 1.2716685000000003
decision_type=2 8 2 2 2 2 8 2
left_child=1 2 4 -4 -1 -2 -7 -8
right_child=5 -3 3 -5 -6 6 7 -9
leaf_value=-0.002292243222704533 2.2693398809640789e-05 0.00042326992675311461 0.00016737885632325258 -0.00021727300318483448 -5.2215043351724622e-05 -0.0023786645503779342 0.00028089613049878386 -0.0018735122947980843
leaf_weight=22 38 35 89 99 36 29 21 21
leaf_count=22 38 35 89 99 36 29 21 21
internal_value=0 0.00604982 -0.000813008 0.00851064 -0.0310345 -0.0321101 -0.0492958 -0.0190476
internal_weight=0 281 246 188 58 109 71 42
internal_count=390 281 246 188 58 109 71 42
is_linear=0
shrinkage=0.1


Tree=69
num_leaves=5
num_cat=0
split_feature=53 19 53 17
split_gain=10.3208 13.7048 10.3046 10.5321
threshold=44.374785500000009 0.043183000000000006 39.563532500000008 70.047844000000012
decision_type=2 2 2 2
left_child=1 2 3 -1
right_child=-2 -3 -4 -5
leaf_value=-0.00033888673070060424 0.00025725517977014171 -0.0022191425596192762 -0.0015942270129239021 0.00011840713454363687
leaf_weight=106 32 27 21 201
leaf_count=106 32 27 21 201
internal_value=0 -0.00929577 -0.00365854 0.000977199
internal_weight=0 355 328 307
internal_count=387 355 328 307
is_linear=0
shrinkage=0.1


Tree=70
num_leaves=11
num_cat=0
split_feature=48 12 29 40 54 35 42 23 12 4
split_gain=8.16071 8.95601 7.69041 13.8409 9.98385 8.61513 7.7727 7.23615 4.96595 1.00087
threshold=0.53432500000000016 73.06438875000002 158.66651250000004 87.466450500000022 16.126440000000002 6.2551800000000002 36.674754000000007 1.7654400000000001 16.009027500000006 10.810506000000002
decision_type=2 10 2 8 2 2 2 2 10 2
left_child=1 7 4 9 -2 -6 -5 8 -1 -4
right_child=2 -3 3 6 5 -7 -8 -9 -10 -11
leaf_value=-0.00020663324935802949 -0.0009671394248228324 0.00042060229019630357 -0.0021220090426276716 0.014315110073553662 -0.0015848560983048746 0.00013844156256664157 -0.0018992885810751145 0.00029855664470158439 0.00025169834101513975 -0.0035556543702673568
leaf_weight=29 27 34 22 20 34 139 29 21 24 20
leaf_count=29 27 34 22 20 34 139 29 21 24 20
internal_value=0 0.0222222 -0.00996564 -0.0340659 0.001 0.00982659 0.00204082 0.0027027 -0.0169811 -0.0761905
internal_weight=0 108 291 91 200 173 49 74 53 42
internal_count=399 108 291 91 200 173 49 74 53 42
is_linear=0
shrinkage=0.1


Tree=71
num_leaves=10
num_cat=0
split_feature=19 19 53 23 43 9 24 20 18
split_gain=11.0003 10.7904 9.14458 9.10217 7.97222 7.89632 6.5217 6.53425 5.88235
threshold=0.030845000000000001 0.022885000000000006 23.258110500000004 1.1309850000000001 130.12221600000001 6901.462375000001 20.147954000000002 1.2125325000000002 8.9032877500000023
decision_type=2 2 2 2 2 2 2 2 2
left_child=1 3 -3 -1 6 -4 -2 -8 -5
right_child=4 2 5 8 -6 -7 7 -9 -10
leaf_value=0.00066048323974064521 -0.0018575826284746785 -0.00026954951410880496 0.00032487363747180694 -0.0014263704884743872 0.0003651263131728658 -0.00046827206080545398 -0.0012059169187831631 0.0001580208554707775 -4.0909655868348668e-06
leaf_weight=27 34 29 112 34 21 20 63 26 34
leaf_count=27 34 29 112 34 21 20 63 26 34
internal_value=0 0.0109375 0.0267081 -0.0157895 -0.0236111 0.0378788 -0.0333333 -0.0191011 -0.0352941
internal_weight=0 256 161 95 144 132 123 89 68
internal_count=400 256 161 95 144 132 123 89 68
is_linear=0
shrinkage=0.1


Tree=72
num_leaves=12
num_cat=0
split_feature=15 44 29 36 54 42 3 19 9 12 42
split_gain=12.556 15.8223 13.1648 8.76993 8.27556 8.21658 7.64892 9.96923 7.30242 5.36068 3.59658
threshold=34.254857000000008 2.3213670000000004 139.89422250000004 1.9429420000000002 28.227700000000002 11.278794000000003 25.567283500000006 0.027959500000000002 4261.6642525000016 19.138935000000004 41.334900000000012
decision_type=8 2 2 2 2 2 2 2 2 10 2
left_child=1 8 3 -2 -5 -3 7 -4 -1 -10 -8
right_child=2 5 6 4 -6 -7 10 -9 9 -11 -12
leaf_value=0.00022693760347230926 -0.00044157012570901889 -0.0017884434910216851 -0.0012837334396269484 -2.7036810766409738e-05 0.00055253971332022754 7.5199255533994446e-05 -0.0019165977853039147 0.0005831788178053516 4.3768125060907592e-05 0.00059502783198097633 -0.0016401223905321797
leaf_weight=34 38 32 32 45 50 29 28 20 20 45 29
leaf_count=34 38 32 32 45 50 29 28 20 20 45 29
internal_value=0 0.01875 -0.0173554 0.0037594 0.02 -0.0213115 -0.0431193 -0.0153846 0.0434343 0.0630769 -0.0684211
internal_weight=0 160 242 133 95 61 109 52 99 65 57
internal_count=402 160 242 133 95 61 109 52 99 65 57
is_linear=0
shrinkage=0.1


Tree=73
num_leaves=9
num_cat=0
split_feature=15 4 23 26 37 18 26 12
split_gain=10.7847 11.1803 11.4292 8.48626 9.48205 9.89567 6.04595 4.14138
threshold=40.362276500000007 10.758066000000001 1.8537120000000002 165.77032125000002 2022.3997000000002 3.7054585000000002 587.37361750000014 65.532682500000007
decision_type=10 2 2 2 2 2 2 8
left_child=3 2 6 7 5 -5 -2 -1
right_child=1 -3 -4 4 -6 -7 -8 -9
leaf_value=0.00034594638036541779 -0.00062753455130869608 -0.0029480288055371982 0.00060051913045049718 -0.0015395035033534058 -0.00175593145681138 0.00013866160457005035 0.00017279131928898332 0.0014868939273530613
leaf_weight=26 109 31 25 21 26 109 34 21
leaf_count=26 109 31 25 21 26 109 34 21
internal_value=0 -0.0125628 -0.00238095 0.020197 0.00897436 0.02 -0.0132867 0.0574468
internal_weight=0 199 168 203 156 130 143 47
internal_count=402 199 168 203 156 130 143 47
is_linear=0
shrinkage=0.1


Tree=74
num_leaves=10
num_cat=0
split_feature=48 25 12 25 16 15 11 11 0
split_gain=17.5326 8.18328 13.6981 12.6674 8.65008 7.39561 7.26454 7.26148 1.01739
threshold=0.60204000000000013 54.73904000000001 37.496370000000006 61.662900000000008 0.88710012000000005 46.520246500000006 185.40750150000002 143.55161550000005 0.27026725000000007
decision_type=2 2 8 2 10 10 2 2 2
left_child=5 4 -3 -4 6 7 -2 -1 -9
right_child=1 2 3 -5 -6 -7 -8 8 -10
leaf_value=0.00033797781534414386 -1.2146377557098701e-05 0.00066596855937790008 0.00030182725783913666 -0.00094093907902824837 0.00084261230715266329 5.0717167689745549e-05 -0.001292260590949302 0.00014526385655289008 0.00059410545153697767
leaf_weight=25 70 28 33 49 21 29 73 20 26
leaf_count=25 70 28 33 49 21 29 73 20 26
internal_value=0 -0.00291971 0.0181818 -0.00243902 -0.0170732 0.046 -0.0258741 0.0633803 0.0869565
internal_weight=0 274 110 82 164 100 143 71 46
internal_count=374 274 110 82 164 100 143 71 46
is_linear=0
shrinkage=0.1


Tree=75
num_leaves=8
num_cat=0
split_feature=48 38 44 15 19 13 43
split_gain=8.59803 8.08634 8.23043 8.09057 6.76 5.36125 3.55926
threshold=0.53432500000000016 0.45325800000000005 6.5277315000000007 13.837050500000002 0.03283500000000001 417.42183075000008 33.246696000000007
decision_type=2 2 2 8 2 2 2
left_child=4 2 3 -2 5 -1 -7
right_child=1 -3 -4 -5 -6 6 -8
leaf_value=3.9883707221019903e-05 0.00081858707179890727 0.0014124268782385872 -0.0013423151978475094 -0.0001831640269107309 -0.00019299540106801249 0.00038371126166620364 0.00030930112031886631
leaf_weight=26 22 35 20 205 20 24 30
leaf_count=26 22 35 20 205 20 24 30
internal_value=0 -0.00212766 -0.00850202 -0.0030837 0.032 0.045 0.062963
internal_weight=0 282 247 227 100 80 54
internal_count=382 282 247 227 100 80 54
is_linear=0
shrinkage=0.1


Tree=76
num_leaves=8
num_cat=0
split_feature=34 19 30 53 36 3 50
split_gain=8.57654 10.8331 7.15908 11.1284 7.72721 6.60907 5.74701
threshold=54.30940300000001 0.034029000000000011 89.347400000000007 35.509503000000002 2.2230965000000005 82.058112000000008 15.832004000000001
decision_type=2 2 2 2 2 2 2
left_child=1 2 3 -1 -4 6 -3
right_child=-2 5 4 -5 -6 -7 -8
leaf_value=0.00027930106871250186 0.00050236964187123207 -0.0018353318514721757 -0.00059389131550101652 -2.9909951347146149e-05 0.00013834534285577793 0.00028141210061587255 -0.00073000388420106372
leaf_weight=78 25 20 72 23 97 22 52
leaf_count=78 25 20 72 23 97 22 52
internal_value=0 -0.000549451 0.00962963 0.0306931 -0.00295858 -0.0297872 -0.0444444
internal_weight=0 364 270 101 169 94 72
internal_count=389 364 270 101 169 94 72
is_linear=0
shrinkage=0.1


Tree=77
num_leaves=10
num_cat=0
split_feature=7 50 8 36 37 53 36 51 26
split_gain=7.04817 5.67399 12.3097 11.6597 11.1821 9.63333 8.83636 8.72308 5.13767
threshold=3.5606300000000002 23.117795500000003 5.9931270000000012 1.4813925000000003 1704.6442125000001 34.089941500000002 2.1142595000000006 138.76999325000003 337.32166500000005
decision_type=2 2 2 2 2 2 2 2 2
left_child=8 2 7 -4 6 -6 -3 -2 -1
right_child=1 4 3 -5 5 -7 -8 -9 -10
leaf_value=-0.00088655336817751928 0.0003094471434419067 4.0149371322104566e-05 0.010657797037418171 -0.0012094989794052505 -0.00025009748438006374 0.00066075959892415671 -0.0012052600119663364 -0.00020284867090058427 6.158660536818149e-05
leaf_weight=26 130 22 20 35 40 20 33 52 23
leaf_count=26 130 22 20 35 40 20 33 52 23
internal_value=0 0.00170455 0.0105485 -0.0309091 -0.0165217 0.0133333 -0.0490909 0.0230769 -0.0387755
internal_weight=0 352 237 55 115 60 55 182 49
internal_count=401 352 237 55 115 60 55 182 49
is_linear=0
shrinkage=0.1


Tree=78
num_leaves=10
num_cat=0
split_feature=48 29 0 29 37 19 27 24 43
split_gain=8.66539 9.19585 11.2162 10.4701 8.75653 7.20238 6.71493 9.48387 6.76715
threshold=0.74283500000000013 158.66651250000004 0.76593525000000007 114.04185000000001 1517.3902250000003 0.034327500000000004 0.75535200000000013 37.051620000000007 34.557600000000008
decision_type=2 2 2 2 2 2 2 2 2
left_child=6 2 3 -2 -3 -6 7 8 -1
right_child=1 4 -4 -5 5 -7 -8 -9 -10
leaf_value=0.00012942897051779423 -8.6970042526768798e-05 -0.0018529766018498617 -0.00190910793043278 0.00038675079119703025 0.00053964109311479202 -0.0010778940745377779 0.0068959785717877869 0.00027992900342283558 -0.0016493861728023428
leaf_weight=34 82 38 21 84 28 20 20 31 28
leaf_count=34 82 38 21 84 28 20 20 31 28
internal_value=0 -0.00549451 0.00695187 0.0156627 -0.0325581 -0.00416667 0.0274336 0.016129 -0.00645161
internal_weight=0 273 187 166 86 48 113 93 62
internal_count=386 273 187 166 86 48 113 93 62
is_linear=0
shrinkage=0.1


Tree=79
num_leaves=6
num_cat=0
split_feature=49 37 40 7 53
split_gain=8.2907 8.80764 7.01781 16.4904 8.33333
threshold=1.0294960000000002 658.73433750000015 37.942905000000003 10.949725000000003 34.971818500000005
decision_type=8 2 10 2 2
left_child=1 -1 3 -3 -4
right_child=-2 2 4 -5 -6
leaf_value=-0.0025076193882411662 -0.0016426425986038871 0.00011644889609287607 3.8499510523440876e-05 -0.002051154625432003 0.00029756947984505597
leaf_weight=20 26 85 144 52 72
leaf_count=20 26 85 144 52 72
internal_value=0 0.00455764 0.0082153 -0.00948905 0.0194444
internal_weight=0 373 353 137 216
internal_count=399 373 353 137 216
is_linear=0
shrinkage=0.1


Tree=80
num_leaves=5
num_cat=0
split_feature=51 45 26 9
split_gain=6.85379 7.65203 7.30883 8.07554
threshold=377.46025625000004 3873.6718730000007 1098.5583700000002 3970.4826850000004
decision_type=2 2 2 2
left_child=1 -1 3 -3
right_child=-2 2 -4 -5
leaf_value=-0.00050242496196858152 -0.0012634869570337139 -0.00042859924855403266 -0.00092234073384814719 0.00018077534906537103
leaf_weight=34 20 63 21 271
leaf_count=34 20 63 21 271
internal_value=0 0.0100257 0.0143662 0.0179641
internal_weight=0 389 355 334
internal_count=409 389 355 334
is_linear=0
shrinkage=0.1


Tree=81
num_leaves=11
num_cat=0
split_feature=29 35 29 34 7 17 7 54 0 51
split_gain=14.648 6.921 8.39032 8.72727 6.85276 8.67479 9.11717 6.85056 5.31626 3.94604
threshold=138.93508875000003 4.9688040000000013 114.44564625000001 37.609270000000009 10.095804000000003 118.46414000000001 12.591396000000001 57.992170000000009 0.29697350000000006 92.95907775000002
decision_type=2 2 2 2 2 2 2 2 2 2
left_child=1 8 3 -3 7 6 -6 -2 -1 -4
right_child=4 2 9 -5 5 -7 -8 -9 -10 -11
leaf_value=4.7138416320616065e-05 -4.6870084352410504e-05 0.00019908352224083594 0.00038403762927760772 -0.00018068831156366823 0.00017100782659743548 0.0036240359433253469 -0.0014964558736500356 -0.0018474752273868881 -0.0013189953448088476 0.00014288507993419469
leaf_weight=31 27 77 40 21 39 22 40 39 20 22
leaf_count=31 27 77 40 21 39 22 40 39 20 22
internal_value=0 0.0222749 0.0325 0.0142857 -0.0173653 -0.000990099 -0.0164557 -0.0424242 -0.00980392 0.0612903
internal_weight=0 211 160 98 167 101 79 66 51 62
internal_count=378 211 160 98 167 101 79 66 51 62
is_linear=0
shrinkage=0.1


Tree=82
num_leaves=10
num_cat=0
split_feature=23 21 26 30 30 49 12 19 31
split_gain=5.33945 13.5911 9.77862 8.05288 10.0522 8.41739 7.93659 9.23816 5.13455
threshold=1.3089082500000002 0.58807500000000001 314.21531500000009 97.92916000000001 89.347400000000007 0.72132450000000004 7.2562275000000005 0.020895000000000004 21.594548000000003
decision_type=2 2 2 2 2 10 10 2 2
left_child=3 2 -2 4 5 -1 -3 -8 -5
right_child=1 6 -4 8 -6 -7 7 -9 -10
leaf_value=0.00034999799745864064 -0.00042531550142674589 -0.00073733305851534454 -0.0030502462056692971 0.001045705424252846 -0.0014452292523061305 -0.00051130706151587249 -0.00017765576401018284 0.00019932902251936486 9.3241424675727822e-05
leaf_weight=72 30 23 23 20 23 20 24 127 29
leaf_count=72 30 23 23 20 23 20 24 127 29
internal_value=0 -0.00660793 -0.0509434 0.0170732 0.0026087 0.0173913 0.00689655 0.0152318 0.0510204
internal_weight=0 227 53 164 115 92 174 151 49
internal_count=391 227 53 164 115 92 174 151 49
is_linear=0
shrinkage=0.1


Tree=83
num_leaves=9
num_cat=0
split_feature=9 12 15 10 17 1 41 52
split_gain=6.45614 10.8737 11.305 8.15643 7.75484 9.20417 7.63823 6.59293
threshold=4261.6642525000016 42.445870000000006 67.397603000000018 25.246650000000006 67.066916000000006 2357.8150750000004 88.317349250000021 2626.3256535000005
decision_type=2 10 10 2 2 2 2 2
left_child=1 6 -3 4 5 -2 -1 -6
right_child=3 2 -4 -5 7 -7 -8 -9
leaf_value=-0.0013667431885369685 0.00033027601333335987 0.000364536518370097 -0.00072343875708159335 -0.0017117716327125798 -6.649803387286549e-05 -0.00037871285367863106 -2.1126419322861028e-05 0.00024271812203069772
leaf_weight=30 24 34 29 35 44 40 22 142
leaf_count=30 24 34 29 35 44 40 22 142
internal_value=0 -0.02 0.00793651 0.00807018 0.0144 -0.015625 -0.0538462 0.0247312
internal_weight=0 115 63 285 250 64 52 186
internal_count=400 115 63 285 250 64 52 186
is_linear=0
shrinkage=0.1


Tree=84
num_leaves=11
num_cat=0
split_feature=29 26 37 25 46 21 0 8 36 18
split_gain=7.99295 11.7452 8.40389 7.34408 12.6042 9.89254 12.5584 12.0944 4.85444 3.6
threshold=170.48296500000004 135.73761000000002 1932.5247750000001 39.092940000000006 8.9710292500000026 0.77771250000000014 0.46362050000000005 4.5383310000000003 2.4730185000000007 10.176706500000002
decision_type=2 2 2 2 2 2 2 2 2 2
left_child=3 -2 8 4 -1 7 -7 -5 -3 -6
right_child=1 2 -4 5 9 6 -8 -9 -10 -11
leaf_value=0.00039651875951270186 0.025554617128200275 -0.0024229768838202013 0.00014774181027401982 0.00013736060896542182 -0.0030295473531169554 0.00042741635359387978 -3.235460815520415e-05 -0.00064261368128835017 -0.00046943221014410143 -0.00066273291279376947
leaf_weight=24 20 32 20 106 20 71 27 36 26 20
leaf_count=24 20 32 20 106 20 71 27 36 26 20
internal_value=0 -0.0183673 -0.0358974 0.0144737 -0.015625 0.0225 0.0469388 0.0056338 -0.0551724 -0.05
internal_weight=0 98 78 304 64 240 98 142 58 40
internal_count=402 98 78 304 64 240 98 142 58 40
is_linear=0
shrinkage=0.1


Tree=85
num_leaves=8
num_cat=0
split_feature=54 51 13 1 23 3 23
split_gain=6.72165 8.84188 7.44506 9.22711 8.06698 9.77177 2.89377
threshold=97.790012000000004 139.63682950000003 1059.3008800000002 2727.1367200000004 1.8785385000000001 54.003937500000013 1.3213215
decision_type=2 2 2 2 2 2 2
left_child=2 -2 4 -4 5 -1 -5
right_child=1 -3 3 6 -6 -7 -8
leaf_value=2.9744787027272711e-05 0.00011238572193166511 -0.0021399647513403691 -1.3107325201470021e-05 0.00049924252010069786 0.00052849185055976115 -0.0021935432009138902 0.0001966692990642002
leaf_weight=197 25 23 33 23 37 29 24
leaf_count=197 25 23 33 23 37 29 24
internal_value=0 -0.0291667 0.0107872 0.0375 0.0026616 -0.00442478 0.0659574
internal_weight=0 48 343 80 263 226 47
internal_count=391 48 343 80 263 226 47
is_linear=0
shrinkage=0.1


Tree=86
num_leaves=9
num_cat=0
split_feature=51 16 8 49 35 53 44 42
split_gain=7.95358 6.41844 11.6188 15.4183 7.71556 6.04546 5.97943 5.78401
threshold=377.46025625000004 0.7150822200000001 5.0056930000000017 0.22689550000000003 8.1582390000000018 32.620146500000011 5.1473790000000008 40.886736000000006
decision_type=2 10 2 10 2 2 2 2
left_child=1 2 6 -4 5 -3 -1 -6
right_child=-2 4 3 -5 7 -7 -8 -9
leaf_value=0.00021992181063218254 -0.0013177899609283655 -4.7568943477152703e-05 0.00046074310157240094 -0.00075297613600080842 0.00034268540553152369 -0.00099986576453207194 -4.4379114522929974e-05 -0.00031497518752001687
leaf_weight=137 21 41 23 39 35 33 38 33
leaf_count=137 21 41 23 39 35 33 38 33
internal_value=0 0.00131926 0.0113924 -0.0258065 -0.015493 -0.0378378 0.0245714 0.00882353
internal_weight=0 379 237 62 142 74 175 68
internal_count=400 379 237 62 142 74 175 68
is_linear=0
shrinkage=0.1


Tree=87
num_leaves=9
num_cat=0
split_feature=55 37 40 31 42 40 0 8
split_gain=7.14649 10.0755 11.3654 8.407 8.39361 9.40833 7.33141 5.98355
threshold=14.850000000000003 2014.0882125000003 47.945254500000011 15.867506000000002 42.885750000000009 65.154160500000017 0.19869450000000002 2.9886570000000003
decision_type=10 2 10 2 2 10 2 2
left_child=3 2 -2 -1 5 -5 -4 -6
right_child=1 -3 6 4 7 -7 -8 -9
leaf_value=0.00094919018571737012 0.00046047997871590435 0.00035638806653847012 -0.00073516367887275157 -0.00019513754977173547 -5.9835056762343536e-05 0.00026208317247791035 2.1651979470756278e-05 -0.0013150923242674591
leaf_weight=21 33 29 24 118 29 53 70 25
leaf_count=21 33 29 24 118 29 53 70 25
internal_value=0 0.0192308 0.00708661 -0.00813008 -0.0137778 -0.00292398 -0.0106383 -0.0481481
internal_weight=0 156 127 246 225 171 94 54
internal_count=402 156 127 246 225 171 94 54
is_linear=0
shrinkage=0.1


Tree=88
num_leaves=8
num_cat=0
split_feature=53 51 16 6 19 18 31
split_gain=8.8022 12.4944 7.85706 6.95597 8.8917 8.53534 5.63316
threshold=24.164174000000006 72.909210500000015 0.47106864000000004 0.030602250000000004 0.032337500000000012 12.921209000000001 24.020480000000003
decision_type=2 2 8 2 2 2 2
left_child=1 6 -2 4 -4 -5 -1
right_child=2 -3 3 5 -6 -7 -8
leaf_value=0.00022796978409900804 0.00092951918214117808 -0.0023459698660809325 0.00013137531139923936 -0.0005740813671352321 -0.00010795640448487015 0.00025915481695288841 -0.00041493078414070586
leaf_weight=23 28 39 142 59 64 20 21
leaf_count=23 28 39 142 59 64 20 21
internal_value=0 -0.0228916 0.013738 0.00877193 0.0184466 -0.0164557 0.0136364
internal_weight=0 83 313 285 206 79 44
internal_count=396 83 313 285 206 79 44
is_linear=0
shrinkage=0.1


Tree=89
num_leaves=8
num_cat=0
split_feature=52 8 51 49 18 51 46
split_gain=10.4979 10.1622 9.94606 10.6131 7.02789 5.92525 3.89778
threshold=1373.5978380000004 7.0965230000000004 127.83791825000002 0.39622050000000003 13.790935000000003 104.20144700000002 9.6146720000000006
decision_type=2 2 2 10 2 2 2
left_child=6 2 5 -4 -3 -2 -1
right_child=1 4 3 -5 -6 -7 -8
leaf_value=0.017264788557948937 9.4773324069310648e-05 -0.00099763202779776889 -0.0016969827023935664 0.00020536028268102946 0.0002140451643827695 0.00059781625564496281 8.8688724868720036e-05
leaf_weight=23 199 34 50 26 20 21 24
leaf_count=23 199 34 50 26 20 21 24
internal_value=0 0.00285714 0.0101351 -0.0210526 -0.037037 0.0209091 0.0531915
internal_weight=0 350 296 76 54 220 47
internal_count=397 350 296 76 54 220 47
is_linear=0
shrinkage=0.1


Tree=90
num_leaves=7
num_cat=0
split_feature=12 55 31 29 9 35
split_gain=12.4393 8.15197 7.24157 6.59907 9.29478 7.56654
threshold=6.520315000000001 0.10852449350000003 37.479114000000003 173.26812375000003 4272.9721000000009 5.7162450000000007
decision_type=10 10 2 2 2 2
left_child=1 -1 3 5 -5 -2
right_child=2 -3 -4 4 -6 -7
leaf_value=-0.0014351521814695005 -4.2262184054208428e-05 -3.4921464922706541e-05 -0.00061429373493206542 -0.001868740786444438 0.00030777884301647204 0.0002153628388442268
leaf_weight=20 56 33 39 22 43 187
leaf_count=20 56 33 39 22 43 187
internal_value=0 -0.0396226 0.0123919 0.0175325 -0.0107692 0.0251029
internal_weight=0 53 347 308 65 243
internal_count=400 53 347 308 65 243
is_linear=0
shrinkage=0.1


Tree=91
num_leaves=9
num_cat=0
split_feature=25 21 20 29 34 45 21 21
split_gain=8.65204 19.1195 11.1378 9.24843 10.2327 9.35622 4.16877 2.67442
threshold=37.14809000000001 0.55381875000000014 1.0852325000000003 182.8905225 15.254832000000002 10069.066755000002 0.79110000000000014 0.76410000000000011
decision_type=2 2 2 2 2 2 2 2
left_child=1 -1 7 4 6 -6 -2 -3
right_child=3 2 -4 -5 5 -7 -8 -9
leaf_value=0.020949676501265758 0.00018199427615840365 -0.0015731291592707289 0.0001278319462363155 -0.0011354910055714179 0.0001247280574083018 -0.00035999400148059579 0.00035602315747802109 -0.0029155496628566688
leaf_weight=29 32 20 29 39 154 42 25 23
leaf_count=29 32 20 29 39 154 42 25 23
internal_value=0 -0.0168317 -0.0444444 0.0171233 0.0241107 0.0132653 0.0614035 -0.0767442
internal_weight=0 101 72 292 253 196 57 43
internal_count=393 101 72 292 253 196 57 43
is_linear=0
shrinkage=0.1


Tree=92
num_leaves=5
num_cat=0
split_feature=45 28 17 21
split_gain=9.48418 5.80759 7.76308 7.50722
threshold=3873.6718730000007 0.22957200000000003 136.81349600000001 0.58807500000000001
decision_type=2 2 2 2
left_child=-1 -2 3 -3
right_child=1 2 -4 -5
leaf_value=-0.00081174909045147927 0.016168044307511953 -0.00026888073291298799 -0.00045625704371247744 0.00012477245087834602
leaf_weight=39 31 76 25 224
leaf_count=39 31 76 25 224
internal_value=0 0.0134831 0.00953846 0.014
internal_weight=0 356 325 300
internal_count=395 356 325 300
is_linear=0
shrinkage=0.1


Tree=93
num_leaves=8
num_cat=0
split_feature=16 25 26 20 7 0 9
split_gain=7.73273 8.4922 12.4191 10.8878 9.52708 9.50452 7.78089
threshold=0.99538128000000015 39.455720000000007 149.71007750000004 1.0852325000000003 11.630341000000003 0.19869450000000002 5530.1946050000015
decision_type=8 2 2 2 2 2 2
left_child=1 2 -1 -4 5 -3 -6
right_child=-2 4 3 -5 6 -7 -8
leaf_value=0.014551239876760758 0.00067945209082701983 -0.00012736192886655812 -0.0023688682443644598 0.00015200118298781441 -0.0011281235609768142 0.00015118489550194219 4.2850756781275441e-05
leaf_weight=23 24 26 47 29 54 133 51
leaf_count=23 24 26 47 29 54 133 51
internal_value=0 -0.000275482 -0.0252525 -0.0447368 0.00909091 0.0245283 -0.0142857
internal_weight=0 363 99 76 264 159 105
internal_count=387 363 99 76 264 159 105
is_linear=0
shrinkage=0.1


Tree=94
num_leaves=7
num_cat=0
split_feature=55 42 5 30 17 22
split_gain=7.10263 7.16218 9.70601 9.86312 7.50571 10.0119
threshold=0.060449946000000004 30.554910000000003 3.5945392500000004 71.50230000000002 56.903220000000012 31.410896000000005
decision_type=10 2 2 2 2 2
left_child=-1 4 -3 -4 -2 -6
right_child=1 2 3 -5 5 -7
leaf_value=-0.0019223322987655716 -0.0011172836929727943 -0.0012356244627923143 0.0005506219527022662 -6.732798178471955e-05 -2.0776383506726324e-05 0.00014041576009069659
leaf_weight=35 29 26 20 115 56 112
leaf_count=35 29 26 20 115 56 112
internal_value=0 0.0100559 -0.00559006 0.00518519 0.0228426 0.0309524
internal_weight=0 358 161 135 197 168
internal_count=393 358 161 135 197 168
is_linear=0
shrinkage=0.1


Tree=95
num_leaves=8
num_cat=0
split_feature=55 5 17 41 1 11 24
split_gain=10.9947 11.5294 9.10963 11.4815 8.0532 8.1872 7.87902
threshold=0.091191411500000014 5.4106342500000002 62.012816000000008 80.644934500000019 4049.2287000000001 196.66840500000004 18.271016000000003
decision_type=10 2 2 2 2 2 2
left_child=1 -1 3 -2 6 -6 -4
right_child=2 -3 4 -5 5 -7 -8
leaf_value=1.1779644145680763e-05 -0.0013515954306194083 -0.004312091111293213 -0.00041275545565500998 0.0002082552951449922 7.7755655894738102e-05 0.00075685911667074395 8.7773084581024071e-05
leaf_weight=34 34 34 52 32 32 44 131
leaf_count=34 34 34 52 32 32 44 131
internal_value=0 -0.0352941 0.00892308 -0.0242424 0.0173745 0.0447368 0.00601093
internal_weight=0 68 325 66 259 76 183
internal_count=393 68 325 66 259 76 183
is_linear=0
shrinkage=0.1


Tree=96
num_leaves=12
num_cat=0
split_feature=47 32 40 2 31 17 54 16 40 0 41
split_gain=8.62244 11.9407 12.5949 11.6387 10.9969 7.39862 6.39596 5.55385 4.42366 4.12235 2.56098
threshold=0.28871500000000011 0.35174700000000009 60.8607285 103.26696750000001 22.783630000000006 56.001410000000007 48.992742000000007 0.61218054000000011 40.818492000000006 0.30017825000000004 96.272468500000016
decision_type=8 10 10 2 2 2 2 8 8 2 2
left_child=5 2 10 4 -3 -1 9 -8 -5 -7 -2
right_child=1 3 -4 8 -6 6 7 -9 -10 -11 -12
leaf_value=-0.00092440836509635272 -0.003066139620606759 0.00050044918182366922 7.4357831773145118e-05 -0.00067196695933562545 7.4420134384672453e-06 0.00011646079790588716 -0.0012906163520711455 0.00025534452068895198 -7.0871820925616879e-05 0.0016269663168125472 -0.0012607711405162132
leaf_weight=28 21 50 22 20 87 30 20 45 31 29 20
leaf_count=28 21 50 22 20 87 30 20 45 31 29 20
internal_value=0 -0.00517928 -0.0428571 0.00744681 0.0226277 0.025 0.0354839 0.0138462 -0.0333333 0.059322 -0.0756098
internal_weight=0 251 63 188 137 152 124 65 51 59 41
internal_count=403 251 63 188 137 152 124 65 51 59 41
is_linear=0
shrinkage=0.1


Tree=97
num_leaves=7
num_cat=0
split_feature=12 41 10 43 41 36
split_gain=9.23645 9.43318 9.95075 10.6202 8.82767 7.52596
threshold=6.520315000000001 170.62606925000003 19.243950000000002 137.68204800000004 80.644934500000019 3.0111570000000003
decision_type=10 2 2 2 2 2
left_child=4 2 5 -4 -1 -2
right_child=1 -3 3 -5 -6 -7
leaf_value=-0.00097962941910548305 -0.00072776913808681994 -0.00066516509209904292 8.5949040175060015e-05 0.0014424357215560174 2.4650112039887241e-05 0.00019775068942642384
leaf_weight=23 46 27 234 21 35 20
leaf_count=23 46 27 234 21 35 20
internal_value=0 0.00862069 0.0133956 0.0223529 -0.0344828 -0.0212121
internal_weight=0 348 321 255 58 66
internal_count=406 348 321 255 58 66
is_linear=0
shrinkage=0.1


Tree=98
num_leaves=12
num_cat=0
split_feature=9 12 14 5 12 15 34 1 21 7 28
split_gain=7.54665 10.3581 7.59298 9.38637 6.47487 7.61542 6.85247 5.76923 6.97731 4.55708 7.65631
threshold=4697.4808000000003 37.150556250000008 848.21666175000007 6.2766015000000008 36.019335000000005 24.305599500000003 13.956644000000002 3400.6094100000005 0.77988750000000007 8.6337400000000013 0.32932650000000002
decision_type=2 8 2 2 10 10 2 2 2 2 2
left_child=4 7 3 -3 9 -6 -7 8 -2 -1 -11
right_child=1 2 -4 -5 5 6 -8 -9 -10 10 -12
leaf_value=-0.0011536564581148519 -6.7910612135281813e-05 6.0321251054124789e-05 0.00057588421585135527 -0.0010760219613849683 0.0070906879889995889 -0.00098778940951853517 8.8129499826858297e-05 0.0013776115258146591 0.00029025071976543267 -0.0014987405772174838 0.00020518318953136429
leaf_weight=22 31 102 28 44 20 25 46 26 21 21 25
leaf_count=22 31 102 28 44 20 25 46 26 21 21 25
internal_value=0 0.015873 0.00229885 -0.00684932 -0.0119497 0.00549451 -0.00985915 0.0461538 0.0269231 -0.0352941 -0.0173913
internal_weight=0 252 174 146 159 91 71 78 52 68 46
internal_count=411 252 174 146 159 91 71 78 52 68 46
is_linear=0
shrinkage=0.1


Tree=99
num_leaves=9
num_cat=0
split_feature=22 19 52 19 54 17 20 25
split_gain=6.90952 7.7757 8.08249 7.84078 7.52788 6.71329 6.27251 4.35054
threshold=46.844358000000007 0.023183500000000006 10184.914770000001 0.026367500000000006 43.583826000000009 70.876320000000007 1.470315 39.737020000000008
decision_type=2 2 2 2 2 2 2 2
left_child=1 2 4 7 -1 -2 -5 -3
right_child=5 3 -4 6 -6 -7 -8 -9
leaf_value=0.00025611345334046947 -0.0012770657817166465 0.0001087221793548941 -0.00094486334348109491 1.4795180788578809e-05 -0.00052988017295200985 7.0206003628383562e-05 0.0013041631434711953 0.00056307701028032286
leaf_weight=26 22 20 35 161 28 30 20 42
leaf_count=26 22 20 35 161 28 30 20 42
internal_value=0 0.00843373 -0.0168539 0.0176955 0.00740741 -0.0307692 0.00718232 0.0483871
internal_weight=0 332 89 243 54 52 181 62
internal_count=384 332 89 243 54 52 181 62
is_linear=0
shrinkage=0.1


Tree=100
num_leaves=6
num_cat=0
split_feature=41 14 13 49 49
split_gain=9.7319 10.4713 9.40444 8.71413 9.50392
threshold=170.62606925000003 733.38635800000009 669.41409725000005 1.0294960000000002 0.27430650000000006
decision_type=2 2 2 8 10
left_child=1 3 -3 4 -1
right_child=-2 2 -4 -5 -6
leaf_value=-0.00027049598448224908 -0.0011493592035449818 9.0510925247408501e-05 0.0005470217526893765 -0.0014963908808018217 9.2552219416201575e-05
leaf_weight=164 30 20 25 24 143
leaf_count=164 30 20 25 24 143
internal_value=0 0.00585106 0.0511111 -0.000302115 0.00423453
internal_weight=0 376 45 331 307
internal_count=406 376 45 331 307
is_linear=0
shrinkage=0.1


Tree=101
num_leaves=9
num_cat=0
split_feature=54 29 30 31 15 26 8 40
split_gain=8.33492 8.74062 9.83477 9.67348 9.15542 10.3005 10.1014 8.63566
threshold=19.250134000000003 158.66651250000004 81.16367000000001 23.566684000000006 28.303684500000006 282.24783500000007 2.4527720000000004 34.844667000000008
decision_type=2 2 2 2 10 2 2 8
left_child=7 4 -3 -4 5 -2 -6 -1
right_child=1 2 3 -5 6 -7 -8 -9
leaf_value=-0.0013684724989474603 0.00017165555761034198 0.017670517732613179 0.00039494203220059323 -0.00129553667905529 0.00030232464180500202 -0.00040414225514798214 1.9683780411953723e-05 3.2580473801247522e-06
leaf_weight=22 41 20 30 66 90 37 57 37
leaf_count=22 41 20 30 66 90 37 57 37
internal_value=0 0.0085044 -0.0137931 -0.0270833 0.02 -0.00769231 0.0346939 -0.0322034
internal_weight=0 341 116 96 225 78 147 59
internal_count=400 341 116 96 225 78 147 59
is_linear=0
shrinkage=0.1


Tree=102
num_leaves=8
num_cat=0
split_feature=40 34 12 34 26 13 29
split_gain=8.22761 7.64204 7.1231 12.4434 10.1011 6.99081 6.41026
threshold=23.230779000000002 24.193912000000005 6.520315000000001 31.419294000000004 119.01544250000002 843.35762900000009 114.44564625000001
decision_type=8 2 10 2 2 2 2
left_child=1 -1 5 4 -4 -2 -5
right_child=2 -3 3 6 -6 -7 -8
leaf_value=1.2329938044400248e-05 -0.00097230650641920143 -0.00081779143437096683 -0.0020452284855618295 0.00038226682289645988 7.8564814872468752e-05 2.1396472034096089e-05 0.00057965328764549571
leaf_weight=25 26 24 21 26 200 27 39
leaf_count=25 26 24 21 26 200 27 39
internal_value=0 -0.0346939 0.00914454 0.0153846 0.0040724 -0.0245283 0.0538462
internal_weight=0 49 339 286 221 53 65
internal_count=388 49 339 286 221 53 65
is_linear=0
shrinkage=0.1


Tree=103
num_leaves=9
num_cat=0
split_feature=35 29 34 49 26 0 19 19
split_gain=8.95601 9.81045 15.6006 14.1023 10.4077 7.76539 9.04471 6.95099
threshold=4.9688040000000013 156.20137875000003 31.419294000000004 0.26076050000000006 129.37338500000001 0.43798250000000005 0.025173500000000005 0.025969500000000003
decision_type=2 2 2 10 2 2 2 2
left_child=5 4 3 -3 -2 6 -1 -6
right_child=1 2 -4 -5 7 -7 -8 -9
leaf_value=-0.00061861358396224657 -0.00030253584674087304 -0.0020539411663092794 0.00016395022375748731 8.4088744424941814e-05 0.00048338846959418408 -0.0013803378237610153 0.00014047933110917799 6.4126042191566066e-05
leaf_weight=28 23 36 35 41 73 20 33 110
leaf_count=28 23 36 35 41 73 20 33 110
internal_value=0 0.0113208 -0.0125 -0.0376623 0.0242718 -0.0259259 -0.00819672 0.0322404
internal_weight=0 318 112 77 206 81 61 183
internal_count=399 318 112 77 206 81 61 183
is_linear=0
shrinkage=0.1


Tree=104
num_leaves=11
num_cat=0
split_feature=9 2 53 45 21 28 48 31 41 15
split_gain=10.9907 8.26084 10.0929 6.98244 9.86575 7.37978 7.71703 6.86517 6.1409 2.81299
threshold=4697.4808000000003 94.105099500000009 35.589504500000011 6261.0227755000005 0.71306250000000004 0.29721375000000005 1.4107050000000003 31.069672000000004 105.33523325000002 27.880898500000004
decision_type=2 2 2 2 2 2 2 2 2 10
left_child=1 2 8 4 -2 -5 -7 -6 -1 -3
right_child=3 9 -4 5 7 6 -8 -9 -10 -11
leaf_value=-0.00080441037276489629 -0.00027228226206678575 -0.00099995203275004391 0.00042955707233039244 0.011572310436557376 0.00024281137545249896 0.00017702681089792966 -9.0495364687553437e-05 -0.00029029079996016328 0.00025157366151830259 -0.00036178194000671519
leaf_weight=62 35 22 27 22 41 78 48 20 25 20
leaf_count=62 35 22 27 22 41 78 48 20 25 20
internal_value=0 -0.0192308 -0.00526316 0.0147541 -0.00625 0.0283784 0.0190476 0.0180328 -0.0218391 -0.0571429
internal_weight=0 156 114 244 96 148 126 61 87 42
internal_count=400 156 114 244 96 148 126 61 87 42
is_linear=0
shrinkage=0.1


Tree=105
num_leaves=8
num_cat=0
split_feature=36 3 19 55 15 54 1
split_gain=9.94964 10.1911 8.16524 8.12978 8.32167 5.44998 5.58957
threshold=3.0907692500000006 54.003937500000013 0.020099000000000002 0.087940686500000018 113.33422100000001 17.033070000000006 3850.1328800000006
decision_type=2 2 2 10 10 2 2
left_child=2 5 -1 -4 -5 -2 -7
right_child=1 -3 3 4 -6 6 -8
leaf_value=-0.00054665291586213506 -4.5096269918269407e-05 -0.00081864731518274084 -0.002976995088357727 0.00011632058143286945 -0.00059439816975927315 9.0524640838114415e-05 0.00046402425392871806
leaf_weight=36 20 28 35 161 25 72 37
leaf_count=36 20 28 35 161 25 72 37
internal_value=0 0.0261146 -0.00583658 0.00135747 0.00967742 0.0379845 0.046789
internal_weight=0 157 257 221 186 129 109
internal_count=414 157 257 221 186 129 109
is_linear=0
shrinkage=0.1


Tree=106
num_leaves=9
num_cat=0
split_feature=3 54 53 44 48 35 28 54
split_gain=12.5266 11.5006 8.31041 10.1104 7.2984 11.3978 7.16921 5.32699
threshold=46.224273500000002 30.130980000000005 34.58390425000001 10.262104500000001 1.0190600000000003 9.0240690000000026 0.34845750000000003 22.507572000000003
decision_type=2 2 2 2 2 2 2 2
left_child=2 -2 3 7 -4 -6 -3 -1
right_child=1 6 4 -5 5 -7 -8 -9
leaf_value=-0.00056908982639318777 0.00022624098718874476 -0.0027078117251725705 0.00041160690310083681 0.009775020510577416 -0.00032689612274837448 0.00044774320056751964 -0.0001278482536116699 4.9897824892490347e-05
leaf_weight=51 25 34 35 21 29 25 22 150
leaf_count=51 25 34 35 21 29 25 22 150
internal_value=0 -0.0283951 0.0157556 0.00540541 0.041573 0.0185185 -0.0535714 -0.00149254
internal_weight=0 81 311 222 89 54 56 201
internal_count=392 81 311 222 89 54 56 201
is_linear=0
shrinkage=0.1


Tree=107
num_leaves=8
num_cat=0
split_feature=40 53 48 53 40 13 49
split_gain=14.0252 12.29 13.1756 7.81092 7.72224 7.1683 6.43678
threshold=23.230779000000002 22.045064500000006 1.7004150000000002 26.884225000000004 25.507482000000003 664.22556750000012 0.2404415
decision_type=8 2 2 2 10 2 10
left_child=3 6 4 -1 -3 -4 -2
right_child=1 2 5 -5 -6 -7 -8
leaf_value=3.8920584092223603e-05 -0.0012861166172152003 0.000204706976142923 0.0001348079314689688 -0.00090407361239930317 -1.6307515441129956e-06 0.00098131348096127682 0.00022956818277731773
leaf_weight=22 30 30 22 34 206 30 28
leaf_count=22 30 30 22 34 206 30 28
internal_value=0 0.00751445 0.0159722 -0.0464286 0.0059322 0.0615385 -0.0344828
internal_weight=0 346 288 56 236 52 58
internal_count=402 346 288 56 236 52 58
is_linear=0
shrinkage=0.1


Tree=108
num_leaves=9
num_cat=0
split_feature=48 12 46 41 36 9 30 32
split_gain=10.4244 13.7369 10.6385 6.74688 6.72764 10.2825 8.91746 4.66257
threshold=0.57797000000000009 68.89573750000001 13.555088750000001 80.644934500000019 3.2006140000000003 3921.4200900000005 97.112430000000018 0.0062073000000000015
decision_type=2 10 2 2 2 2 2 8
left_child=1 3 4 7 5 -2 -6 -1
right_child=2 -3 -4 -5 6 -7 -8 -9
leaf_value=5.6914113020001714e-05 -0.0014940018282268285 0.00034248589141442818 0.00056480451063286783 0.0002389083258261913 -0.00073055344882699813 -0.00015553570396283097 0.00057475927174389767 -0.00064285118490924249
leaf_weight=27 32 34 29 29 45 145 35 20
leaf_count=27 32 34 29 29 45 145 35 20
internal_value=0 0.0236364 -0.0125874 0 -0.0190661 -0.0299435 0.005 -0.0234043
internal_weight=0 110 286 76 257 177 80 47
internal_count=396 110 286 76 257 177 80 47
is_linear=0
shrinkage=0.1


Tree=109
num_leaves=7
num_cat=0
split_feature=16 19 53 20 16 21
split_gain=9.60886 7.53144 7.86343 9.69697 6.24091 5.15703
threshold=0.93430980000000008 0.045173000000000012 23.258110500000004 1.0709112500000002 0.45821664000000006 0.71951250000000011
decision_type=8 2 2 2 10 2
left_child=1 2 3 -1 -4 -2
right_child=5 -3 4 -5 -6 -7
leaf_value=0.00020994742606885144 0.00012794243321438201 -0.0013701522915528172 0.0020730084449471493 -0.0014603891841561334 1.7453217454212948e-05 0.00074428393411898061
leaf_weight=33 20 27 23 27 245 21
leaf_count=33 20 27 23 27 245 21
internal_value=0 -0.00478873 -0.000609756 -0.0333333 0.00671642 0.0463415
internal_weight=0 355 328 60 268 41
internal_count=396 355 328 60 268 41
is_linear=0
shrinkage=0.1


Tree=110
num_leaves=7
num_cat=0
split_feature=40 5 5 52 49 49
split_gain=8.29946 8.59649 7.03581 11.3315 8.66667 7.63481
threshold=24.354115500000002 4.7351355000000011 6.7461285000000002 30575.528460000005 0.36235550000000005 0.12530050000000001
decision_type=8 2 2 2 10 10
left_child=1 -1 3 5 -4 -2
right_child=2 -3 4 -5 -6 -7
leaf_value=3.7338223462422266e-05 0.00019354652960188807 -0.0010117944397303388 1.6972053170809694e-05 -0.00063212206164094706 0.00030277141747833122 -4.7581740323756804e-05
leaf_weight=30 82 27 39 36 39 149
leaf_count=30 82 27 39 36 39 149
internal_value=0 -0.0368421 0.00434783 -0.00337079 0.0307692 0.0047619
internal_weight=0 57 345 267 78 231
internal_count=402 57 345 267 78 231
is_linear=0
shrinkage=0.1


Tree=111
num_leaves=6
num_cat=0
split_feature=31 53 49 31 9
split_gain=7.53254 6.73875 7.04289 9.62722 6.76698
threshold=37.934616000000013 41.669618500000006 0.43008550000000006 25.460344000000003 6177.6083250000001
decision_type=2 2 10 2 2
left_child=1 2 4 -4 -1
right_child=-2 -3 3 -5 -6
leaf_value=4.4999419963322514e-05 -0.00091706368554093963 0.00015306165347697432 -3.4656883009648888e-05 0.00027509445742922084 -0.00071807943081056988
